{"type":"LSTM","options":{"inputSize":26,"inputRange":26,"hiddenLayers":[50],"outputSize":26,"decayRate":0.999,"smoothEps":1e-8,"regc":0.000001,"clipval":5,"maxPredictionLength":100,"dataFormatter":{"values":["about","when","view","world","last","system","then","need","under","mail","days","part","local","address","long","even","file","children","call","image","include","conditions","week","register","really","start","second","movie","again","street","comment","things","student","quote","issue","problems","garden","central","images","notice","once","common","drive","period","tickets","third","fact","meet","archives","points","receive","domain","listings","later","among","speed","face","stuff","cash","overall","river","stop","menu","corporation","supply","certain","running","jewelry","according","names","rental","kind","logo","degree","homes","asian","feature","maps","survey","animal","christian","probably","publications","paid","wall","selected","warning","significant","rule","agent","valid","relations","mary","expected","grade","pool","approved","functions","places","spain","remote","instructions","instruments","eyes","devices","beyond","literature","helpful","bottom","laws","connect","suite","gear","regulations","clients","naked","publishing","perhaps","village","amateur","holidays","monitoring","league","johnson","fuck","produced","heavy","guitar","finding","saying","election","certified","corner","requests","developer","plastic","equal","assistant","gene","earlier","personnel","aids","stated","payments","script","integration","dakota","installed","maryland","faster","anime","protocol","recreation","negative","protected","birthday","breaking","representative","static","intel","junior","toll","prevention","directors","turkey","comfort","previously","achieve","dress","dealer","contemporary","utah","trackback","suites","feeling","permit","bureau","mixed","compact","accordance","annotation","explain","newest","extent","lesbians","backup","audience","jordan","cook","virgin","favourite","cheats","hosted","logic","respond","plain","checking","enforcement","buddy","dean","blues","controlled","biology","debate","arkansas","crazy","scores","efficient","interviews","hell","alerts","suck","genre","submission","dolls","navy","limits","resulting","winner","contractor","potter","modify","affordable","universe","boobs","avatar","lunch","dildo","contribution","swimming","happens","preferences","bits","classification","favourites","represents","superior","preferred","saved","moore","risks","cooperation","acquisition","sexcam","poland","detroit","alexander","putting","committees","legislative","missed","asset","generate","humor","fabric","flying","para","organisations","plane","eventually","driven","innovative","legend","adams","bugs","hamilton","moderator","settlement","tone","collectables","trips","corresponding","stamps","argentina","pleasure","columbus","prayer","hurricane","comic","calculated","applies","notebooks","fellow","coins","involving","investing","carrying","sand","finds","absolute","soldiers","worker","ridge","lets","necessarily","trend","spaces","modeling","testimonials","masters","cartridge","fraud","okay","confirmed","desired","grove","korean","funded","yard","faces","sean","kent","flags","operated","queries","cluster","woods","everybody","sublime","stability","southwest","personally","pdas","screening","booty","wishlist","secrets","merchants","tabs","appreciate","cooling","trucks","tiger","indicators","supplements","tranny","catering","implementing","motors","capability","complaints","blvd","odds","raising","paradise","combine","overnight","rugby","admissions","deutsch","facial","choosing","flexibility","payday","holders","roots","attempts","gadgets","appeals","islamic","determining","triple","vincent","axis","sought","mounted","bachelor","departure","ottawa","seasons","holland","refers","turkish","arrow","meals","merely","calendars","durham","hats","rainbow","halloween","climbing","amber","waves","underlying","specialized","bracelet","coupon","drew","costume","encoding","horizontal","schemes","bedding","seniors","jury","subscribers","charm","constraints","oclc","thesis","rocky","wanna","louisville","breath","strictly","surprised","salon","turbo","commander","proportion","intensive","testimony","cloth","burden","spec","finest","recruiting","probe","sept","annually","considerations","scanners","stud","assessments","victor","spider","ranges","interim","antivirus","indians","membrane","sailing","undefined","silicon","physiology","scales","observer","strain","assessed","focuses","soviet","advances","monroe","preserve","praise","asks","christina","sword","absent","accessed","vessel","exceptions","analyze","wages","concerts","decorative","stat","terrible","inflation","drums","contracting","assuming","plymouth","uploaded","rarely","sara","festivals","bryan","handjob","fiji","inline","suffered","grip","columnists","fired","prot","tires","illustrations","happiness","bizarre","auckland","chrysler","tribe","superb","nuke","selections","troy","shareholders","genome","documented","thong","prizes","grab","behavioral","sullivan","attitudes","confident","consortium","safely","hungarian","spencer","tablets","gotten","highs","comm","deposits","watts","haiti","pharmacology","belarus","complications","scripting","expo","debut","monaco","distributions","volvo","threatened","abstracts","alpine","soma","prospect","geographical","benz","shapes","rapids","preventing","productive","refurbished","saves","punch","cowboy","consist","academics","naughty","freely","briefly","jesse","hull","organizing","invisible","cayman","buck","hydrocodone","consecutive","beth","bradford","boring","prefix","metadata","handbags","thunder","presenting","fundraising","markers","kills","computational","handhelds","hans","poet","reviewing","lawsuit","hierarchy","passive","courage","verde","hitachi","prerequisite","refugees","sewing","conclude","propose","adsl","occurring","acrylic","incidents","pressing","dressed","belfast","trader","thrown","duplicate","realm","broader","convinced","merge","estimation","allan","yacht","herb","idle","grows","abraham","senegal","runtime","decimal","deviation","inspections","cindy","mats","crawford","sheriff","mime","intimate","dentists","adaptive","reporters","basename","touring","hepatitis","valves","convertible","tribunal","lately","remind","sbjct","demographic","tooth","washer","characterization","dome","demanding","picnic","souls","wires","niger","paxil","temporarily","cooked","glow","harmful","playback","distances","collectible","budgets","commissioners","organisms","potatoes","peers","creature","internship","aluminium","coordinated","sympathy","fabrics","burst","immunology","convicted","assembled","conditional","bhutan","scared"],"indexTable":{"a":0,"b":1,"o":2,"u":3,"t":4,"w":5,"h":6,"e":7,"n":8,"v":9,"i":10,"r":11,"l":12,"d":13,"s":14,"y":15,"m":16,"p":17,"c":18,"g":19,"f":20,"k":21,"q":22,"j":23,"x":24,"z":25},"characterTable":{"0":"a","1":"b","2":"o","3":"u","4":"t","5":"w","6":"h","7":"e","8":"n","9":"v","10":"i","11":"r","12":"l","13":"d","14":"s","15":"y","16":"m","17":"p","18":"c","19":"g","20":"f","21":"k","22":"q","23":"j","24":"x","25":"z"},"characters":["a","b","o","u","t","w","h","e","n","v","i","r","l","d","s","y","m","p","c","g","f","k","q","j","x","z"],"specialIndexes":[]}},"input":{"rows":27,"columns":26,"weights":{"0":1.9197063446044922,"1":0.9261699914932251,"2":-4.37877082824707,"3":1.8443387746810913,"4":-1.8611633777618408,"5":-3.6942570209503174,"6":-3.039459466934204,"7":2.7077596187591553,"8":0.4014779329299927,"9":-1.1668148040771484,"10":-2.5630502700805664,"11":-0.7231911420822144,"12":-4.4472737312316895,"13":-0.2941433787345886,"14":3.088724374771118,"15":2.372673511505127,"16":-2.0202884674072266,"17":-2.3511602878570557,"18":2.0626251697540283,"19":-6.49044132232666,"20":-1.0921491384506226,"21":3.9386863708496094,"22":3.3344714641571045,"23":1.0408556461334229,"24":4.403496742248535,"25":-1.5039650201797485,"26":-0.7896454930305481,"27":7.8245697021484375,"28":-0.8837770223617554,"29":3.7272846698760986,"30":1.3532291650772095,"31":0.10557755827903748,"32":2.4204912185668945,"33":-0.42761486768722534,"34":-4.2522454261779785,"35":0.5335857272148132,"36":-2.7477965354919434,"37":-0.8058632016181946,"38":0.16043560206890106,"39":1.600629210472107,"40":-3.6307566165924072,"41":-0.6371504664421082,"42":1.013854742050171,"43":-1.014520287513733,"44":0.9602624773979187,"45":-7.914200305938721,"46":8.524663925170898,"47":1.132246494293213,"48":-1.0693459510803223,"49":-1.2658560276031494,"50":5.763199806213379,"51":0.3434002697467804,"52":18.84003448486328,"53":7.94501256942749,"54":15.671870231628418,"55":-25.09898567199707,"56":6.83494234085083,"57":-30.711915969848633,"58":-4.86700963973999,"59":15.034201622009277,"60":2.1089117527008057,"61":19.813730239868164,"62":-13.831151008605957,"63":-1.849532127380371,"64":22.22665786743164,"65":14.680416107177734,"66":-21.075849533081055,"67":37.109474182128906,"68":-8.06674575805664,"69":16.12354850769043,"70":-14.8691987991333,"71":20.468061447143555,"72":-9.054265975952148,"73":-14.623910903930664,"74":12.95885944366455,"75":-0.6024426817893982,"76":3.8458681106567383,"77":8.433845520019531,"78":-7.0152482986450195,"79":-5.492732048034668,"80":-4.558015823364258,"81":-9.041135787963867,"82":-6.490004062652588,"83":-3.1445274353027344,"84":14.53725528717041,"85":-2.3855645656585693,"86":0.46885454654693604,"87":2.4366729259490967,"88":-15.316205978393555,"89":10.865730285644531,"90":4.914903163909912,"91":17.794370651245117,"92":-2.5105245113372803,"93":-1.159733772277832,"94":-4.7782182693481445,"95":-1.824106216430664,"96":5.89387321472168,"97":-13.427234649658203,"98":-2.42612886428833,"99":14.572278022766113,"100":10.689505577087402,"101":-4.215389251708984,"102":-2.5151734352111816,"103":-13.79939079284668,"104":3.9219307899475098,"105":10.999393463134766,"106":-1.5768009424209595,"107":-7.0323405265808105,"108":-12.462552070617676,"109":-4.811856746673584,"110":-1.4225056171417236,"111":16.814556121826172,"112":3.449434518814087,"113":4.501955986022949,"114":-13.555965423583984,"115":6.101311683654785,"116":1.291707158088684,"117":14.595248222351074,"118":-21.225873947143555,"119":-12.635509490966797,"120":5.232799053192139,"121":0.02996101602911949,"122":-1.1753253936767578,"123":-14.196906089782715,"124":-0.7223432660102844,"125":14.320819854736328,"126":14.439400672912598,"127":18.74237060546875,"128":6.232911586761475,"129":6.5797929763793945,"130":0.8088667988777161,"131":-4.398289203643799,"132":-10.070670127868652,"133":7.438386917114258,"134":2.879359245300293,"135":6.174147129058838,"136":5.489299774169922,"137":3.45449161529541,"138":-14.907247543334961,"139":5.6452317237854,"140":2.484546661376953,"141":6.2841596603393555,"142":1.1223984956741333,"143":5.668909549713135,"144":-14.02599048614502,"145":0.922258734703064,"146":1.3077410459518433,"147":4.59387731552124,"148":8.984797477722168,"149":-8.118151664733887,"150":9.970786094665527,"151":8.713496208190918,"152":-1.2634689807891846,"153":-8.092772483825684,"154":16.139310836791992,"155":-9.944073677062988,"156":15.236649513244629,"157":6.443183422088623,"158":-13.860307693481445,"159":-17.83076286315918,"160":-15.103464126586914,"161":-2.8054139614105225,"162":-0.30257901549339294,"163":-24.815078735351562,"164":11.07950496673584,"165":-10.406388282775879,"166":-7.2774248123168945,"167":-28.656408309936523,"168":2.2559797763824463,"169":21.37995719909668,"170":34.03327560424805,"171":14.530884742736816,"172":-12.25092887878418,"173":-0.8676376342773438,"174":31.0207462310791,"175":-28.144926071166992,"176":-18.272611618041992,"177":24.453824996948242,"178":7.145309925079346,"179":9.038782119750977,"180":42.3160400390625,"181":16.817426681518555,"182":28.54911994934082,"183":-0.9905544519424438,"184":2.773892402648926,"185":-6.613888263702393,"186":-24.932723999023438,"187":-3.5800187587738037,"188":9.134923934936523,"189":2.617664337158203,"190":-10.142315864562988,"191":-33.039573669433594,"192":6.359458923339844,"193":8.629952430725098,"194":19.820899963378906,"195":1.4816534519195557,"196":-18.123275756835938,"197":-8.245253562927246,"198":8.408493041992188,"199":1.9927598237991333,"200":-12.799755096435547,"201":5.324042797088623,"202":-1.5534547567367554,"203":-3.5973496437072754,"204":21.197874069213867,"205":7.175017833709717,"206":19.825071334838867,"207":14.314254760742188,"208":1.3763346672058105,"209":-0.9118287563323975,"210":-2.0396556854248047,"211":-3.078538417816162,"212":0.8615588545799255,"213":-1.9254032373428345,"214":-1.9147131443023682,"215":0.44089096784591675,"216":-6.06606388092041,"217":3.402899742126465,"218":0.9507204294204712,"219":3.50504207611084,"220":-1.464239239692688,"221":12.183805465698242,"222":-4.368875503540039,"223":-0.4404594898223877,"224":1.7910962104797363,"225":5.589104652404785,"226":0.36996784806251526,"227":-0.9805452227592468,"228":-0.00797116570174694,"229":3.501333475112915,"230":-1.834488868713379,"231":2.5752618312835693,"232":1.087213397026062,"233":-2.8265879154205322,"234":3.261089324951172,"235":4.31452751159668,"236":-4.445617198944092,"237":7.428784370422363,"238":-3.1441218852996826,"239":-4.858530521392822,"240":-5.304619789123535,"241":0.7987629175186157,"242":-5.104225158691406,"243":-2.9059624671936035,"244":3.4628541469573975,"245":2.11487078666687,"246":3.7135448455810547,"247":0.3709438741207123,"248":0.8994297981262207,"249":-10.100967407226562,"250":4.076670169830322,"251":2.2308924198150635,"252":-2.1695897579193115,"253":8.246817588806152,"254":-3.4896674156188965,"255":2.31428599357605,"256":1.041117787361145,"257":-3.9194257259368896,"258":7.730133056640625,"259":-2.0172574520111084,"260":3.730757713317871,"261":11.807454109191895,"262":8.292604446411133,"263":-0.2224283218383789,"264":8.367307662963867,"265":22.434803009033203,"266":-29.276721954345703,"267":-18.590532302856445,"268":-29.043926239013672,"269":-8.441526412963867,"270":-0.9726956486701965,"271":-0.35611987113952637,"272":15.102456092834473,"273":-1.271781325340271,"274":-15.53010368347168,"275":2.0973095893859863,"276":5.351346492767334,"277":21.378265380859375,"278":3.3356173038482666,"279":6.155873775482178,"280":13.011544227600098,"281":-10.45848560333252,"282":-8.386578559875488,"283":-20.673416137695312,"284":16.573745727539062,"285":-16.444292068481445,"286":7.7914719581604,"287":4.0638275146484375,"288":4.171205043792725,"289":3.504783868789673,"290":-11.608930587768555,"291":-6.2137651443481445,"292":2.5385093688964844,"293":-5.25758171081543,"294":-12.874217987060547,"295":-13.133773803710938,"296":-12.846686363220215,"297":8.093379974365234,"298":2.8130099773406982,"299":13.20080852508545,"300":-8.75347900390625,"301":5.928236961364746,"302":-1.4990952014923096,"303":2.5996170043945312,"304":-7.055969715118408,"305":-12.246798515319824,"306":-0.5909547805786133,"307":-2.07304310798645,"308":1.2843520641326904,"309":1.4717034101486206,"310":9.684382438659668,"311":-1.213049054145813,"312":-0.7682012915611267,"313":1.9315950870513916,"314":-0.7856577038764954,"315":0.23432594537734985,"316":1.7994009256362915,"317":-1.3904404640197754,"318":-0.9272555708885193,"319":0.23877719044685364,"320":-0.9061042070388794,"321":1.0123294591903687,"322":-0.43439266085624695,"323":-0.38710466027259827,"324":0.16114334762096405,"325":-0.2774382531642914,"326":1.3341782093048096,"327":1.4729151725769043,"328":1.0270804166793823,"329":0.2752043306827545,"330":-0.5167762041091919,"331":-0.6697717905044556,"332":0.026632357388734818,"333":0.8188034892082214,"334":-0.6406731605529785,"335":-0.6411107182502747,"336":3.729126453399658,"337":2.468599796295166,"338":-6.098719120025635,"339":14.288802146911621,"340":-3.339796543121338,"341":2.7878973484039307,"342":-0.1484358012676239,"343":-4.538198471069336,"344":-2.181623935699463,"345":5.729592800140381,"346":-13.381104469299316,"347":-2.781240224838257,"348":0.13578040897846222,"349":-11.6397066116333,"350":3.660595178604126,"351":-8.944403648376465,"352":10.82362174987793,"353":-7.501626014709473,"354":5.848204135894775,"355":-11.266358375549316,"356":-1.7399041652679443,"357":0.6715600490570068,"358":5.3421173095703125,"359":4.822778224945068,"360":-10.826594352722168,"361":-6.149017810821533,"362":13.3471097946167,"363":12.61055850982666,"364":3.0338783264160156,"365":7.580891132354736,"366":-8.64799690246582,"367":3.42724609375,"368":-4.035217761993408,"369":-4.754894733428955,"370":-2.2755467891693115,"371":0.6303143501281738,"372":-4.9799275398254395,"373":-3.7490427494049072,"374":-4.165621757507324,"375":3.139397382736206,"376":-0.3883500397205353,"377":1.364074945449829,"378":-1.2677735090255737,"379":2.263826370239258,"380":-9.503809928894043,"381":0.29399359226226807,"382":-17.593441009521484,"383":-11.479386329650879,"384":5.0635857582092285,"385":5.7194671630859375,"386":8.343010902404785,"387":-1.279609203338623,"388":8.590980529785156,"389":-3.8724334239959717,"390":-0.09997832775115967,"391":0.32079946994781494,"392":-1.9998458623886108,"393":-0.49552321434020996,"394":-1.9950436353683472,"395":2.9206111431121826,"396":-0.01357974112033844,"397":-0.35178256034851074,"398":1.1917096376419067,"399":1.6884156465530396,"400":2.0050997734069824,"401":-1.4207074642181396,"402":0.3776848614215851,"403":4.2460479736328125,"404":4.834828853607178,"405":-0.319943368434906,"406":0.32734042406082153,"407":-1.8223800659179688,"408":-1.7482117414474487,"409":1.7939953804016113,"410":1.498777151107788,"411":-0.1984284371137619,"412":2.513885259628296,"413":2.3922693729400635,"414":0.9802486300468445,"415":-0.7540282011032104,"416":21.32141876220703,"417":5.847747325897217,"418":-15.8336181640625,"419":10.64084243774414,"420":16.737417221069336,"421":-8.745797157287598,"422":-30.504444122314453,"423":0.7622286081314087,"424":-0.5847944617271423,"425":-0.3211818337440491,"426":-2.360952377319336,"427":9.141728401184082,"428":-20.732099533081055,"429":-9.645650863647461,"430":12.340638160705566,"431":17.59980583190918,"432":-18.1699275970459,"433":3.967890739440918,"434":2.2651679515838623,"435":-4.672021865844727,"436":-0.9096850156784058,"437":5.312236309051514,"438":18.944822311401367,"439":-8.401269912719727,"440":36.65789794921875,"441":20.65641975402832,"442":12.84731388092041,"443":10.341241836547852,"444":-15.886866569519043,"445":10.82079792022705,"446":-9.662949562072754,"447":10.26285457611084,"448":2.879196882247925,"449":-17.778287887573242,"450":-8.51291561126709,"451":-12.451559066772461,"452":30.92376136779785,"453":-9.696028709411621,"454":1.8907285928726196,"455":1.7782349586486816,"456":5.991552352905273,"457":9.019816398620605,"458":11.077729225158691,"459":-4.907918930053711,"460":-3.9930715560913086,"461":20.141395568847656,"462":2.3402531147003174,"463":-11.880739212036133,"464":7.482090473175049,"465":-25.13828468322754,"466":-4.540334224700928,"467":13.529486656188965,"468":3.1711912155151367,"469":3.803654432296753,"470":-4.1538214683532715,"471":27.962770462036133,"472":8.510547637939453,"473":-2.4512076377868652,"474":-13.13294506072998,"475":3.368929386138916,"476":2.8093011379241943,"477":-0.016439322382211685,"478":18.202146530151367,"479":-15.543490409851074,"480":1.5913668870925903,"481":-9.105767250061035,"482":16.775390625,"483":-4.2207159996032715,"484":12.137561798095703,"485":-14.729881286621094,"486":-20.29763412475586,"487":-6.832683086395264,"488":-8.211084365844727,"489":-4.951855659484863,"490":-14.058560371398926,"491":-7.527737617492676,"492":1.6213886737823486,"493":-10.282289505004883,"494":-1.4252512454986572,"495":1.3999336957931519,"496":-10.403402328491211,"497":1.201885461807251,"498":2.362107992172241,"499":-0.9839195013046265,"500":-3.661766290664673,"501":2.308624267578125,"502":-7.262939929962158,"503":4.013065814971924,"504":0.6342479586601257,"505":-4.3278350830078125,"506":-0.6695632934570312,"507":-6.727439880371094,"508":3.7322864532470703,"509":4.9091081619262695,"510":0.3883412778377533,"511":6.057130813598633,"512":-2.4498939514160156,"513":-1.4494638442993164,"514":-0.2510908246040344,"515":4.100803852081299,"516":-0.11327135562896729,"517":-0.9202794432640076,"518":3.577803373336792,"519":4.419337272644043,"520":-9.7531156539917,"521":7.871197700500488,"522":11.09006118774414,"523":27.162887573242188,"524":-12.512587547302246,"525":-8.581369400024414,"526":12.440207481384277,"527":-13.775093078613281,"528":5.515340805053711,"529":-13.89133358001709,"530":5.019890308380127,"531":3.010162353515625,"532":18.45697784423828,"533":-6.675581932067871,"534":8.843356132507324,"535":-3.5481386184692383,"536":-15.964810371398926,"537":6.581305503845215,"538":-15.651698112487793,"539":-3.4794979095458984,"540":-4.623274326324463,"541":3.9105474948883057,"542":2.767594575881958,"543":-2.2822320461273193,"544":6.50292444229126,"545":19.012741088867188,"546":-12.348912239074707,"547":24.183168411254883,"548":12.06004810333252,"549":-3.707705497741699,"550":-5.444015026092529,"551":20.385589599609375,"552":-13.195402145385742,"553":-11.797484397888184,"554":0.9194446802139282,"555":25.981691360473633,"556":14.18212604522705,"557":25.05760383605957,"558":-10.531712532043457,"559":46.1151008605957,"560":8.833901405334473,"561":18.23065948486328,"562":26.90829849243164,"563":16.113615036010742,"564":23.9483642578125,"565":-31.804136276245117,"566":6.684444427490234,"567":6.79984712600708,"568":-18.71889877319336,"569":-3.164501667022705,"570":1.935990571975708,"571":9.10412311553955,"572":11.578128814697266,"573":19.04899024963379,"574":-4.150844573974609,"575":32.18165588378906,"576":34.92207717895508,"577":-59.365150451660156,"578":47.305206298828125,"579":-18.51498794555664,"580":4.122021675109863,"581":8.826013565063477,"582":2.966783285140991,"583":23.982091903686523,"584":3.36456561088562,"585":-11.920801162719727,"586":18.844345092773438,"587":-32.70747756958008,"588":-4.73443603515625,"589":-11.408129692077637,"590":23.46182632446289,"591":26.805891036987305,"592":-27.281015396118164,"593":8.85142707824707,"594":6.826554298400879,"595":1.3839901685714722,"596":-35.82720947265625,"597":5.538021564483643,"598":-69.99534606933594,"599":-35.77278518676758,"600":15.086864471435547,"601":2.3235321044921875,"602":16.72511863708496,"603":-45.43446350097656,"604":23.194896697998047,"605":31.28262710571289,"606":-39.02634811401367,"607":-101.9191665649414,"608":-14.458930969238281,"609":40.21553039550781,"610":-26.596561431884766,"611":12.781765937805176,"612":-5.9618306159973145,"613":-36.52668762207031,"614":-39.932273864746094,"615":-13.969225883483887,"616":39.94306182861328,"617":36.028106689453125,"618":-60.447689056396484,"619":37.4882698059082,"620":-8.886346817016602,"621":-6.243648529052734,"622":-2.999711275100708,"623":-100.60612487792969,"624":-36.218692779541016,"625":-22.55746841430664,"626":-23.531869888305664,"627":6.898101806640625,"628":-42.73729705810547,"629":47.79499435424805,"630":-19.443845748901367,"631":12.422449111938477,"632":4.4366254806518555,"633":-14.081005096435547,"634":49.75313949584961,"635":19.964269638061523,"636":-13.801830291748047,"637":43.994815826416016,"638":-14.499348640441895,"639":28.971887588500977,"640":-24.970924377441406,"641":48.285179138183594,"642":25.12102699279785,"643":-36.50901412963867,"644":-35.05060577392578,"645":-53.068115234375,"646":-8.73808479309082,"647":-33.64787673950195,"648":-33.597198486328125,"649":10.997678756713867,"650":58.01627731323242,"651":-54.412864685058594,"652":50.82366180419922,"653":1.239820122718811,"654":24.959239959716797,"655":-20.58186149597168,"656":-8.362409591674805,"657":-16.717748641967773,"658":7.082250595092773,"659":47.2252311706543,"660":-38.75400161743164,"661":-53.12532043457031,"662":1.4621645212173462,"663":-45.09330368041992,"664":23.40998077392578,"665":-50.201290130615234,"666":-0.4892745912075043,"667":-54.64783477783203,"668":51.1010627746582,"669":66.90997314453125,"670":-37.77204132080078,"671":-48.97063446044922,"672":-53.88530349731445,"673":55.304927825927734,"674":2.66969633102417,"675":-21.798425674438477,"676":13.011642456054688,"677":-13.719998359680176,"678":-51.54302215576172,"679":-34.35803985595703,"680":27.437297821044922,"681":3.8153467178344727,"682":37.980567932128906,"683":-53.324562072753906,"684":28.642610549926758,"685":-12.207959175109863,"686":6.699424743652344,"687":-82.13932800292969,"688":15.752140045166016,"689":-66.18759155273438,"690":39.9408073425293,"691":-85.10795593261719,"692":19.482284545898438,"693":-5.090824127197266,"694":46.53128433227539,"695":46.221622467041016,"696":-3.895833730697632,"697":40.500633239746094,"698":3.5915441513061523,"699":-35.50879669189453,"700":21.51797866821289,"701":48.184852600097656}},"hiddenLayers":[{"inputMatrix":{"rows":50,"columns":26,"weights":{"0":0.49916213750839233,"1":-0.31027305126190186,"2":-1.2261924743652344,"3":-0.22578638792037964,"4":-2.288573741912842,"5":0.5586881041526794,"6":0.6868360638618469,"7":-0.2678335905075073,"8":-0.11457537859678268,"9":-0.6533524990081787,"10":1.1114110946655273,"11":0.31651830673217773,"12":0.32460522651672363,"13":2.2334463596343994,"14":-3.099283218383789,"15":0.12916447222232819,"16":0.14488764107227325,"17":-0.1624201387166977,"18":-0.5205062627792358,"19":1.2969863414764404,"20":0.137693852186203,"21":-0.13085991144180298,"22":1.4186103343963623,"23":-0.09861382097005844,"24":0.5787860155105591,"25":-3.077829360961914,"26":-1.4978879690170288,"27":3.1178841590881348,"28":-0.42397448420524597,"29":-6.83911657333374,"30":-2.246065616607666,"31":4.6794633865356445,"32":2.003662586212158,"33":2.1308159828186035,"34":-2.428734302520752,"35":1.1913079023361206,"36":-0.3654542863368988,"37":-3.056614398956299,"38":-2.1367061138153076,"39":4.396923065185547,"40":-0.6886546611785889,"41":1.5583206415176392,"42":-0.5227334499359131,"43":2.5891988277435303,"44":1.4774823188781738,"45":3.073561191558838,"46":2.226313829421997,"47":1.252758502960205,"48":-0.25940945744514465,"49":4.3787641525268555,"50":-1.198982834815979,"51":-1.703101634979248,"52":0.9333342909812927,"53":-0.20255298912525177,"54":2.12548565864563,"55":0.10948910564184189,"56":1.7669224739074707,"57":0.18017800152301788,"58":-0.30963632464408875,"59":-0.11823543161153793,"60":1.3986871242523193,"61":1.4710898399353027,"62":-1.809120774269104,"63":1.4696987867355347,"64":-1.1967411041259766,"65":2.770209789276123,"66":-0.7697945833206177,"67":-1.3605051040649414,"68":0.0954388827085495,"69":-0.4000593423843384,"70":1.0593831539154053,"71":1.5982078313827515,"72":-0.4459892809391022,"73":-0.46067124605178833,"74":-0.5630215406417847,"75":1.30348801612854,"76":-1.1957311630249023,"77":-0.09937351942062378,"78":-1.5452579259872437,"79":-0.8159375786781311,"80":1.753584384918213,"81":0.8825691938400269,"82":0.8785653710365295,"83":0.247842475771904,"84":0.8792933225631714,"85":0.25443825125694275,"86":-0.3289370536804199,"87":0.7726964950561523,"88":0.282659113407135,"89":-2.260936737060547,"90":0.36775800585746765,"91":-2.146265983581543,"92":2.86553692817688,"93":0.5573835372924805,"94":0.06023862585425377,"95":-0.04576007276773453,"96":-0.9514275789260864,"97":0.9361206889152527,"98":0.6633758544921875,"99":-0.5796173214912415,"100":-0.02721770480275154,"101":0.3938506841659546,"102":-2.707871675491333,"103":0.9269101023674011,"104":1.4286454916000366,"105":-0.5196165442466736,"106":1.6047325134277344,"107":2.2511160373687744,"108":2.2630908489227295,"109":-1.116761565208435,"110":-2.4708476066589355,"111":-0.21379472315311432,"112":1.0844229459762573,"113":-0.08689846098423004,"114":0.31277909874916077,"115":0.1499992161989212,"116":0.19527272880077362,"117":-0.04734940826892853,"118":0.5070529580116272,"119":-1.535800814628601,"120":-1.498530387878418,"121":2.0692877769470215,"122":0.4816005825996399,"123":-2.0984530448913574,"124":-1.3900361061096191,"125":-0.8408673405647278,"126":0.4372265636920929,"127":0.09853345155715942,"128":-0.7442793250083923,"129":-0.41678693890571594,"130":1.0973155498504639,"131":0.03219331428408623,"132":1.1681652069091797,"133":0.3273744583129883,"134":2.0681755542755127,"135":-0.2208266407251358,"136":0.28220444917678833,"137":-0.17258122563362122,"138":1.4490331411361694,"139":-0.250296950340271,"140":-0.32066839933395386,"141":-0.49285489320755005,"142":0.8655022978782654,"143":-3.435434103012085,"144":2.3257317543029785,"145":0.7285704016685486,"146":0.10767845809459686,"147":-0.04459889978170395,"148":-0.5108712315559387,"149":0.8880770206451416,"150":-0.9897615313529968,"151":-2.7329866886138916,"152":0.09972470253705978,"153":-0.37752091884613037,"154":-1.8166632652282715,"155":-0.09906700253486633,"156":-1.9451388120651245,"157":0.574912965297699,"158":-2.7945337295532227,"159":-2.0259251594543457,"160":1.5247182846069336,"161":-1.9383305311203003,"162":-0.17596951127052307,"163":2.302227020263672,"164":1.502880573272705,"165":3.003260374069214,"166":1.089030385017395,"167":1.4192681312561035,"168":0.0579681470990181,"169":-2.72959041595459,"170":-3.7138521671295166,"171":2.085310935974121,"172":-1.7599167823791504,"173":2.7899885177612305,"174":0.2045806497335434,"175":-3.0504813194274902,"176":1.455201506614685,"177":2.2866101264953613,"178":-1.7878679037094116,"179":0.5603671669960022,"180":0.4825705885887146,"181":-0.7053139209747314,"182":0.39942777156829834,"183":-1.4299583435058594,"184":0.44242721796035767,"185":-1.1998459100723267,"186":-0.34817707538604736,"187":1.816954255104065,"188":-0.29484111070632935,"189":1.5445537567138672,"190":0.9048795700073242,"191":-1.7306959629058838,"192":-1.2276378870010376,"193":2.532010316848755,"194":1.278607964515686,"195":1.6863433122634888,"196":-3.031808614730835,"197":3.7067837715148926,"198":-4.314366817474365,"199":1.635062336921692,"200":3.7817487716674805,"201":-0.8385374546051025,"202":-1.4745380878448486,"203":-0.18416175246238708,"204":1.2939386367797852,"205":0.7933635115623474,"206":2.6034774780273438,"207":-2.797116994857788,"208":0.7062227725982666,"209":-0.8695966601371765,"210":-0.4031258821487427,"211":2.0742099285125732,"212":0.5009490847587585,"213":-0.15706780552864075,"214":0.7102528214454651,"215":0.37038853764533997,"216":0.5256465077400208,"217":-1.395112156867981,"218":1.541412353515625,"219":-1.5409709215164185,"220":0.5321978330612183,"221":-1.1542541980743408,"222":-1.8624728918075562,"223":-1.6620376110076904,"224":-1.6182869672775269,"225":-1.215222716331482,"226":1.1466360092163086,"227":2.638841152191162,"228":0.9323935508728027,"229":-1.9212474822998047,"230":-1.1465755701065063,"231":-0.4846998453140259,"232":-2.15971302986145,"233":-5.271748065948486,"234":1.1203206777572632,"235":-0.7815129160881042,"236":2.978811025619507,"237":-0.5242298245429993,"238":2.119511365890503,"239":-1.2395635843276978,"240":-0.8111903667449951,"241":0.3212791979312897,"242":1.6653493642807007,"243":0.3307097554206848,"244":-1.0712679624557495,"245":-1.8160804510116577,"246":-1.8582123517990112,"247":-1.091380000114441,"248":2.2081048488616943,"249":0.8929215669631958,"250":0.45844578742980957,"251":0.687408447265625,"252":0.9270303845405579,"253":1.8352776765823364,"254":1.0444831848144531,"255":-1.1047563552856445,"256":0.3469802737236023,"257":-0.23789136111736298,"258":-2.616462230682373,"259":-0.9328246116638184,"260":0.6169421672821045,"261":-0.21552491188049316,"262":-0.025540025904774666,"263":-3.562955617904663,"264":-2.070932149887085,"265":-0.628031313419342,"266":1.4970065355300903,"267":0.6276201009750366,"268":-1.3986188173294067,"269":-1.354091763496399,"270":0.5443788766860962,"271":3.443765878677368,"272":0.3993464410305023,"273":1.3195865154266357,"274":-1.9263055324554443,"275":1.3569369316101074,"276":-0.996250569820404,"277":4.904388904571533,"278":0.284748375415802,"279":-2.2509608268737793,"280":0.2780223488807678,"281":2.9972097873687744,"282":3.891972064971924,"283":1.7402878999710083,"284":2.6644253730773926,"285":0.30479440093040466,"286":0.9914616346359253,"287":-1.1032450199127197,"288":-0.9693753719329834,"289":0.19837981462478638,"290":1.0688198804855347,"291":1.4198484420776367,"292":-0.7531461119651794,"293":0.8352630734443665,"294":-1.3964167833328247,"295":1.074155330657959,"296":-0.3904065489768982,"297":-1.4660358428955078,"298":1.1483864784240723,"299":-0.4114818871021271,"300":2.5752179622650146,"301":-0.34433498978614807,"302":2.143479347229004,"303":0.36614495515823364,"304":1.3001670837402344,"305":0.5665200352668762,"306":0.30652916431427,"307":-0.29369789361953735,"308":-0.041184499859809875,"309":0.40384477376937866,"310":3.373314619064331,"311":-0.08010679483413696,"312":0.8193272352218628,"313":-0.04037730023264885,"314":1.3188247680664062,"315":-2.0239908695220947,"316":-0.9097824692726135,"317":-0.536683201789856,"318":1.6024731397628784,"319":0.07385040819644928,"320":0.24794164299964905,"321":-1.063192367553711,"322":1.8881105184555054,"323":-1.717514991760254,"324":1.623791217803955,"325":-1.5965032577514648,"326":-2.7388267517089844,"327":0.5781501531600952,"328":-1.1353505849838257,"329":-1.8675888776779175,"330":0.18523260951042175,"331":1.6088131666183472,"332":-0.7114616632461548,"333":-1.5315817594528198,"334":0.048244960606098175,"335":-0.8595839142799377,"336":-5.17222785949707,"337":-0.27167561650276184,"338":2.3679919242858887,"339":0.7602605819702148,"340":0.17529001832008362,"341":-0.9932622313499451,"342":-0.6201460957527161,"343":0.5022618174552917,"344":1.2487905025482178,"345":0.3145497441291809,"346":0.07670226693153381,"347":-0.15386103093624115,"348":1.85085928440094,"349":-0.22677217423915863,"350":-0.5212453007698059,"351":-2.242408037185669,"352":2.883554458618164,"353":-1.9954710006713867,"354":0.8376195430755615,"355":-0.6114785671234131,"356":-0.2275371551513672,"357":4.310690879821777,"358":1.2348405122756958,"359":-0.23449739813804626,"360":0.29826605319976807,"361":2.32175874710083,"362":2.0499465465545654,"363":1.4720205068588257,"364":2.5774712562561035,"365":2.0709447860717773,"366":0.33887138962745667,"367":2.0662317276000977,"368":-0.36593756079673767,"369":-5.629122257232666,"370":-1.013604998588562,"371":-0.8869566321372986,"372":1.6500802040100098,"373":-0.24864070117473602,"374":-3.3687334060668945,"375":6.669332504272461,"376":0.6657517552375793,"377":3.321721315383911,"378":-2.1043701171875,"379":-0.792243242263794,"380":-0.8385183811187744,"381":0.3457367718219757,"382":2.1983768939971924,"383":-2.8824639320373535,"384":-1.9146525859832764,"385":3.5446739196777344,"386":0.6027664542198181,"387":-1.6163134574890137,"388":-0.6125447154045105,"389":1.953033447265625,"390":4.741356372833252,"391":-1.5203534364700317,"392":-2.0894618034362793,"393":-0.3341233730316162,"394":0.7975218892097473,"395":-0.17726056277751923,"396":-0.15670077502727509,"397":1.5759257078170776,"398":-0.4203045070171356,"399":0.8752114176750183,"400":3.778862476348877,"401":3.339512825012207,"402":-0.4408309757709503,"403":-3.6603026390075684,"404":-8.18183422088623,"405":0.41990700364112854,"406":0.19764640927314758,"407":1.4729552268981934,"408":-2.3963329792022705,"409":-1.3133282661437988,"410":0.6122974157333374,"411":1.901082158088684,"412":-1.1116981506347656,"413":2.332249402999878,"414":0.7806031107902527,"415":-0.49568456411361694,"416":0.4098651707172394,"417":1.1155802011489868,"418":-0.2522962987422943,"419":0.4072810411453247,"420":0.3405463397502899,"421":1.463942289352417,"422":0.4999432861804962,"423":0.9036376476287842,"424":-0.4726485311985016,"425":-0.8662124276161194,"426":2.724243402481079,"427":0.027642887085676193,"428":-0.0034618373028934,"429":-5.944056987762451,"430":-2.2454445362091064,"431":1.2505043745040894,"432":1.1935818195343018,"433":1.8729078769683838,"434":-0.5302286744117737,"435":-0.9641522169113159,"436":0.4650631546974182,"437":-0.2582373321056366,"438":0.45159024000167847,"439":-0.6962334513664246,"440":-1.068398118019104,"441":2.8456995487213135,"442":-0.6714336276054382,"443":0.2591991424560547,"444":-0.8020455837249756,"445":1.6721261739730835,"446":1.8807326555252075,"447":0.3139057755470276,"448":-1.3513836860656738,"449":-1.2179275751113892,"450":-0.35512998700141907,"451":-0.48801496624946594,"452":-2.0331850051879883,"453":-0.6394789814949036,"454":0.4753495454788208,"455":0.4584035575389862,"456":1.2954450845718384,"457":0.43568944931030273,"458":-0.11674828827381134,"459":-4.150437355041504,"460":-5.5554680824279785,"461":1.8371005058288574,"462":-1.7641974687576294,"463":-3.2102596759796143,"464":0.8961483240127563,"465":-1.9075273275375366,"466":0.09822666645050049,"467":2.1608879566192627,"468":-1.686525821685791,"469":2.2581019401550293,"470":-0.7639846801757812,"471":0.052400872111320496,"472":0.49075907468795776,"473":-0.33537614345550537,"474":-0.2621249258518219,"475":-0.7892310619354248,"476":-0.5667567253112793,"477":0.19188439846038818,"478":0.6013936400413513,"479":-1.0382481813430786,"480":1.4334312677383423,"481":-2.3485944271087646,"482":4.274576187133789,"483":-0.6607844233512878,"484":2.6348602771759033,"485":0.47947433590888977,"486":-1.3550373315811157,"487":4.70640754699707,"488":-1.4710978269577026,"489":-0.7791668176651001,"490":1.85397469997406,"491":0.324554979801178,"492":1.6670887470245361,"493":5.835690498352051,"494":-1.2192792892456055,"495":0.5193337202072144,"496":0.6186832189559937,"497":2.08438777923584,"498":1.137954831123352,"499":-0.3928467333316803,"500":1.8874759674072266,"501":0.7295432686805725,"502":1.5379353761672974,"503":-0.2690480053424835,"504":-0.34787890315055847,"505":0.4626290500164032,"506":0.7740554809570312,"507":0.7764840126037598,"508":-1.4801017045974731,"509":-0.6354989409446716,"510":-1.4524747133255005,"511":-1.826087236404419,"512":0.9866647720336914,"513":1.8805752992630005,"514":1.4713274240493774,"515":-0.7099626660346985,"516":0.15939603745937347,"517":-1.867152452468872,"518":-1.7850019931793213,"519":-7.0923991203308105,"520":-1.851953387260437,"521":0.5244364738464355,"522":2.45976185798645,"523":0.7768957018852234,"524":2.9811463356018066,"525":-3.517411947250366,"526":-1.8915963172912598,"527":2.468597173690796,"528":0.7735856175422668,"529":-0.3187538683414459,"530":-0.1777574121952057,"531":1.1322181224822998,"532":2.1671504974365234,"533":-5.271259784698486,"534":0.11743810772895813,"535":-0.22713834047317505,"536":1.0593173503875732,"537":0.8811757564544678,"538":-1.1977726221084595,"539":2.662569522857666,"540":-2.2549009323120117,"541":0.8438478708267212,"542":-2.8549935817718506,"543":-2.307218551635742,"544":-2.0638859272003174,"545":1.9266769886016846,"546":4.057580947875977,"547":-0.214898020029068,"548":5.196836471557617,"549":-0.8433981537818909,"550":-0.7226275205612183,"551":-3.340245485305786,"552":-2.1932194232940674,"553":-1.4455946683883667,"554":1.1140813827514648,"555":-0.0744025930762291,"556":-1.0993895530700684,"557":2.868715286254883,"558":-1.7728878259658813,"559":-1.2092418670654297,"560":-3.0518085956573486,"561":1.3681670427322388,"562":1.0372626781463623,"563":1.754089593887329,"564":-1.5620355606079102,"565":1.0451725721359253,"566":0.4420870542526245,"567":-2.6561665534973145,"568":-4.226231098175049,"569":1.8796343803405762,"570":-3.3120439052581787,"571":-0.5402872562408447,"572":0.3227798640727997,"573":0.7008168697357178,"574":2.571948766708374,"575":-0.3294667899608612,"576":7.342130184173584,"577":-3.7512519359588623,"578":-3.3428802490234375,"579":-0.11982254683971405,"580":5.70878267288208,"581":1.7323285341262817,"582":-1.7249078750610352,"583":2.128572940826416,"584":-0.1357579231262207,"585":-2.236226797103882,"586":4.540801525115967,"587":0.42819875478744507,"588":3.25411057472229,"589":1.2631028890609741,"590":-1.6340608596801758,"591":-3.620047092437744,"592":-2.9531776905059814,"593":-1.0230045318603516,"594":-0.12305400520563126,"595":-0.840881884098053,"596":0.3922203481197357,"597":4.3085551261901855,"598":-0.4656214416027069,"599":0.8397300243377686,"600":-3.1864304542541504,"601":1.5514869689941406,"602":5.814706802368164,"603":-1.0180848836898804,"604":1.7065019607543945,"605":2.345388412475586,"606":0.3582591414451599,"607":0.102536141872406,"608":3.7088499069213867,"609":-0.7349556684494019,"610":-3.6528079509735107,"611":-3.8475747108459473,"612":-1.46994149684906,"613":2.008270263671875,"614":-0.36529380083084106,"615":-1.5151557922363281,"616":0.4559434950351715,"617":-1.683679223060608,"618":-1.299074411392212,"619":0.3247147798538208,"620":0.36417025327682495,"621":-2.8509247303009033,"622":-1.3502159118652344,"623":-1.7493582963943481,"624":2.337376117706299,"625":-1.1567140817642212,"626":3.707184076309204,"627":0.5649973154067993,"628":3.6553919315338135,"629":-1.885206937789917,"630":-2.2702646255493164,"631":-0.5155389904975891,"632":-1.3725651502609253,"633":-1.6323188543319702,"634":-2.9662575721740723,"635":3.601285934448242,"636":-2.0663156509399414,"637":1.1811058521270752,"638":-3.1382877826690674,"639":-0.001514336676336825,"640":0.930509090423584,"641":-0.6317017674446106,"642":-0.6342629194259644,"643":-1.073401689529419,"644":0.6445773839950562,"645":2.877753257751465,"646":1.4253703355789185,"647":-1.4060999155044556,"648":5.987234115600586,"649":1.5995930433273315,"650":1.3593971729278564,"651":-0.872416079044342,"652":0.4448099434375763,"653":1.2132925987243652,"654":1.8147108554840088,"655":-0.5783911347389221,"656":-1.4037127494812012,"657":1.4577149152755737,"658":-0.23344218730926514,"659":0.13533912599086761,"660":-0.2897460162639618,"661":1.1113888025283813,"662":-1.6736652851104736,"663":0.24343542754650116,"664":0.6628482341766357,"665":-0.5576512217521667,"666":-1.181222677230835,"667":0.13270600140094757,"668":-0.463433176279068,"669":0.8089333176612854,"670":-0.9914005994796753,"671":-0.3486242890357971,"672":0.36454179883003235,"673":-0.5119435787200928,"674":-0.19132111966609955,"675":-2.0234107971191406,"676":-0.1539050191640854,"677":-0.22448979318141937,"678":0.32336995005607605,"679":-1.5598645210266113,"680":-0.5453579425811768,"681":4.624176025390625,"682":-0.01892085000872612,"683":0.159653902053833,"684":2.4302258491516113,"685":1.2510411739349365,"686":0.22336992621421814,"687":-1.3766577243804932,"688":-2.535804271697998,"689":2.2703473567962646,"690":2.8868913650512695,"691":3.7268729209899902,"692":0.6472104787826538,"693":1.0904152393341064,"694":0.825985848903656,"695":0.28095492720603943,"696":1.1531091928482056,"697":-1.4756814241409302,"698":4.492406368255615,"699":2.1194281578063965,"700":1.3507080078125,"701":1.6998438835144043,"702":0.011459622532129288,"703":0.9566250443458557,"704":-1.486081600189209,"705":-1.3169653415679932,"706":-1.86933171749115,"707":1.7736819982528687,"708":0.7379797697067261,"709":-0.43044513463974,"710":-1.7736568450927734,"711":0.8566358089447021,"712":-0.24162884056568146,"713":-1.4596209526062012,"714":0.3021818697452545,"715":2.5698788166046143,"716":-1.6799681186676025,"717":2.326157569885254,"718":-0.7715855836868286,"719":-0.5785291194915771,"720":0.7172459959983826,"721":-0.030180951580405235,"722":1.4109656810760498,"723":0.16105155646800995,"724":1.470680594444275,"725":0.5820279121398926,"726":0.5264939665794373,"727":-4.696466445922852,"728":1.067610502243042,"729":-0.8357074856758118,"730":-1.6522818803787231,"731":0.11317577213048935,"732":-1.5849690437316895,"733":1.0848283767700195,"734":0.5736533403396606,"735":-1.1209274530410767,"736":-0.3037247061729431,"737":0.5558477640151978,"738":1.221047043800354,"739":-2.379462957382202,"740":0.3729597330093384,"741":-0.5713046789169312,"742":1.998923420906067,"743":-0.018802829086780548,"744":-0.023167971521615982,"745":-0.5072062015533447,"746":-1.2454642057418823,"747":1.416130542755127,"748":0.37110647559165955,"749":0.14893744885921478,"750":1.112382411956787,"751":1.6161547899246216,"752":0.6974974870681763,"753":0.3751642107963562,"754":-1.1244049072265625,"755":-0.5193066000938416,"756":0.524402379989624,"757":0.8363120555877686,"758":1.96378493309021,"759":-1.0948518514633179,"760":-0.013517402112483978,"761":1.2073636054992676,"762":0.8335104584693909,"763":0.3812960684299469,"764":0.23539014160633087,"765":-2.0896003246307373,"766":-0.23756012320518494,"767":-4.539257526397705,"768":-0.6148048639297485,"769":-0.0880078673362732,"770":-0.6817042231559753,"771":-0.09816619008779526,"772":-0.9159221649169922,"773":-1.1536171436309814,"774":-0.16047775745391846,"775":0.8246482014656067,"776":-1.1200990676879883,"777":0.2991044819355011,"778":-1.4260889291763306,"779":1.7862213850021362,"780":1.7678520679473877,"781":-0.016266226768493652,"782":0.5849361419677734,"783":-3.2429075241088867,"784":-2.3617734909057617,"785":0.3787590265274048,"786":0.8777979016304016,"787":0.24200822412967682,"788":1.4118086099624634,"789":0.32708480954170227,"790":-0.3259153664112091,"791":-2.8597538471221924,"792":1.7494757175445557,"793":-2.5728321075439453,"794":-1.9736080169677734,"795":0.05353841930627823,"796":-0.5311899185180664,"797":-0.37775033712387085,"798":-0.6696155071258545,"799":3.1944565773010254,"800":0.7184367179870605,"801":-4.025597095489502,"802":1.3131076097488403,"803":2.6193995475769043,"804":-3.9866251945495605,"805":-2.9325294494628906,"806":4.994105339050293,"807":-5.275907516479492,"808":-0.06826324760913849,"809":3.5974526405334473,"810":-0.8935387134552002,"811":0.0760243609547615,"812":2.6841964721679688,"813":5.009109973907471,"814":2.234567642211914,"815":-0.5454908609390259,"816":1.3854719400405884,"817":1.2539347410202026,"818":3.204319477081299,"819":-5.522387981414795,"820":-2.009042978286743,"821":-3.0114574432373047,"822":-1.2585021257400513,"823":-0.6854400038719177,"824":3.679281234741211,"825":3.246314525604248,"826":0.8043277859687805,"827":1.20183527469635,"828":-2.723682165145874,"829":-4.944260597229004,"830":-3.2884535789489746,"831":-0.8806775212287903,"832":0.06327085942029953,"833":-2.7055158615112305,"834":-2.9899165630340576,"835":-0.9085221290588379,"836":-3.2632274627685547,"837":0.9296227097511292,"838":-0.06005869433283806,"839":1.4997832775115967,"840":-0.5540981888771057,"841":2.6289639472961426,"842":2.5298972129821777,"843":-3.019916534423828,"844":-0.3318127989768982,"845":-3.069035291671753,"846":-1.6102033853530884,"847":4.233869552612305,"848":-1.3103574514389038,"849":2.208455801010132,"850":1.236751914024353,"851":3.2666919231414795,"852":1.6264653205871582,"853":-1.0860198736190796,"854":1.3629010915756226,"855":-0.45584097504615784,"856":-3.027961254119873,"857":-1.937785267829895,"858":-0.6576915383338928,"859":-0.8776578903198242,"860":-0.09570200741291046,"861":2.5417253971099854,"862":1.1460776329040527,"863":-0.6685118079185486,"864":-1.6145002841949463,"865":-1.075605034828186,"866":-2.209716558456421,"867":-0.37832769751548767,"868":-0.23392774164676666,"869":-0.07285826653242111,"870":0.94889897108078,"871":-1.6917164325714111,"872":-0.4333095848560333,"873":3.7436578273773193,"874":0.8278439044952393,"875":0.7920840382575989,"876":0.21655255556106567,"877":-1.3484513759613037,"878":-2.560502529144287,"879":0.7575809955596924,"880":0.35798996686935425,"881":-1.541901707649231,"882":1.4627965688705444,"883":-3.0698182582855225,"884":-1.3763823509216309,"885":0.7944379448890686,"886":-0.25355347990989685,"887":0.28073033690452576,"888":0.39393553137779236,"889":1.3000502586364746,"890":-1.3564767837524414,"891":0.2256920486688614,"892":0.7791843414306641,"893":-0.9354487657546997,"894":-0.14031104743480682,"895":-1.9368358850479126,"896":-0.6463724374771118,"897":-1.3952279090881348,"898":6.158178329467773,"899":0.8772552013397217,"900":-0.7779110670089722,"901":-1.7326271533966064,"902":-1.746767520904541,"903":1.466872215270996,"904":-0.7704007625579834,"905":0.20605356991291046,"906":1.299725890159607,"907":-0.32194387912750244,"908":1.2616804838180542,"909":-0.38001468777656555,"910":3.7583107948303223,"911":-2.099916934967041,"912":1.750214695930481,"913":-3.704749822616577,"914":-3.6694536209106445,"915":-0.5396146178245544,"916":-1.4606866836547852,"917":-1.1515620946884155,"918":0.7297161221504211,"919":-1.3692773580551147,"920":2.5536646842956543,"921":1.8697365522384644,"922":2.6367530822753906,"923":2.3229503631591797,"924":-1.8323218822479248,"925":-2.4435923099517822,"926":-0.9713850021362305,"927":0.3679170608520508,"928":-1.5453420877456665,"929":0.8382875323295593,"930":-1.7842376232147217,"931":-1.353883147239685,"932":2.481868267059326,"933":2.2448740005493164,"934":-2.086064338684082,"935":-3.1562821865081787,"936":2.1367175579071045,"937":-0.6187984943389893,"938":-1.6249730587005615,"939":-1.1718413829803467,"940":-1.5822348594665527,"941":-2.1933836936950684,"942":3.680460214614868,"943":-0.5694170594215393,"944":4.021894931793213,"945":-1.891741394996643,"946":0.07126941531896591,"947":1.995493769645691,"948":0.505379855632782,"949":0.6746396422386169,"950":-4.09193754196167,"951":-1.863917350769043,"952":-1.3574750423431396,"953":4.833017349243164,"954":-3.660428047180176,"955":1.9434809684753418,"956":0.5119909644126892,"957":-2.2592291831970215,"958":2.0537526607513428,"959":3.5718445777893066,"960":-1.5656243562698364,"961":0.06428758800029755,"962":-0.037667807191610336,"963":0.8038233518600464,"964":-1.0726685523986816,"965":-0.008544315584003925,"966":-0.6347917318344116,"967":-0.30974891781806946,"968":-0.34274929761886597,"969":-0.3637543022632599,"970":1.186388373374939,"971":-0.8040261268615723,"972":1.513559103012085,"973":1.8279513120651245,"974":-0.8879826664924622,"975":2.4315311908721924,"976":0.5926670432090759,"977":-1.2085871696472168,"978":0.6002288460731506,"979":-0.5911404490470886,"980":-1.0506019592285156,"981":0.3274883031845093,"982":1.0968865156173706,"983":-0.3024692237377167,"984":0.5860683917999268,"985":-0.32787105441093445,"986":-0.588138997554779,"987":-2.3041090965270996,"988":2.3007912635803223,"989":-3.0059151649475098,"990":-1.534741759300232,"991":0.4874248802661896,"992":2.3240573406219482,"993":2.1318838596343994,"994":2.1700351238250732,"995":-1.3783937692642212,"996":0.5409220457077026,"997":0.11798727512359619,"998":-1.1832695007324219,"999":2.677830696105957,"1000":-0.5485268831253052,"1001":2.914578914642334,"1002":-3.248774766921997,"1003":1.7953180074691772,"1004":1.1689287424087524,"1005":1.1717904806137085,"1006":-1.1119064092636108,"1007":0.4543503224849701,"1008":2.445042371749878,"1009":2.386693239212036,"1010":1.2653347253799438,"1011":1.1419165134429932,"1012":0.5035020709037781,"1013":-3.5058324337005615,"1014":0.6803132891654968,"1015":1.8598302602767944,"1016":2.035310745239258,"1017":1.087897539138794,"1018":2.2874879837036133,"1019":-1.604967474937439,"1020":-1.7245354652404785,"1021":1.7566633224487305,"1022":2.2692525386810303,"1023":1.5028877258300781,"1024":-3.2684080600738525,"1025":2.0027520656585693,"1026":1.8944892883300781,"1027":-0.2293068766593933,"1028":1.7411903142929077,"1029":-2.9884750843048096,"1030":0.2677554488182068,"1031":-1.821501612663269,"1032":0.769720733165741,"1033":2.4111504554748535,"1034":0.6791515350341797,"1035":-0.09838057309389114,"1036":0.8712742328643799,"1037":-1.058386206626892,"1038":1.0274031162261963,"1039":1.8870525360107422,"1040":-2.8585145473480225,"1041":-0.08605848997831345,"1042":-3.4477248191833496,"1043":0.46265512704849243,"1044":-5.853700637817383,"1045":3.8080894947052,"1046":2.402040719985962,"1047":0.8057449460029602,"1048":0.8540849685668945,"1049":0.014156834222376347,"1050":4.800424575805664,"1051":-6.84419059753418,"1052":-0.45275893807411194,"1053":-4.687941551208496,"1054":4.30429744720459,"1055":2.015125036239624,"1056":0.1105678379535675,"1057":2.14916729927063,"1058":-0.8451128005981445,"1059":4.023484706878662,"1060":5.700908660888672,"1061":-1.35760498046875,"1062":-0.8145703673362732,"1063":1.4846442937850952,"1064":-5.382059574127197,"1065":0.45629778504371643,"1066":0.6329448223114014,"1067":0.040001723915338516,"1068":2.2123465538024902,"1069":-3.5913021564483643,"1070":-0.40005412697792053,"1071":-2.711672782897949,"1072":1.5555967092514038,"1073":2.8113884925842285,"1074":2.4112823009490967,"1075":-1.344505786895752,"1076":-1.3647381067276,"1077":-2.3059685230255127,"1078":2.375319719314575,"1079":-6.678226947784424,"1080":-3.927962303161621,"1081":-3.0655322074890137,"1082":-1.5344728231430054,"1083":-2.454890489578247,"1084":1.3757272958755493,"1085":2.0787124633789062,"1086":2.875978708267212,"1087":-1.2315657138824463,"1088":-2.4723453521728516,"1089":3.846529245376587,"1090":-4.073853969573975,"1091":1.828649878501892,"1092":-0.7188971638679504,"1093":0.608583390712738,"1094":0.8010335564613342,"1095":-1.457463026046753,"1096":0.263249933719635,"1097":-0.5155028104782104,"1098":0.0034594598691910505,"1099":1.2158604860305786,"1100":0.02386890910565853,"1101":1.6427268981933594,"1102":-1.3839504718780518,"1103":-3.2682111263275146,"1104":-0.2436925321817398,"1105":-2.5853755474090576,"1106":0.7469345927238464,"1107":-0.9108519554138184,"1108":0.39613625407218933,"1109":0.5693827867507935,"1110":2.352738380432129,"1111":0.9269253015518188,"1112":-0.24281513690948486,"1113":0.7279344797134399,"1114":0.5357686877250671,"1115":1.2063852548599243,"1116":-1.567467451095581,"1117":0.3636426329612732,"1118":-2.2250781059265137,"1119":1.1900743246078491,"1120":-0.7824292778968811,"1121":-0.00518890330567956,"1122":-0.033436696976423264,"1123":0.7054064869880676,"1124":1.580784797668457,"1125":-1.7315741777420044,"1126":1.3226147890090942,"1127":-0.7779322266578674,"1128":-0.147689551115036,"1129":1.2700424194335938,"1130":0.36961162090301514,"1131":2.3651652336120605,"1132":1.3171446323394775,"1133":-0.14175990223884583,"1134":-2.05281925201416,"1135":1.4811853170394897,"1136":0.5073334574699402,"1137":-0.9405245780944824,"1138":-0.5473960041999817,"1139":1.2925654649734497,"1140":1.9875229597091675,"1141":0.23219457268714905,"1142":-1.3443862199783325,"1143":-3.58894681930542,"1144":-3.4815902709960938,"1145":1.5929408073425293,"1146":4.931502342224121,"1147":2.130230188369751,"1148":3.8991401195526123,"1149":-0.766149640083313,"1150":-2.4494662284851074,"1151":1.8663101196289062,"1152":0.8787705898284912,"1153":1.3835535049438477,"1154":-0.33994096517562866,"1155":1.0790050029754639,"1156":1.121330976486206,"1157":-4.731936454772949,"1158":3.3835456371307373,"1159":0.9585146903991699,"1160":-0.3069504499435425,"1161":3.6599676609039307,"1162":-0.3112204372882843,"1163":1.0104944705963135,"1164":0.2346164733171463,"1165":0.27206799387931824,"1166":-0.9357032775878906,"1167":-0.034265294671058655,"1168":-3.146085739135742,"1169":3.875187873840332,"1170":-0.7025251388549805,"1171":-0.4310864806175232,"1172":1.3304977416992188,"1173":-1.5230451822280884,"1174":-0.17361806333065033,"1175":0.6357572078704834,"1176":0.2828788161277771,"1177":-1.6706093549728394,"1178":0.22171053290367126,"1179":1.3773006200790405,"1180":-2.634643793106079,"1181":0.3479916453361511,"1182":-0.6003121733665466,"1183":0.9379335641860962,"1184":-0.8014092445373535,"1185":0.345567524433136,"1186":-0.04741708189249039,"1187":0.6480829119682312,"1188":1.3902616500854492,"1189":-0.0029293487314134836,"1190":-0.1481006145477295,"1191":1.115683674812317,"1192":-1.0311981439590454,"1193":0.8024843335151672,"1194":-0.7162191867828369,"1195":-1.306485652923584,"1196":0.8691489100456238,"1197":-1.606910228729248,"1198":1.877737283706665,"1199":-0.6074854731559753,"1200":-3.033198118209839,"1201":0.4516422152519226,"1202":1.0285214185714722,"1203":-0.7468903064727783,"1204":1.7615957260131836,"1205":-1.1019243001937866,"1206":2.1039340496063232,"1207":-0.8204646110534668,"1208":1.0597615242004395,"1209":-2.525189161300659,"1210":-1.8989918231964111,"1211":-2.0051820278167725,"1212":-1.4078385829925537,"1213":0.5159239172935486,"1214":0.4563627243041992,"1215":0.09013014286756516,"1216":-0.6080626845359802,"1217":-0.6280861496925354,"1218":0.8608837127685547,"1219":0.894795298576355,"1220":-1.8691954612731934,"1221":1.1364670991897583,"1222":-3.2085540294647217,"1223":1.40572988986969,"1224":0.30795130133628845,"1225":-1.987122893333435,"1226":-3.510531187057495,"1227":2.2529847621917725,"1228":-0.8965415954589844,"1229":-1.2414228916168213,"1230":-3.5684468746185303,"1231":-1.4373373985290527,"1232":-2.3134992122650146,"1233":-1.106368899345398,"1234":-1.9769395589828491,"1235":2.258315086364746,"1236":3.360776901245117,"1237":1.3988912105560303,"1238":-0.5854760408401489,"1239":-0.7816964983940125,"1240":2.264122247695923,"1241":0.1069175973534584,"1242":0.7114188075065613,"1243":0.06597927957773209,"1244":-1.167881965637207,"1245":-0.7184680700302124,"1246":-1.5039154291152954,"1247":-1.5932475328445435,"1248":1.1372162103652954,"1249":-0.48543810844421387,"1250":1.9441579580307007,"1251":-0.7428874969482422,"1252":1.3074225187301636,"1253":-0.8919252157211304,"1254":0.5604107975959778,"1255":1.3738348484039307,"1256":1.110769271850586,"1257":0.059047505259513855,"1258":0.4152461588382721,"1259":-0.13215428590774536,"1260":-0.40242987871170044,"1261":-2.615147113800049,"1262":-2.362720489501953,"1263":0.6127983331680298,"1264":-0.21600821614265442,"1265":-0.15635524690151215,"1266":0.2633373737335205,"1267":2.2749345302581787,"1268":0.9118421077728271,"1269":-2.1721394062042236,"1270":0.545891284942627,"1271":0.8781116008758545,"1272":1.7121607065200806,"1273":-2.3676950931549072,"1274":3.7189135551452637,"1275":-5.214144229888916,"1276":-2.1702828407287598,"1277":-5.614892482757568,"1278":-0.6057066917419434,"1279":-4.613018035888672,"1280":-2.398851156234741,"1281":-0.09755022823810577,"1282":3.2846639156341553,"1283":-0.4136114716529846,"1284":-2.2217705249786377,"1285":5.618915557861328,"1286":-3.548311948776245,"1287":1.1081193685531616,"1288":0.20884215831756592,"1289":-0.07999042421579361,"1290":-1.5721461772918701,"1291":-0.3482234477996826,"1292":-1.496314525604248,"1293":-0.760676383972168,"1294":4.921074390411377,"1295":4.095802307128906,"1296":2.645211935043335,"1297":6.729122638702393,"1298":-1.2871288061141968,"1299":2.086787700653076}},"inputHidden":{"rows":50,"columns":50,"weights":{"0":1.2355544567108154,"1":1.661517858505249,"2":-15.075080871582031,"3":2.026656150817871,"4":-5.955085277557373,"5":2.742269277572632,"6":2.832995891571045,"7":-8.259583473205566,"8":7.412176609039307,"9":4.32861328125,"10":-1.7105093002319336,"11":1.725294828414917,"12":-5.061089038848877,"13":-8.478456497192383,"14":-9.750940322875977,"15":10.180115699768066,"16":-9.266666412353516,"17":13.60525131225586,"18":12.904438018798828,"19":8.768449783325195,"20":-4.342859745025635,"21":-13.024545669555664,"22":18.091514587402344,"23":-1.8744096755981445,"24":2.451951742172241,"25":2.3186590671539307,"26":3.9179158210754395,"27":1.3190885782241821,"28":-3.7950799465179443,"29":7.576868534088135,"30":-15.332216262817383,"31":-0.5668785572052002,"32":16.604772567749023,"33":-4.345984935760498,"34":-5.457535743713379,"35":3.9473087787628174,"36":-8.607894897460938,"37":-8.780081748962402,"38":1.4794756174087524,"39":3.8007538318634033,"40":-0.9680147767066956,"41":-9.691704750061035,"42":-2.5857625007629395,"43":-11.024048805236816,"44":-6.259519577026367,"45":-4.30888032913208,"46":12.962150573730469,"47":2.627997398376465,"48":-0.17801228165626526,"49":6.6593708992004395,"50":3.5711936950683594,"51":1.578819990158081,"52":-0.07395590841770172,"53":-1.6263457536697388,"54":1.032018780708313,"55":0.9872126579284668,"56":3.7353832721710205,"57":0.22729477286338806,"58":-1.0815014839172363,"59":-4.958110332489014,"60":-8.5753755569458,"61":0.17224200069904327,"62":-2.9536385536193848,"63":1.3091176748275757,"64":-1.7588516473770142,"65":3.283700466156006,"66":-1.5269088745117188,"67":-3.5427887439727783,"68":-5.917164325714111,"69":-1.4283961057662964,"70":3.645026683807373,"71":1.505812406539917,"72":3.880436897277832,"73":-1.898738145828247,"74":-3.009798288345337,"75":1.3339080810546875,"76":-0.5949608683586121,"77":0.9616314768791199,"78":-3.7395637035369873,"79":0.1629343032836914,"80":7.48927116394043,"81":-3.4522032737731934,"82":0.6341961026191711,"83":-2.302227258682251,"84":-0.48142412304878235,"85":-4.645092964172363,"86":-1.6550123691558838,"87":3.2824018001556396,"88":1.709485650062561,"89":-7.344352722167969,"90":-1.2526905536651611,"91":1.731083869934082,"92":1.994065761566162,"93":0.17771892249584198,"94":4.406551361083984,"95":1.021604299545288,"96":0.7439088821411133,"97":-1.9973335266113281,"98":1.027543067932129,"99":0.7949573397636414,"100":-10.046465873718262,"101":-6.157311916351318,"102":0.05651096627116203,"103":-3.0125443935394287,"104":-3.080598831176758,"105":-2.280364990234375,"106":1.2404268980026245,"107":19.37274169921875,"108":3.8305883407592773,"109":-2.303166151046753,"110":-0.2423090934753418,"111":8.398775100708008,"112":-11.657783508300781,"113":6.569836616516113,"114":-16.271076202392578,"115":2.780468225479126,"116":-1.1230988502502441,"117":-1.5010474920272827,"118":5.536007881164551,"119":-2.206251382827759,"120":4.508784294128418,"121":-0.06598616391420364,"122":-2.953852891921997,"123":2.256312847137451,"124":0.7846395373344421,"125":14.717755317687988,"126":2.9844608306884766,"127":9.350051879882812,"128":-3.916635513305664,"129":11.766780853271484,"130":-2.425229072570801,"131":7.624746799468994,"132":17.83344078063965,"133":11.259603500366211,"134":14.14378547668457,"135":2.7756049633026123,"136":-2.0763869285583496,"137":-2.3862404823303223,"138":-8.203410148620605,"139":-14.457671165466309,"140":4.726634502410889,"141":1.703335165977478,"142":1.8177862167358398,"143":16.450538635253906,"144":-0.7392276525497437,"145":-9.627253532409668,"146":1.9160979986190796,"147":-0.017229432240128517,"148":4.362187385559082,"149":5.211159706115723,"150":6.355930328369141,"151":11.078326225280762,"152":12.735026359558105,"153":10.069316864013672,"154":8.080174446105957,"155":0.6424315571784973,"156":-14.8651123046875,"157":7.54135274887085,"158":7.400331497192383,"159":0.8772265911102295,"160":6.924548149108887,"161":-6.828018665313721,"162":2.302659511566162,"163":1.6100183725357056,"164":-1.4074773788452148,"165":-2.009678840637207,"166":-0.5658354163169861,"167":6.4334940910339355,"168":6.516952991485596,"169":7.219648838043213,"170":-0.41189929842948914,"171":12.979763984680176,"172":-9.956096649169922,"173":-1.1933465003967285,"174":-0.3629838526248932,"175":-5.509603977203369,"176":-6.8120832443237305,"177":10.419988632202148,"178":11.624759674072266,"179":0.6117483377456665,"180":-1.912247896194458,"181":9.846281051635742,"182":3.7429141998291016,"183":6.342514991760254,"184":4.782273769378662,"185":6.814962387084961,"186":1.4910888671875,"187":6.869378089904785,"188":-14.977668762207031,"189":9.562034606933594,"190":-1.5846489667892456,"191":16.6683349609375,"192":6.007654666900635,"193":9.608367919921875,"194":-0.1423124074935913,"195":7.961328029632568,"196":3.7507622241973877,"197":8.127314567565918,"198":5.39467191696167,"199":-1.050398349761963,"200":-7.890852451324463,"201":3.809835195541382,"202":-0.4474378526210785,"203":-0.49803072214126587,"204":10.962154388427734,"205":-9.38424015045166,"206":0.08401816338300705,"207":-8.110610961914062,"208":0.16764836013317108,"209":4.185262203216553,"210":-3.4882915019989014,"211":5.7953410148620605,"212":-0.7816312909126282,"213":-4.431861877441406,"214":-9.199979782104492,"215":0.3741184175014496,"216":-9.267664909362793,"217":0.06284687668085098,"218":-4.220102310180664,"219":-12.213233947753906,"220":2.0548794269561768,"221":-3.1540772914886475,"222":15.324882507324219,"223":2.5346930027008057,"224":6.881767749786377,"225":-2.1216280460357666,"226":3.4725067615509033,"227":2.5304858684539795,"228":4.309711456298828,"229":4.386420249938965,"230":-4.173141002655029,"231":3.9151298999786377,"232":-8.022069931030273,"233":-3.08729887008667,"234":-0.3386034071445465,"235":-6.180700302124023,"236":13.60477352142334,"237":-2.5315401554107666,"238":2.7089884281158447,"239":-4.087085247039795,"240":-5.980794906616211,"241":-7.811731815338135,"242":3.0929532051086426,"243":1.0059564113616943,"244":-1.4103609323501587,"245":-4.943017482757568,"246":4.08667516708374,"247":4.583670616149902,"248":-1.851787805557251,"249":13.88129711151123,"250":-9.147314071655273,"251":-7.418681621551514,"252":8.051773071289062,"253":-1.7555968761444092,"254":5.76571798324585,"255":-3.0548739433288574,"256":0.48741838335990906,"257":-6.693101406097412,"258":1.2302696704864502,"259":1.6224159002304077,"260":11.444459915161133,"261":-1.06434166431427,"262":-5.778565883636475,"263":2.0831027030944824,"264":-6.41003942489624,"265":-3.8296093940734863,"266":3.379804849624634,"267":2.5419065952301025,"268":4.1372971534729,"269":5.027056694030762,"270":9.541220664978027,"271":-17.758798599243164,"272":7.607119560241699,"273":0.9198896288871765,"274":-1.0938736200332642,"275":4.925838947296143,"276":8.61232852935791,"277":13.94550895690918,"278":-2.7943949699401855,"279":3.7895588874816895,"280":-1.6443716287612915,"281":12.688939094543457,"282":12.720487594604492,"283":-3.2209856510162354,"284":-6.772330284118652,"285":-10.329992294311523,"286":8.669692993164062,"287":6.851649284362793,"288":-1.1334311962127686,"289":3.0524723529815674,"290":5.253679275512695,"291":4.206182956695557,"292":4.221954345703125,"293":-9.285292625427246,"294":0.1452246755361557,"295":-0.3859618306159973,"296":7.216145038604736,"297":-1.7685948610305786,"298":12.718544006347656,"299":10.86318588256836,"300":-8.082050323486328,"301":7.931467056274414,"302":-2.010345935821533,"303":0.5122290253639221,"304":-1.4243700504302979,"305":2.6834118366241455,"306":13.556238174438477,"307":-10.49972152709961,"308":-6.779578685760498,"309":-3.5179405212402344,"310":7.627523899078369,"311":-0.9163543581962585,"312":1.6343685388565063,"313":1.558005690574646,"314":5.981748580932617,"315":6.101917266845703,"316":-7.310171127319336,"317":2.1302924156188965,"318":-1.3389676809310913,"319":-7.379358291625977,"320":10.244222640991211,"321":7.037209987640381,"322":10.196163177490234,"323":2.2305290699005127,"324":7.218189716339111,"325":0.008291578851640224,"326":-1.1828447580337524,"327":-6.439798355102539,"328":-5.510178565979004,"329":-10.143936157226562,"330":4.301284313201904,"331":-6.760775089263916,"332":-7.150463104248047,"333":-3.0002281665802,"334":2.664811134338379,"335":2.229494571685791,"336":-8.143512725830078,"337":8.581376075744629,"338":-0.05332593619823456,"339":-7.758245468139648,"340":1.8189588785171509,"341":9.57055377960205,"342":1.0217537879943848,"343":-9.36759090423584,"344":6.306250095367432,"345":1.4409931898117065,"346":8.856487274169922,"347":3.946082353591919,"348":-11.844888687133789,"349":-4.7454609870910645,"350":1.8456214666366577,"351":-1.1927605867385864,"352":6.635579586029053,"353":-1.9516061544418335,"354":-2.9752447605133057,"355":-2.5523486137390137,"356":-0.5126936435699463,"357":-0.2107265591621399,"358":4.427413463592529,"359":-11.476165771484375,"360":8.255083084106445,"361":5.104827880859375,"362":0.17339421808719635,"363":-12.706506729125977,"364":0.7546979188919067,"365":-14.601118087768555,"366":-1.816532850265503,"367":0.7782667279243469,"368":-0.7669011950492859,"369":3.075493812561035,"370":4.498852729797363,"371":-2.9305737018585205,"372":-3.705934762954712,"373":7.052827835083008,"374":-1.2082501649856567,"375":1.7003004550933838,"376":3.037106990814209,"377":-2.113970994949341,"378":-1.1216130256652832,"379":5.5276641845703125,"380":-5.065574645996094,"381":8.76287841796875,"382":6.820501327514648,"383":1.1907637119293213,"384":6.351644039154053,"385":2.4419212341308594,"386":2.948199510574341,"387":0.41965827345848083,"388":-2.5470070838928223,"389":6.125052452087402,"390":-1.5704898834228516,"391":-4.409355163574219,"392":1.1206927299499512,"393":-1.4583940505981445,"394":-1.4532567262649536,"395":-1.1869693994522095,"396":0.7036535143852234,"397":3.2283499240875244,"398":-0.6571975350379944,"399":-2.474212884902954,"400":4.955938816070557,"401":-1.1055428981781006,"402":3.692718744277954,"403":2.424258232116699,"404":-8.32875919342041,"405":7.458503723144531,"406":-0.8666077256202698,"407":8.07125473022461,"408":-3.6188716888427734,"409":6.582688331604004,"410":6.788129806518555,"411":-8.939803123474121,"412":5.833639621734619,"413":-3.7983031272888184,"414":-0.2280421108007431,"415":-10.703025817871094,"416":-3.293790340423584,"417":8.535305976867676,"418":-0.9713831543922424,"419":-3.9336283206939697,"420":-5.971875190734863,"421":8.411613464355469,"422":2.748934268951416,"423":-7.190000057220459,"424":-1.1712920665740967,"425":-6.197490215301514,"426":-5.241659641265869,"427":0.1519908308982849,"428":-1.8096243143081665,"429":1.5671972036361694,"430":-2.164181709289551,"431":-4.05996561050415,"432":-0.0783240795135498,"433":7.868052005767822,"434":8.487054824829102,"435":1.4998565912246704,"436":2.829684019088745,"437":-2.6298162937164307,"438":-7.397422790527344,"439":-10.272101402282715,"440":-9.257383346557617,"441":3.0578999519348145,"442":-3.4826314449310303,"443":18.459659576416016,"444":0.8406187295913696,"445":7.9819560050964355,"446":-2.8356566429138184,"447":10.950650215148926,"448":8.806998252868652,"449":-9.96967887878418,"450":-3.1092705726623535,"451":-11.178000450134277,"452":-0.5160459876060486,"453":4.698602676391602,"454":-3.7599804401397705,"455":0.2483566701412201,"456":4.305636882781982,"457":-1.8434557914733887,"458":1.0872769355773926,"459":-1.5620335340499878,"460":-3.232624053955078,"461":7.090975284576416,"462":-5.281249046325684,"463":4.500724792480469,"464":-5.502284049987793,"465":-0.7729713320732117,"466":-15.398506164550781,"467":-7.556868076324463,"468":1.7838177680969238,"469":0.23840747773647308,"470":4.59876823425293,"471":-3.583495855331421,"472":-4.224625587463379,"473":-7.386621952056885,"474":0.8690851330757141,"475":-0.15952642261981964,"476":-2.111842155456543,"477":5.058899402618408,"478":-6.223489761352539,"479":5.908745765686035,"480":3.1464805603027344,"481":-6.932083606719971,"482":-8.54343032836914,"483":-1.8098589181900024,"484":5.47482442855835,"485":4.401042938232422,"486":1.9722037315368652,"487":7.516608715057373,"488":1.2062644958496094,"489":-1.7365338802337646,"490":-7.771275043487549,"491":-10.138328552246094,"492":1.6280585527420044,"493":4.577337265014648,"494":9.880617141723633,"495":-13.61592960357666,"496":1.3629437685012817,"497":-1.8605308532714844,"498":8.183971405029297,"499":-1.171122670173645,"500":-2.3702688217163086,"501":-3.7289581298828125,"502":-3.5128626823425293,"503":3.1793744564056396,"504":-1.0683234930038452,"505":1.5082262754440308,"506":-0.27017152309417725,"507":-3.6564910411834717,"508":5.574068546295166,"509":-1.5162549018859863,"510":-4.903073310852051,"511":-0.45439791679382324,"512":-4.171054840087891,"513":3.1336727142333984,"514":-3.8715429306030273,"515":-2.3491716384887695,"516":1.9233007431030273,"517":-4.197649955749512,"518":3.643916606903076,"519":-5.61665678024292,"520":3.242260456085205,"521":6.4614386558532715,"522":6.620907783508301,"523":8.566944122314453,"524":1.7980302572250366,"525":2.3997387886047363,"526":-1.911056637763977,"527":-0.49174249172210693,"528":3.8681278228759766,"529":-1.6511591672897339,"530":-0.23802915215492249,"531":0.8285895586013794,"532":-6.689186096191406,"533":0.9632493853569031,"534":0.9525511264801025,"535":-1.132812261581421,"536":1.6780463457107544,"537":-3.924628973007202,"538":2.278047561645508,"539":7.268331050872803,"540":1.1069574356079102,"541":-2.061145067214966,"542":-4.213405609130859,"543":2.1826834678649902,"544":-0.760094940662384,"545":3.13871693611145,"546":3.8671505451202393,"547":4.395789623260498,"548":-2.032756805419922,"549":1.7031949758529663,"550":-10.32622241973877,"551":-3.907884359359741,"552":-1.5097453594207764,"553":-8.947633743286133,"554":-0.7578874230384827,"555":-4.24647331237793,"556":5.827480792999268,"557":5.576396942138672,"558":-3.6219253540039062,"559":-2.3499975204467773,"560":9.187241554260254,"561":-3.365786075592041,"562":0.9384962320327759,"563":-4.803779602050781,"564":-6.600417137145996,"565":-2.4860968589782715,"566":-0.1923684924840927,"567":0.7007194757461548,"568":3.457545042037964,"569":-2.5403976440429688,"570":-0.7239300012588501,"571":-12.682459831237793,"572":-4.400125026702881,"573":-1.3422105312347412,"574":-8.96807861328125,"575":3.446521043777466,"576":1.4428035020828247,"577":2.1150288581848145,"578":-11.781497955322266,"579":-1.5829558372497559,"580":15.397485733032227,"581":1.009525179862976,"582":7.120407581329346,"583":-1.1196731328964233,"584":3.417634963989258,"585":-2.1781702041625977,"586":-9.913783073425293,"587":7.5232014656066895,"588":6.824369430541992,"589":5.497891426086426,"590":3.8476369380950928,"591":3.529085159301758,"592":4.102347373962402,"593":-15.127666473388672,"594":4.647897243499756,"595":-7.850618839263916,"596":-6.010758399963379,"597":-5.0063276290893555,"598":2.3310091495513916,"599":-11.253085136413574,"600":2.712122917175293,"601":-3.478832483291626,"602":-5.197408676147461,"603":-2.1393656730651855,"604":2.6581785678863525,"605":-2.2801997661590576,"606":-2.18699312210083,"607":-2.3167715072631836,"608":2.6608147621154785,"609":-4.972099781036377,"610":-1.7207261323928833,"611":-8.252032279968262,"612":-1.2164503335952759,"613":2.0153026580810547,"614":3.950777769088745,"615":-0.005772248841822147,"616":6.23700475692749,"617":-2.279932737350464,"618":-7.531018257141113,"619":-3.1576881408691406,"620":8.004181861877441,"621":-1.6825873851776123,"622":-1.6921149492263794,"623":2.97196888923645,"624":0.8583406805992126,"625":-2.9661672115325928,"626":0.2155643105506897,"627":-1.8920375108718872,"628":-3.494227647781372,"629":-0.568248987197876,"630":3.219965696334839,"631":2.9468443393707275,"632":6.801443576812744,"633":-1.8554991483688354,"634":-6.200817584991455,"635":0.7123172283172607,"636":4.324313640594482,"637":6.177406311035156,"638":-0.2780591547489166,"639":6.790119647979736,"640":-4.062669277191162,"641":3.3456668853759766,"642":-2.0710790157318115,"643":-0.8977490067481995,"644":-7.555140972137451,"645":1.4881082773208618,"646":-6.590151309967041,"647":-6.609199047088623,"648":-2.178215503692627,"649":-0.42218562960624695,"650":0.37660878896713257,"651":3.0995211601257324,"652":-4.940981864929199,"653":-2.860227108001709,"654":2.148813247680664,"655":-0.37016168236732483,"656":-11.594613075256348,"657":-2.2502288818359375,"658":1.6554292440414429,"659":-0.6537981629371643,"660":-4.586916923522949,"661":-0.1654755026102066,"662":5.3246235847473145,"663":4.9122700691223145,"664":0.7744678854942322,"665":-2.6447970867156982,"666":-3.3215134143829346,"667":-3.0531222820281982,"668":9.64099407196045,"669":-7.657108783721924,"670":-4.842017650604248,"671":1.225914716720581,"672":-2.4096591472625732,"673":-8.54753303527832,"674":1.820631980895996,"675":3.0181334018707275,"676":-5.551548480987549,"677":-2.055922508239746,"678":4.807729244232178,"679":-4.773519992828369,"680":-8.648170471191406,"681":2.423379898071289,"682":0.04975413158535957,"683":-6.958479881286621,"684":-1.2833572626113892,"685":-4.628480434417725,"686":4.236226558685303,"687":6.355075836181641,"688":0.2990542948246002,"689":0.9307805299758911,"690":7.164817810058594,"691":-3.2682509422302246,"692":-5.338285446166992,"693":-2.2875587940216064,"694":-3.2019431591033936,"695":-7.808017730712891,"696":2.03348970413208,"697":5.6374077796936035,"698":3.386815071105957,"699":1.8166784048080444,"700":-3.3142964839935303,"701":-7.376978874206543,"702":-3.4401707649230957,"703":-5.161465167999268,"704":2.4411065578460693,"705":0.37782710790634155,"706":-11.559183120727539,"707":2.73629093170166,"708":-3.5524649620056152,"709":4.607730865478516,"710":-6.401872158050537,"711":5.117238998413086,"712":-6.301563739776611,"713":5.429569721221924,"714":1.1622422933578491,"715":0.8310356140136719,"716":-1.6482809782028198,"717":-4.197086811065674,"718":-4.2464704513549805,"719":-4.563814640045166,"720":3.3685970306396484,"721":2.0387258529663086,"722":5.903470039367676,"723":-5.092916011810303,"724":2.8664467334747314,"725":4.5488362312316895,"726":-3.9504199028015137,"727":-3.610159158706665,"728":4.540400981903076,"729":-0.06747482717037201,"730":1.4375804662704468,"731":6.655076503753662,"732":-7.309378147125244,"733":7.852960109710693,"734":3.470871925354004,"735":-2.7299532890319824,"736":3.340057849884033,"737":-2.579026222229004,"738":0.5701783895492554,"739":0.7866545915603638,"740":-1.488586187362671,"741":-1.77974271774292,"742":-2.662855863571167,"743":-3.786933183670044,"744":8.659261703491211,"745":-5.048168659210205,"746":12.356090545654297,"747":-2.3777122497558594,"748":5.418119430541992,"749":3.4537692070007324,"750":-1.01960289478302,"751":1.5870684385299683,"752":4.006173610687256,"753":3.9501419067382812,"754":2.2378454208374023,"755":-8.880958557128906,"756":9.493851661682129,"757":-5.570495128631592,"758":-1.1077669858932495,"759":-7.211662769317627,"760":4.852633476257324,"761":-2.0961833000183105,"762":-3.794973850250244,"763":-4.238550186157227,"764":-6.021148681640625,"765":-1.1699362993240356,"766":2.823084592819214,"767":-4.535278797149658,"768":1.3504383563995361,"769":2.545520782470703,"770":5.933504581451416,"771":-11.076340675354004,"772":8.155717849731445,"773":-2.025024652481079,"774":-5.317359447479248,"775":5.208850860595703,"776":1.3411036729812622,"777":-0.31482580304145813,"778":-2.513432025909424,"779":5.127191543579102,"780":-2.6568822860717773,"781":10.793173789978027,"782":-4.51767635345459,"783":-3.218191385269165,"784":1.9787331819534302,"785":4.567163944244385,"786":0.7664144039154053,"787":3.2340166568756104,"788":-0.9323287606239319,"789":5.3048906326293945,"790":0.7751049399375916,"791":-9.366256713867188,"792":-2.3153340816497803,"793":-0.02725137770175934,"794":-9.145567893981934,"795":-9.195395469665527,"796":3.5319302082061768,"797":14.061670303344727,"798":9.619404792785645,"799":-1.0677440166473389,"800":-6.239213466644287,"801":-1.457707166671753,"802":-3.583406686782837,"803":0.14104020595550537,"804":-6.422818183898926,"805":-7.976473808288574,"806":-3.894228458404541,"807":4.8419013023376465,"808":4.955615997314453,"809":-1.7340400218963623,"810":7.0593085289001465,"811":-2.0257558822631836,"812":-4.52076530456543,"813":3.7209620475769043,"814":-5.444540500640869,"815":3.1490840911865234,"816":0.8956079483032227,"817":1.0537109375,"818":-0.43744975328445435,"819":15.532388687133789,"820":19.395586013793945,"821":-2.687912702560425,"822":13.42866039276123,"823":-3.813349723815918,"824":-2.743557929992676,"825":9.355030059814453,"826":-0.20401018857955933,"827":8.484611511230469,"828":0.7990676760673523,"829":1.0671590566635132,"830":5.937655925750732,"831":2.3655130863189697,"832":4.817157745361328,"833":2.6681177616119385,"834":2.3972690105438232,"835":6.931133270263672,"836":4.096333026885986,"837":7.550963878631592,"838":-2.9836690425872803,"839":-2.4531993865966797,"840":12.551675796508789,"841":-3.3622987270355225,"842":1.4969762563705444,"843":2.3865396976470947,"844":0.9923706650733948,"845":1.913616418838501,"846":9.545659065246582,"847":-1.288310170173645,"848":2.6367011070251465,"849":2.3601768016815186,"850":-3.712113380432129,"851":-1.2355421781539917,"852":0.32306545972824097,"853":-1.155527949333191,"854":-1.8849636316299438,"855":-1.210347056388855,"856":-0.8421433568000793,"857":-0.15665128827095032,"858":2.4234914779663086,"859":2.1324479579925537,"860":-0.42165908217430115,"861":-0.6840069890022278,"862":-0.4378943145275116,"863":-0.054435256868600845,"864":2.13247013092041,"865":-2.292548894882202,"866":-3.388725519180298,"867":0.31838223338127136,"868":2.4162039756774902,"869":-2.5806710720062256,"870":-0.7900905609130859,"871":-0.7183600068092346,"872":-2.3371236324310303,"873":1.221996784210205,"874":-0.9688718318939209,"875":2.2274975776672363,"876":1.521265983581543,"877":-1.7630641460418701,"878":0.6235209703445435,"879":2.9228405952453613,"880":0.37708529829978943,"881":1.8318909406661987,"882":0.21791358292102814,"883":1.4409736394882202,"884":-0.7187598347663879,"885":-3.5270605087280273,"886":0.9561034440994263,"887":1.5996720790863037,"888":6.566131591796875,"889":0.1713564395904541,"890":2.5222978591918945,"891":-0.039085011929273605,"892":0.9941496849060059,"893":1.500467300415039,"894":-2.2133941650390625,"895":0.14547675848007202,"896":1.844530463218689,"897":0.09926764667034149,"898":0.031092485412955284,"899":-0.8860559463500977,"900":1.1867878437042236,"901":-12.109169960021973,"902":-3.416672945022583,"903":-3.0134048461914062,"904":-2.996177911758423,"905":-2.2774407863616943,"906":-2.468635082244873,"907":0.9860144257545471,"908":-2.4446141719818115,"909":2.500659942626953,"910":-0.08268950134515762,"911":0.7233657836914062,"912":0.5024033188819885,"913":3.2112982273101807,"914":-0.9156574606895447,"915":-8.745590209960938,"916":-6.475370407104492,"917":-1.1335086822509766,"918":2.172471523284912,"919":-6.951430320739746,"920":-1.8895044326782227,"921":-4.1707444190979,"922":14.412444114685059,"923":-2.0290610790252686,"924":5.549079418182373,"925":-1.7367197275161743,"926":4.38956356048584,"927":1.1862257719039917,"928":-2.0934083461761475,"929":-6.786848545074463,"930":9.302750587463379,"931":7.424434185028076,"932":-12.175822257995605,"933":-4.174947261810303,"934":8.469352722167969,"935":-11.586711883544922,"936":14.433734893798828,"937":0.6493180394172668,"938":-4.855494022369385,"939":-2.1433866024017334,"940":8.503853797912598,"941":-1.0921740531921387,"942":-4.301535129547119,"943":-0.13535578548908234,"944":-2.0625853538513184,"945":-9.54394245147705,"946":-5.347097396850586,"947":-6.096963405609131,"948":4.148798942565918,"949":4.095744609832764,"950":8.869836807250977,"951":1.803784966468811,"952":-5.080913066864014,"953":4.449607849121094,"954":-2.504495143890381,"955":1.8412219285964966,"956":1.333966612815857,"957":-5.9935712814331055,"958":5.048701286315918,"959":10.32630729675293,"960":-19.01160430908203,"961":5.767585277557373,"962":-4.228588104248047,"963":-0.902842104434967,"964":1.2624576091766357,"965":17.800983428955078,"966":-8.544296264648438,"967":-12.503657341003418,"968":-2.635248899459839,"969":0.27080413699150085,"970":-3.9371931552886963,"971":1.2448720932006836,"972":0.5941344499588013,"973":-5.104323863983154,"974":4.405912399291992,"975":0.5089191198348999,"976":-5.769059658050537,"977":-4.7926764488220215,"978":8.803733825683594,"979":3.193586587905884,"980":0.571455180644989,"981":-7.099958419799805,"982":-10.593827247619629,"983":-16.00503158569336,"984":-6.354331970214844,"985":8.264853477478027,"986":2.791524887084961,"987":4.093733310699463,"988":-11.991413116455078,"989":0.833057701587677,"990":-2.5835015773773193,"991":-5.980070114135742,"992":0.4062140882015228,"993":-1.9599456787109375,"994":-0.5153855681419373,"995":-6.103228569030762,"996":1.895544171333313,"997":11.374794960021973,"998":7.617749214172363,"999":15.899763107299805,"1000":-9.19035816192627,"1001":5.640257358551025,"1002":-9.170561790466309,"1003":-7.217077732086182,"1004":-7.249287128448486,"1005":10.106684684753418,"1006":1.8348617553710938,"1007":-6.218194007873535,"1008":2.3822078704833984,"1009":0.20300446450710297,"1010":1.1463154554367065,"1011":6.851345539093018,"1012":-15.843615531921387,"1013":-1.2629038095474243,"1014":-11.658914566040039,"1015":-0.5181546211242676,"1016":-5.631639003753662,"1017":-3.822910785675049,"1018":13.007068634033203,"1019":6.868601322174072,"1020":4.484512805938721,"1021":5.036726474761963,"1022":-4.0969672203063965,"1023":5.026436805725098,"1024":-9.902734756469727,"1025":6.477272987365723,"1026":0.9873547554016113,"1027":6.049267768859863,"1028":-2.081461191177368,"1029":16.66850471496582,"1030":6.057868480682373,"1031":7.890163421630859,"1032":-1.1517646312713623,"1033":-7.055955410003662,"1034":-10.78046703338623,"1035":-2.9668145179748535,"1036":-10.164583206176758,"1037":-4.52279806137085,"1038":9.241935729980469,"1039":7.903443813323975,"1040":2.6286919116973877,"1041":2.5998220443725586,"1042":-0.917555570602417,"1043":-5.0776591300964355,"1044":-5.262213230133057,"1045":-8.835465431213379,"1046":7.825185775756836,"1047":9.814682960510254,"1048":-3.684762954711914,"1049":-3.9347403049468994,"1050":9.876887321472168,"1051":-5.617381572723389,"1052":-6.0421648025512695,"1053":-19.8310604095459,"1054":3.08290958404541,"1055":-9.394501686096191,"1056":0.2950098514556885,"1057":0.2743273675441742,"1058":-2.0793423652648926,"1059":-12.401865005493164,"1060":1.4845048189163208,"1061":-5.864588737487793,"1062":7.730570316314697,"1063":7.631985187530518,"1064":4.668674945831299,"1065":2.974344491958618,"1066":-5.017721652984619,"1067":-0.36143097281455994,"1068":-0.4325878620147705,"1069":0.2979532778263092,"1070":2.381652355194092,"1071":-10.209832191467285,"1072":1.8878021240234375,"1073":-3.0814671516418457,"1074":2.6582236289978027,"1075":-17.82550048828125,"1076":-6.346958637237549,"1077":2.174738883972168,"1078":-6.4322357177734375,"1079":-5.790527820587158,"1080":-7.231098175048828,"1081":-5.918407440185547,"1082":12.223600387573242,"1083":-7.209249973297119,"1084":-9.667377471923828,"1085":-2.087069272994995,"1086":1.8666441440582275,"1087":6.200031757354736,"1088":-2.499915361404419,"1089":-5.6734089851379395,"1090":-7.140023231506348,"1091":-1.867756724357605,"1092":1.0996026992797852,"1093":-12.833709716796875,"1094":-1.5159982442855835,"1095":11.835295677185059,"1096":-1.6698367595672607,"1097":0.918425440788269,"1098":-9.92117977142334,"1099":6.182139873504639,"1100":-0.19501076638698578,"1101":-1.475131630897522,"1102":9.740824699401855,"1103":-5.953829288482666,"1104":4.3914995193481445,"1105":-7.595479488372803,"1106":-1.2353911399841309,"1107":-2.5858800411224365,"1108":0.6941586136817932,"1109":-4.978315830230713,"1110":2.6011457443237305,"1111":-1.4870233535766602,"1112":-0.44164517521858215,"1113":4.113273620605469,"1114":1.2950583696365356,"1115":-4.437009334564209,"1116":-1.2664339542388916,"1117":0.27718478441238403,"1118":-1.2350057363510132,"1119":-8.461555480957031,"1120":4.1055073738098145,"1121":2.504108428955078,"1122":-0.5883456468582153,"1123":-0.7772159576416016,"1124":2.541252613067627,"1125":3.4722647666931152,"1126":5.388087272644043,"1127":2.381951093673706,"1128":8.457953453063965,"1129":4.402913570404053,"1130":2.1422407627105713,"1131":-1.7921497821807861,"1132":1.9632632732391357,"1133":0.1117696464061737,"1134":-1.242795467376709,"1135":1.2409642934799194,"1136":2.005561113357544,"1137":4.138509273529053,"1138":1.0826811790466309,"1139":0.3254351317882538,"1140":2.041346311569214,"1141":1.2652279138565063,"1142":1.0534734725952148,"1143":-1.0365345478057861,"1144":-2.742161989212036,"1145":0.9200332164764404,"1146":1.5059982538223267,"1147":-7.416342735290527,"1148":5.8522868156433105,"1149":-0.6037396788597107,"1150":1.0413644313812256,"1151":-1.1202212572097778,"1152":-5.875836372375488,"1153":5.619114875793457,"1154":-4.172169208526611,"1155":10.63602352142334,"1156":7.137812614440918,"1157":-2.9112722873687744,"1158":1.7792454957962036,"1159":-14.439282417297363,"1160":5.601078510284424,"1161":-12.206659317016602,"1162":-0.05274183303117752,"1163":0.967131495475769,"1164":-6.765464782714844,"1165":-6.238922119140625,"1166":-3.129427671432495,"1167":-4.10500431060791,"1168":2.0243186950683594,"1169":5.46842622756958,"1170":0.7743639945983887,"1171":3.338239908218384,"1172":1.0469452142715454,"1173":5.679174423217773,"1174":-1.515000820159912,"1175":2.1258063316345215,"1176":3.7186803817749023,"1177":9.13888931274414,"1178":-0.4209681451320648,"1179":5.178953647613525,"1180":1.5313595533370972,"1181":1.191060185432434,"1182":9.464140892028809,"1183":-1.721883773803711,"1184":3.824655294418335,"1185":-0.9278088808059692,"1186":9.76805591583252,"1187":1.2631334066390991,"1188":-2.7167117595672607,"1189":0.7777518033981323,"1190":5.455546855926514,"1191":10.599453926086426,"1192":5.19830846786499,"1193":1.5616291761398315,"1194":3.165557861328125,"1195":3.5570969581604004,"1196":2.7917234897613525,"1197":1.8868767023086548,"1198":-3.1399717330932617,"1199":-1.5305280685424805,"1200":-9.214330673217773,"1201":-0.5863118171691895,"1202":0.7618860006332397,"1203":7.482600212097168,"1204":-0.7497602701187134,"1205":5.216150760650635,"1206":-3.9935765266418457,"1207":6.219657897949219,"1208":0.8692667484283447,"1209":1.4523755311965942,"1210":-13.306577682495117,"1211":-3.3839571475982666,"1212":3.435288190841675,"1213":-1.7542165517807007,"1214":4.724714756011963,"1215":-2.5117440223693848,"1216":-4.277184963226318,"1217":1.0521529912948608,"1218":-0.43394404649734497,"1219":-6.528881072998047,"1220":-4.399338245391846,"1221":3.652461051940918,"1222":-11.75169563293457,"1223":-1.0093787908554077,"1224":1.0522431135177612,"1225":-0.6940392851829529,"1226":-8.946154594421387,"1227":5.359523296356201,"1228":0.8111482858657837,"1229":5.562906265258789,"1230":1.6280180215835571,"1231":8.373734474182129,"1232":4.932863235473633,"1233":12.865955352783203,"1234":7.016573905944824,"1235":-6.6158976554870605,"1236":0.2649605870246887,"1237":-3.256633996963501,"1238":9.195816040039062,"1239":-10.36479663848877,"1240":0.7329646944999695,"1241":-3.8907721042633057,"1242":-5.320368766784668,"1243":5.76985502243042,"1244":-0.11799279600381851,"1245":-4.350893974304199,"1246":-3.5357985496520996,"1247":2.987565755844116,"1248":3.84177565574646,"1249":7.216507911682129,"1250":2.706594944000244,"1251":-1.8687987327575684,"1252":0.5035545825958252,"1253":-5.871081352233887,"1254":-6.536726474761963,"1255":-3.9909162521362305,"1256":5.150461196899414,"1257":10.167304992675781,"1258":-6.409217834472656,"1259":7.883504390716553,"1260":-10.35534954071045,"1261":-0.9001688361167908,"1262":-7.797219753265381,"1263":2.648099899291992,"1264":2.5191690921783447,"1265":5.814815044403076,"1266":7.300776958465576,"1267":2.1188948154449463,"1268":6.176823139190674,"1269":-3.6051602363586426,"1270":6.343776226043701,"1271":-2.921308755874634,"1272":8.667412757873535,"1273":3.330571413040161,"1274":1.9802160263061523,"1275":1.770296573638916,"1276":-6.39529275894165,"1277":2.916215181350708,"1278":-7.551358699798584,"1279":-3.3046162128448486,"1280":4.543947219848633,"1281":-5.402029991149902,"1282":6.090568542480469,"1283":-5.623852729797363,"1284":-5.589517116546631,"1285":0.2047170102596283,"1286":6.262033462524414,"1287":-6.1393561363220215,"1288":-6.844459533691406,"1289":-2.8697826862335205,"1290":-4.028042793273926,"1291":8.111736297607422,"1292":2.8017969131469727,"1293":-7.6937785148620605,"1294":1.547299861907959,"1295":-2.163799285888672,"1296":-4.966796398162842,"1297":2.6274869441986084,"1298":-6.351559638977051,"1299":11.09191608428955,"1300":-3.7157766819000244,"1301":1.9356011152267456,"1302":6.360879898071289,"1303":10.880518913269043,"1304":2.2497832775115967,"1305":0.446359783411026,"1306":7.051911354064941,"1307":-0.7552900910377502,"1308":-6.468842029571533,"1309":-6.555621147155762,"1310":-8.37411117553711,"1311":-12.549663543701172,"1312":-2.1167008876800537,"1313":-1.1541262865066528,"1314":-7.514240264892578,"1315":8.04825496673584,"1316":1.1230764389038086,"1317":4.2003068923950195,"1318":1.0375185012817383,"1319":-0.897794783115387,"1320":2.7619974613189697,"1321":3.1015920639038086,"1322":-2.5805625915527344,"1323":-3.249392509460449,"1324":5.373021125793457,"1325":5.855366230010986,"1326":-0.5969310402870178,"1327":-12.240553855895996,"1328":-5.890082836151123,"1329":0.0861247256398201,"1330":-5.800127029418945,"1331":1.9054803848266602,"1332":-5.6826677322387695,"1333":0.9798057675361633,"1334":3.0060231685638428,"1335":-8.858152389526367,"1336":-5.315438747406006,"1337":-2.4632186889648438,"1338":4.0384521484375,"1339":-8.2841215133667,"1340":8.958672523498535,"1341":-3.0341718196868896,"1342":-3.4993491172790527,"1343":7.6123857498168945,"1344":-1.9453229904174805,"1345":0.985660970211029,"1346":-3.176743507385254,"1347":4.826958179473877,"1348":-2.612114429473877,"1349":2.7803831100463867,"1350":-4.497373580932617,"1351":-0.9698026180267334,"1352":6.630444049835205,"1353":-2.2370550632476807,"1354":-2.621934652328491,"1355":-2.593968152999878,"1356":-0.5601707100868225,"1357":-2.268772602081299,"1358":-2.8507080078125,"1359":-1.7572823762893677,"1360":2.196948766708374,"1361":-1.8719402551651,"1362":0.7004985213279724,"1363":5.059467792510986,"1364":-1.1959199905395508,"1365":-3.905564785003662,"1366":-1.7672719955444336,"1367":-1.0414527654647827,"1368":-0.2500007152557373,"1369":4.0399909019470215,"1370":-5.065944671630859,"1371":-15.295059204101562,"1372":-4.1978583335876465,"1373":-0.6053824424743652,"1374":-0.2483537197113037,"1375":3.0192904472351074,"1376":-2.7650437355041504,"1377":-0.5159353613853455,"1378":2.555659294128418,"1379":-3.220396041870117,"1380":0.3583506643772125,"1381":-1.6542651653289795,"1382":2.138756036758423,"1383":-3.68021297454834,"1384":1.1847118139266968,"1385":-2.9350621700286865,"1386":4.0018181800842285,"1387":-0.1868981570005417,"1388":7.043163299560547,"1389":-1.2250339984893799,"1390":2.3171050548553467,"1391":-2.317754030227661,"1392":-0.3889349400997162,"1393":1.2428443431854248,"1394":-0.5132796764373779,"1395":2.529310703277588,"1396":-3.610100507736206,"1397":1.8322877883911133,"1398":-3.2000157833099365,"1399":-1.2296028137207031,"1400":0.27001094818115234,"1401":-8.82142448425293,"1402":6.217743873596191,"1403":-9.270464897155762,"1404":-9.588326454162598,"1405":-1.4699432849884033,"1406":7.670820236206055,"1407":0.41565343737602234,"1408":-4.1086578369140625,"1409":0.031192461028695107,"1410":0.6420179009437561,"1411":-1.3404165506362915,"1412":4.15723180770874,"1413":2.7001612186431885,"1414":-3.422210216522217,"1415":-1.972969889640808,"1416":4.2046003341674805,"1417":1.4824186563491821,"1418":-5.780002117156982,"1419":-12.855106353759766,"1420":6.242007255554199,"1421":-12.53791332244873,"1422":-8.499985694885254,"1423":3.107396125793457,"1424":-3.3652842044830322,"1425":-1.4070976972579956,"1426":14.455366134643555,"1427":8.054739952087402,"1428":3.481773853302002,"1429":-1.3960764408111572,"1430":7.523538112640381,"1431":-4.793890476226807,"1432":16.0362548828125,"1433":-8.913500785827637,"1434":-6.003203868865967,"1435":-8.212806701660156,"1436":-1.9156116247177124,"1437":8.081894874572754,"1438":2.0152833461761475,"1439":0.19189061224460602,"1440":0.8563690781593323,"1441":-2.83642840385437,"1442":8.732388496398926,"1443":-7.997847557067871,"1444":-5.427950859069824,"1445":1.0967103242874146,"1446":-5.412755966186523,"1447":-8.924683570861816,"1448":-17.63131332397461,"1449":0.8123355507850647,"1450":-0.46835577487945557,"1451":-4.8225417137146,"1452":-3.3936641216278076,"1453":1.2419770956039429,"1454":1.7533780336380005,"1455":-4.174403667449951,"1456":0.6175342202186584,"1457":-3.7602548599243164,"1458":2.0134222507476807,"1459":-2.7625861167907715,"1460":11.214723587036133,"1461":0.9126228094100952,"1462":1.9335826635360718,"1463":-1.458806037902832,"1464":5.379406929016113,"1465":-5.1423187255859375,"1466":3.8306384086608887,"1467":-3.825725555419922,"1468":-10.173678398132324,"1469":0.0856703594326973,"1470":-2.461669921875,"1471":0.7334387898445129,"1472":2.3088338375091553,"1473":1.0586575269699097,"1474":3.3602921962738037,"1475":-3.07861065864563,"1476":-0.184357687830925,"1477":11.296499252319336,"1478":-1.8806582689285278,"1479":1.2947481870651245,"1480":5.9022650718688965,"1481":1.3568741083145142,"1482":7.983187675476074,"1483":-5.134036540985107,"1484":1.1288355588912964,"1485":4.10373067855835,"1486":-3.867518424987793,"1487":-12.184807777404785,"1488":8.217540740966797,"1489":0.7944385409355164,"1490":1.6896673440933228,"1491":3.4038357734680176,"1492":8.476978302001953,"1493":9.854113578796387,"1494":-4.097201347351074,"1495":-5.2237935066223145,"1496":-6.737316608428955,"1497":-13.097260475158691,"1498":-0.12449527531862259,"1499":-5.082770824432373,"1500":1.3522229194641113,"1501":-0.10079718381166458,"1502":-3.857409954071045,"1503":0.14826519787311554,"1504":-0.8486931324005127,"1505":2.0644781589508057,"1506":6.946173667907715,"1507":1.236825942993164,"1508":-0.31212958693504333,"1509":11.297037124633789,"1510":-0.2857773005962372,"1511":-5.510766983032227,"1512":1.477050542831421,"1513":7.201636791229248,"1514":-1.4910130500793457,"1515":-0.5000293254852295,"1516":-7.18174409866333,"1517":0.8323096036911011,"1518":3.5983355045318604,"1519":-0.016268137842416763,"1520":-6.542502403259277,"1521":2.800654649734497,"1522":-2.730388879776001,"1523":0.4694197177886963,"1524":-4.107721328735352,"1525":1.6372852325439453,"1526":-3.415773630142212,"1527":0.989948570728302,"1528":-1.6914823055267334,"1529":-3.1477108001708984,"1530":2.89318585395813,"1531":-7.957718849182129,"1532":10.013298034667969,"1533":-10.331164360046387,"1534":1.243375539779663,"1535":-2.028289794921875,"1536":2.1154117584228516,"1537":3.0286755561828613,"1538":-7.936975955963135,"1539":-10.472640991210938,"1540":4.519985198974609,"1541":1.0020813941955566,"1542":2.5089828968048096,"1543":-4.454919815063477,"1544":5.357202053070068,"1545":-1.3996925354003906,"1546":-0.40153899788856506,"1547":2.2120914459228516,"1548":3.3348941802978516,"1549":0.17555765807628632,"1550":2.221893787384033,"1551":-1.342499017715454,"1552":-1.2608247995376587,"1553":-4.797898292541504,"1554":-4.850793361663818,"1555":-4.103013038635254,"1556":3.030318021774292,"1557":-2.0097391605377197,"1558":2.1281344890594482,"1559":5.780501842498779,"1560":-4.5087571144104,"1561":7.74798583984375,"1562":-8.766067504882812,"1563":-7.410924911499023,"1564":-3.699927806854248,"1565":6.220058441162109,"1566":5.382460117340088,"1567":-2.5622098445892334,"1568":-2.318734884262085,"1569":-3.485793352127075,"1570":1.155106782913208,"1571":-0.8157297968864441,"1572":1.3255871534347534,"1573":-3.9192392826080322,"1574":-1.416038990020752,"1575":-0.48776501417160034,"1576":-2.705703020095825,"1577":1.5252554416656494,"1578":-3.771423101425171,"1579":-0.22110450267791748,"1580":-1.1802886724472046,"1581":1.0617754459381104,"1582":8.555341720581055,"1583":-1.918145775794983,"1584":0.518709659576416,"1585":9.937699317932129,"1586":-4.889842987060547,"1587":-2.1429269313812256,"1588":-3.9875354766845703,"1589":3.2931060791015625,"1590":-0.2778681516647339,"1591":-2.2393503189086914,"1592":2.776049852371216,"1593":5.377481460571289,"1594":-7.330600261688232,"1595":4.748093128204346,"1596":-0.09763434529304504,"1597":-0.6072014570236206,"1598":-0.6871079206466675,"1599":-0.45050349831581116,"1600":-5.962461948394775,"1601":-4.38557767868042,"1602":5.127923965454102,"1603":0.020683925598859787,"1604":-5.4470062255859375,"1605":-2.3886513710021973,"1606":-7.256263256072998,"1607":-0.20961323380470276,"1608":-1.696271538734436,"1609":-4.2534589767456055,"1610":1.6784472465515137,"1611":0.7169580459594727,"1612":1.1031997203826904,"1613":-11.163771629333496,"1614":-1.5402432680130005,"1615":-0.9106224775314331,"1616":1.117127776145935,"1617":3.041015386581421,"1618":-1.2401279211044312,"1619":-6.015685558319092,"1620":-2.4272501468658447,"1621":-2.9232470989227295,"1622":4.70046329498291,"1623":-4.520735263824463,"1624":-0.987388551235199,"1625":-0.4642839729785919,"1626":2.900128126144409,"1627":-0.19860878586769104,"1628":-3.4767229557037354,"1629":3.4422528743743896,"1630":3.1255972385406494,"1631":-3.5375308990478516,"1632":-7.141271591186523,"1633":-4.920899391174316,"1634":11.17331314086914,"1635":-0.45564940571784973,"1636":3.9903762340545654,"1637":-2.3393783569335938,"1638":-0.5914704203605652,"1639":-11.947141647338867,"1640":2.658522367477417,"1641":7.4878387451171875,"1642":-2.704562187194824,"1643":0.473684698343277,"1644":-2.1342263221740723,"1645":-0.4200091063976288,"1646":-2.5520501136779785,"1647":0.8100558519363403,"1648":-6.292644500732422,"1649":3.737396240234375,"1650":1.7693302631378174,"1651":-1.209323763847351,"1652":-1.985512137413025,