{"type":"LSTM","options":{"inputSize":77,"inputRange":77,"hiddenLayers":[30,30],"outputSize":77,"decayRate":0.999,"smoothEps":1e-8,"regc":0.000001,"clipval":5,"maxPredictionLength":100,"dataFormatter":{"values":["\n\n\n\nWhat's your name, girl (Ashley)\nYou came alone, where your man at\nI don't understand, girl\nLooking like Topanga\nHotter than a flame thrower\nWhat you sipping on, baby, plain soda\nLet me change your view on life\nCause you and I should cruise tonight\nAnd get a little bit of booze in us\nChris, I'll smoove the hype\nCause I'm a beat that pussy up and make the news tonight\nWait a minute, Ronda\nYou didn't give me enough time to explain, my anaconda is sprung\nJust give me thirty more seconds and I'll be outta\nYour hair, in a black me outta\nCan I buy ya a shot of Quervo and hit the parking lot\nA lot of condoms in my pocket but I'll probably say nada\nSo I cum inside ya and smack your baby bottom, long dick style\n\n\nHere's a shot for the two of us\nYou got a big old ass, where's the moving truck?\nCall your girlfriends up, I got my boys with me\nAnnoyed with me cause I'm hugging all the moist pussy\nI guess I'm winning the bet for the most tushie\nBut it ain't my fault, they flock close to me\nAmber rose my cock like a pole should be\nNow shake that ass, baby girl, touch your nose to feet\nI'm in the club with the lights out\nI'm here to fuck somebody's wife now\nLong dick style, lay the pipe down\nIs that a dress or a mother fucking nightgown\nIt doesn't matter cause they're coming off right now\nTell your girlfriends, Christian Mingles sites down\nSo that means to start sucking on my cock\nWhile listening to Taylor Swift on the Ipod\nTaylor Swift, Taylor-Taylor-Taylor Swift, Taylor Swift\nTaylor-Taylor-Taylor Swift, Taylor Swift\nTaylor-Taylor-Taylor Swift, Taylor Swift\nTaylor Swift, Taylor Swift\nTaylor Swift, fuck it why not\n\n\nI like the way your butt\nDoes these things, drives me nuts\nCrazy, I'm out my mind\nR. Kelly, bump and grind\nI like the way your butt\nDoes these things, drives me nuts\nCrazy, I'm out my mind\nR. Kelly, bump and grind","\n\n\n\n(\"I'm yours - yours\")\nYeaa-yeaaaa, let's explore\nYeaa-yeaaaa, I'm yours\nYeaa-yeaaaa, let's explore\nYeaa-yeaaaa, I'm yours, I'm yours\n\n\nSomedays I wake up and I feel like\nI don't know what's wrong and don't care what's right, right?\nAnd I ain't sayin that's it you\nJust sayin times I think of myself more than I do you\nTo give you proper love, I gotta love myself some\nYou gotta find yourself sum'n, get you a hobby or sum'n\nDurin grey spaces we existing in\nWhen we ain't quite a couple but we more than friends\nI think about coexisting and how to succeed at it\nWe gotta give each other space just to breathe a bit\nI don't want things to become too routine with us\nIt's alright, everyday we ain't gotta talk that much\nJust knowin I got you in my life is enough for me\nAnd you respect me havin individuality\nThat's what makes us happy, that's what keeps us whole\nEven in love, you gotta keep your soul - catch me?\n\n (Musiq Soulchild)\nCause that's my rollercoaster love, my rollercoaster love\n(Roller-coaster loooove)\nCause that's my rollercoaster love, my rollercoaster love\n(Looooove, looooove)\n\n\n(Cause that's my rollercoaster love)\nMy insecurities don't help at all\nThere's still love there, hope he don't stay upset for long\n+Are We There Yet?+, on some Ice Cube and Nia Long\nSeems we all packin his bags and 'bout to ribbit on\nUh-huh, whatever - bounce then, ninja~!\nKnowin I'll regret the decision, I'm gon' miss ya\nLove funny, it gets cold in the summer and winter\nYa heart just wanna cuddle up, make-up sex wit a ninja, ooh-ooh~!\nI promise baby I'm still deep in love witchu\nYep-yep I know the M.O., this is how we do\nUp and down rollercoaster, too emotional\nGot me feelin sick inside, I only like it when we ride\nIn the bedroom like a coupe, uh, arguments we loop, uh\nGoin in circles I wanna circle back wit him, uh\nBack when we were friends, yeah them happy days\nI really miss my boo-boo, hopin he don't stay away\n\n (Rapsody)\n(Cause that's my rollercoaster love, my rollercoaster love)\nAnd we go up and down, up and down\nUp and down, up and down\nUp and down, up and down\n(Cause that's my rollercoaster love, my rollercoaster love)\nRoller-coaster loooove\nLooooove, looooove\n\n\nAnd we go up and down, ohhhhh yeah\nUp and down, ohhhh you're my roller\n(Roller-coaster loooove)\nYou're myyyyyyy-IIIIGH, you're, you're, yooooou're....\n\n Cause that's my rollercoaster love, my rollercoaster love\n\n{*chopped sample of \"Holy Smokes & Gee Whiz\" by Tony! Toni! Tone! plays until fade*}","\n\n\n\nDon't cross that line keep it in ya boundaries\nYou frucker I'm like Bounty the quick to pick her up her\nA bottle full of liquor that shit I can't get enough of\nDon't let it happen again I understand much love\nNext time Mark Ferman won't even find my gloves\nNow you know better don't even wanna hold the grudge\nWas it worth it? You found out too late I was the wrong person\nWho ate while everybody was snatchin purses\nYou bait, cause every time I see you you nervous\nYou defeated your purpose now you seeing is worthless\nI gotta aks myself what the fruck I was doin\nAnd I gotta aks myself who the fruck you was screwin\nI'm ready for anything, off the top of the head\nI say anything, and I'ma get mines any means\nI'm in the cream I'm in the weed\nI'm in the position to take over\nI know y'all cowards will leave\nAnd if I get cut I know y'all cowards will bleed\nEvery second every minute every hour it's cheese\nA bloody mess that's what I'ma leave what you expect?\nThe hungriest has gotta eat, and that's N-O-T-S\nComplimentary ain't nothin for free a lot of men worry\nBaggy jeans NOTS search tensery\nMy ninja L told me that a lot of men bury\nAnd when we go to court we not on trial we jury\n\n(2X)\nBack up off me baby let me see where it is\nA one way ticket to nowhere with nothing to blow here\nI want it all ninja from the chain to the money\nIf it's something here that you want\nThen it's something here to die for\n\n(2X)\n\n[Verse 3: ?Leg?]\nEverything is clear, I can see now, no longer seem now\nTogether we explode is lethal, we get stronger than re-clouds\nAnd it's allergic I think I send ninjaz to turgis\nWe round up when it's urgin four pound up and lurkin'\nBig your whole town up in hearses\nAnd it'll stay with you for like a thousand curses\nAll I want is more cream all I want is more weed\nAll I want is your cheese so we can throw the hands\nOr we can show the cans but you still no man\nI fear no man there's no chance\nJust be ready for that last slow dance\nMany come many run many gun\nBut there's no warrant to city run\nUnder the city son I pity none\nAnd I still knock down these hoes until I'm 51\nMom said: Leg you don't care about anyone\nAnd on the scale of 1 to 10 she gave prrrt cause I'm a shitty son\n\n(2X)","\n\n\n* send corrections to the typist\n\n(Sara)\nWhen I'm with you, you make me feel so sexy, ooh\nMade up my mind, I agree that we are ready\n(I'm so ready) On a steady pace for love\nReady'and I'm ready'for love\nSo do you boy'do you want a taste'\n\n\nSo can we hook up around 8 so\nTry not to be late boy (It's on)\nI got so much in store for you\nTell ya boys bye, it's about time\nGonna make it hotter than July\nAnd make it worth your wait and I\nI like it when you say, 'Don't be shy'\n\n\nWhen I'm with you, you make me feel so sexy, ooh\nMade up my mind, I agree that we are ready\n(Ready for love) On a steady pace for love\n\n\nDim the lights, I turn my two-way off and close the door\nI'm in the mood for more\nBring it here, I wanna take you there\nOoh boy I swear no one compares\n(To this love) Love makin', breath takin', body shakin, no fakin'\nYou're really somethin', can't wait to be with you again\n\n\nSo can we hook up around 8 so\nTry not to be late boy (It's on)\nI got so much in store for you\nTell ya boys bye, it's about time\nGonna make it hotter than July\nAnd make it worth your wait and I\nI like it when you say, 'Don't be shy'\n\n\nWhen I'm with you, you make me feel so sexy, ooh\nMade up my mind, I agree that we are ready\n(For love) On a steady pace for love\n\n\nNo more waiting, contemplating\n'Cuz I know it's love\nI'm so anxious to start makin'\nGoin' steady now\nGo 'head boy, tear it up\n\n(Ness Rap)\nLook playa'I admit it was a game I played\nBut now I see things different, girl you changed my ways\nYou never know you got good fate''till it's gone\nNow you feel you bein' hoodwinked'now it's on\nListen'you never told me you ain't want me to grissle 'cuz I\nKept you hot and now it's somethin' official\nYou kept a pistol in ya pocket but the government issue\nLook I'seen too much to tell you I miss you\nOr tell you I love you, all day kissin' and huggin'\nListen'bottom line if I ain't wit you I'm fuckin' I never\nFucked wit ya sister, never fucked wit ya cousin, no fussin' and fightin'\nTonight, we under the covers tusslin'\nParadise where the water is blue and grab a snack 'round a quarter to 2\nMe and boo hoo'and I ain't gotta give you Extacy\nFor you to wanna have sex wit me, that's my specialty\n\n\nWhen I'm with you, you make me feel so sexy, ooh\nMade up my mind, I agree that we are ready\nOn a steady pace for love"],"indexTable":{"0":74,"1":73,"2":65,"3":69,"5":72,"8":75,"\n":0,"W":1,"h":2,"a":3,"t":4,"'":5,"s":6," ":7,"y":8,"o":9,"u":10,"r":11,"n":12,"m":13,"e":14,",":15,"g":16,"i":17,"l":18,"(":19,"A":20,")":21,"Y":22,"c":23,"w":24,"I":25,"d":26,"L":27,"k":28,"T":29,"p":30,"H":31,"f":32,"b":33,"v":34,"C":35,"z":36,"R":37,"x":38,"J":39,"Q":40,"S":41,"?":42,"B":43,"N":44,"M":45,"-":46,"D":47,".":48,"K":49,"\"":50,"q":51,"j":52,"E":53,"+":54,"U":55,"~":56,"!":57,"O":58,"G":59,"{":60,"*":61,"&":62,"}":63,"F":64,"X":66,"[":67,"V":68,":":70,"]":71,"P":76},"characterTable":{"0":"\n","1":"W","2":"h","3":"a","4":"t","5":"'","6":"s","7":" ","8":"y","9":"o","10":"u","11":"r","12":"n","13":"m","14":"e","15":",","16":"g","17":"i","18":"l","19":"(","20":"A","21":")","22":"Y","23":"c","24":"w","25":"I","26":"d","27":"L","28":"k","29":"T","30":"p","31":"H","32":"f","33":"b","34":"v","35":"C","36":"z","37":"R","38":"x","39":"J","40":"Q","41":"S","42":"?","43":"B","44":"N","45":"M","46":"-","47":"D","48":".","49":"K","50":"\"","51":"q","52":"j","53":"E","54":"+","55":"U","56":"~","57":"!","58":"O","59":"G","60":"{","61":"*","62":"&","63":"}","64":"F","65":"2","66":"X","67":"[","68":"V","69":"3","70":":","71":"]","72":"5","73":"1","74":"0","75":"8","76":"P"},"characters":["\n","W","h","a","t","'","s"," ","y","o","u","r","n","m","e",",","g","i","l","(","A",")","Y","c","w","I","d","L","k","T","p","H","f","b","v","C","z","R","x","J","Q","S","?","B","N","M","-","D",".","K","\"","q","j","E","+","U","~","!","O","G","{","*","&","}","F","2","X","[","V","3",":","]","5","1","0","8","P"],"specialIndexes":[]}},"input":{"rows":78,"columns":77,"weights":{"0":0.07014980912208557,"1":-1.0763317346572876,"2":-0.2844684422016144,"3":1.2723913192749023,"4":0.06350766122341156,"5":-0.1726810187101364,"6":0.26700231432914734,"7":0.6341500282287598,"8":0.09141670167446136,"9":-0.8435957431793213,"10":0.03763861209154129,"11":0.21719230711460114,"12":0.24301595985889435,"13":-0.44951537251472473,"14":0.21965141594409943,"15":-0.40187498927116394,"16":-1.0600284337997437,"17":-0.10513003915548325,"18":-0.11013728380203247,"19":-1.7204984426498413,"20":-0.28343072533607483,"21":-0.1609957218170166,"22":0.23087500035762787,"23":-0.037634242326021194,"24":-1.6435238122940063,"25":-0.032566316425800323,"26":-0.2606813907623291,"27":0.44222933053970337,"28":0.4126094877719879,"29":-0.2709502577781677,"30":-0.052604444324970245,"31":0.027599643915891647,"32":0.935789942741394,"33":0.5339506268501282,"34":-0.22502662241458893,"35":-0.28392934799194336,"36":0.5874390602111816,"37":0.4632470905780792,"38":-0.6846359372138977,"39":-0.18519242107868195,"40":0.14835865795612335,"41":-0.28592777252197266,"42":-0.02599678374826908,"43":0.5762033462524414,"44":0.8720124959945679,"45":-0.23127807676792145,"46":0.22629927098751068,"47":0.7167596220970154,"48":-0.7688362002372742,"49":0.9437947869300842,"50":0.28188255429267883,"51":0.5247378945350647,"52":-0.3870242238044739,"53":0.014927184209227562,"54":0.029806001111865044,"55":1.6126540899276733,"56":-0.7126973271369934,"57":0.4039146602153778,"58":0.23781149089336395,"59":-0.10149277001619339,"60":1.108572244644165,"61":-0.4635480046272278,"62":0.20484042167663574,"63":-0.17087702453136444,"64":-0.2125394642353058,"65":-0.5893190503120422,"66":-0.032974354922771454,"67":-0.054053667932748795,"68":0.3135826587677002,"69":-0.15255893766880035,"70":-0.13359294831752777,"71":0.16039538383483887,"72":0.040360111743211746,"73":0.3374283015727997,"74":-0.24631881713867188,"75":-0.22068466246128082,"76":-0.4165987968444824,"77":0.24952200055122375,"78":-0.4661760628223419,"79":-0.9464211463928223,"80":1.0113903284072876,"81":-0.04060814902186394,"82":0.03342036157846451,"83":1.014129400253296,"84":0.8370862007141113,"85":0.12041670083999634,"86":-1.1468071937561035,"87":0.3906964063644409,"88":1.4717037677764893,"89":-0.04174937307834625,"90":-0.12506775557994843,"91":0.12856177985668182,"92":-0.3460162878036499,"93":-1.341162085533142,"94":0.024971118196845055,"95":-0.6189523339271545,"96":-1.6352728605270386,"97":0.06632109731435776,"98":0.09773103147745132,"99":0.46527862548828125,"100":-0.008224929682910442,"101":-1.598649024963379,"102":0.11171846091747284,"103":-0.02583281137049198,"104":0.3162456154823303,"105":-0.05965402349829674,"106":-0.5817373991012573,"107":0.12908628582954407,"108":0.18556611239910126,"109":1.3081398010253906,"110":-1.2526466846466064,"111":-0.6836581826210022,"112":-0.08053453266620636,"113":0.6415941119194031,"114":0.7563244700431824,"115":-0.6135443449020386,"116":0.038511011749506,"117":0.9820621013641357,"118":0.30265194177627563,"119":0.15866003930568695,"120":-0.08304335922002792,"121":-0.029586510732769966,"122":0.4454808533191681,"123":-0.0821780115365982,"124":1.4313098192214966,"125":-0.21558162569999695,"126":0.17596077919006348,"127":-0.6826438307762146,"128":0.6239303946495056,"129":-0.5583803653717041,"130":0.1835324913263321,"131":0.12035106867551804,"132":1.6563738584518433,"133":-0.0656447634100914,"134":-1.2732226848602295,"135":0.9215418100357056,"136":-0.16215696930885315,"137":-0.6457828283309937,"138":0.16418471932411194,"139":0.1880475878715515,"140":-0.0172442439943552,"141":0.08558781445026398,"142":-0.9317151308059692,"143":-0.15853917598724365,"144":-0.11060259491205215,"145":-0.10143636912107468,"146":0.012371228076517582,"147":0.268522709608078,"148":0.8437755703926086,"149":-0.061356835067272186,"150":0.2570759356021881,"151":0.13283926248550415,"152":0.7522210478782654,"153":0.5811845064163208,"154":0.07318481057882309,"155":0.07837921380996704,"156":0.8506601452827454,"157":-2.0571656227111816,"158":0.10142137855291367,"159":0.2530573308467865,"160":-1.490225076675415,"161":-0.3197662830352783,"162":0.15984803438186646,"163":-0.08364145457744598,"164":-0.19186542928218842,"165":-1.7555856704711914,"166":-0.19083651900291443,"167":-0.36004576086997986,"168":0.38549843430519104,"169":0.6124272346496582,"170":2.1430962085723877,"171":0.1585129201412201,"172":-0.5528973340988159,"173":0.8546202778816223,"174":-0.16360309720039368,"175":-0.2082955688238144,"176":-0.6830007433891296,"177":0.09330704808235168,"178":1.1598167419433594,"179":0.31651365756988525,"180":0.0844385027885437,"181":0.29212838411331177,"182":0.26062506437301636,"183":-0.3320477306842804,"184":0.11585310846567154,"185":0.1162467822432518,"186":0.26299479603767395,"187":0.7096942663192749,"188":-0.1964605301618576,"189":-0.36187177896499634,"190":0.04883122444152832,"191":-0.8214989900588989,"192":0.238479882478714,"193":0.3237559497356415,"194":-0.8761153817176819,"195":-0.7091675996780396,"196":0.31347373127937317,"197":0.702541172504425,"198":0.7280043959617615,"199":-0.365045964717865,"200":-0.32835960388183594,"201":-0.85182124376297,"202":0.09118866175413132,"203":0.8226754665374756,"204":-0.32720574736595154,"205":-0.38007885217666626,"206":0.7041312456130981,"207":-0.5115652680397034,"208":0.20628701150417328,"209":-0.7748515009880066,"210":-0.6440673470497131,"211":1.0840115547180176,"212":-0.5238773822784424,"213":-0.41568171977996826,"214":0.27613282203674316,"215":-0.5127239227294922,"216":-0.3405984342098236,"217":-0.4328436255455017,"218":0.15756545960903168,"219":0.6066033840179443,"220":0.3114103674888611,"221":-0.416463702917099,"222":-0.14067643880844116,"223":-0.6399363279342651,"224":-0.213958278298378,"225":-0.03081224486231804,"226":-0.02163977548480034,"227":0.3779066503047943,"228":-0.4266718924045563,"229":-0.455394983291626,"230":-0.784929096698761,"231":0.11553312093019485,"232":1.6474486589431763,"233":-0.8527159094810486,"234":-1.1536327600479126,"235":-0.04537324979901314,"236":0.14266692101955414,"237":-0.6028137803077698,"238":0.0034636736381798983,"239":0.027044275775551796,"240":-0.3617103397846222,"241":0.3422500789165497,"242":0.9466288089752197,"243":-0.02750256657600403,"244":0.32615113258361816,"245":0.3021944463253021,"246":-0.9383251070976257,"247":-1.4661849737167358,"248":0.12180598080158234,"249":0.03243304044008255,"250":-0.08704692870378494,"251":-1.251594066619873,"252":0.2555043399333954,"253":0.01879478432238102,"254":-0.10271673649549484,"255":-0.05896826088428497,"256":-0.007833153009414673,"257":0.017402244731783867,"258":-0.36950573325157166,"259":-0.17831090092658997,"260":0.555317223072052,"261":0.10968416184186935,"262":0.1260981261730194,"263":-0.16830024123191833,"264":-0.2633621394634247,"265":-0.8518346548080444,"266":-0.6829897165298462,"267":-0.18902117013931274,"268":-0.03577719256281853,"269":-0.056978460401296616,"270":0.13342134654521942,"271":0.35633915662765503,"272":0.324834406375885,"273":0.07041960954666138,"274":-0.3086192309856415,"275":-0.2448173463344574,"276":-0.05560602247714996,"277":-0.13148804008960724,"278":-0.2028171271085739,"279":-0.695766031742096,"280":-1.3835526704788208,"281":1.356614112854004,"282":-0.34350746870040894,"283":1.0497210025787354,"284":0.10904627293348312,"285":-0.04327170550823212,"286":-0.41648104786872864,"287":-0.5166877508163452,"288":1.3864964246749878,"289":-0.08528542518615723,"290":-0.10413309931755066,"291":-0.7848107814788818,"292":0.8503656983375549,"293":-0.008943723514676094,"294":0.006022259127348661,"295":0.10871531069278717,"296":0.19329053163528442,"297":0.10636892914772034,"298":0.21193954348564148,"299":0.8138005137443542,"300":0.2792580723762512,"301":0.1001729741692543,"302":0.35294291377067566,"303":-0.11237014085054398,"304":-1.0347868204116821,"305":0.4461210370063782,"306":0.9516634941101074,"307":0.7610257267951965,"308":0.18210794031620026,"309":0.7777167558670044,"310":0.45935261249542236,"311":-0.06908407062292099,"312":-0.6117953062057495,"313":0.2416500598192215,"314":-0.45499807596206665,"315":-0.6614477038383484,"316":0.5416434407234192,"317":0.7415130138397217,"318":-0.11906500905752182,"319":-0.27108755707740784,"320":-0.3303864002227783,"321":0.3595719337463379,"322":0.2713428735733032,"323":0.9014685750007629,"324":0.39900967478752136,"325":0.29198184609413147,"326":0.2821062207221985,"327":0.36476990580558777,"328":0.43078288435935974,"329":-0.5733200907707214,"330":0.14355742931365967,"331":0.5334885716438293,"332":0.2166297733783722,"333":0.26697391271591187,"334":0.5621010661125183,"335":-1.165486216545105,"336":0.560316801071167,"337":0.7582768797874451,"338":0.3093770444393158,"339":0.11001601815223694,"340":-0.8793475031852722,"341":0.8696661591529846,"342":1.9574798345565796,"343":0.10865993797779083,"344":-0.09312734007835388,"345":0.01520787738263607,"346":0.08696303516626358,"347":0.335257887840271,"348":-0.7955553531646729,"349":-1.3458564281463623,"350":-0.041525792330503464,"351":0.23572053015232086,"352":0.18446360528469086,"353":-0.022436123341321945,"354":-0.2981851100921631,"355":-0.521408200263977,"356":-0.36895671486854553,"357":0.25584375858306885,"358":-0.39698025584220886,"359":-0.6425936818122864,"360":0.08167678117752075,"361":-0.476856529712677,"362":0.17394524812698364,"363":-0.3241927921772003,"364":-0.6359477639198303,"365":1.0933377742767334,"366":0.10390123724937439,"367":-0.3414268493652344,"368":0.31195753812789917,"369":-1.1768834590911865,"370":-0.4752054512500763,"371":-0.42318373918533325,"372":0.34374484419822693,"373":0.37539148330688477,"374":-0.07731299847364426,"375":0.008483760990202427,"376":0.8569925427436829,"377":-0.3466012477874756,"378":-0.02000926062464714,"379":-0.8443186283111572,"380":-0.5823259949684143,"381":-1.6304783821105957,"382":-0.5623091459274292,"383":-0.18523922562599182,"384":-0.3540799021720886,"385":0.6855933666229248,"386":0.19780880212783813,"387":-0.4834212064743042,"388":-1.598678469657898,"389":-0.48539379239082336,"390":0.4321977496147156,"391":0.2404266893863678,"392":0.47827962040901184,"393":0.18929949402809143,"394":0.49044445157051086,"395":0.2848430871963501,"396":0.3048250675201416,"397":-0.4693393111228943,"398":0.17152181267738342,"399":0.08177919685840607,"400":0.3675595223903656,"401":0.3934299647808075,"402":0.3228062391281128,"403":-0.5279210805892944,"404":-0.5656014680862427,"405":-0.5998587608337402,"406":-0.47586941719055176,"407":0.3401024639606476,"408":0.6659216284751892,"409":-0.38159045577049255,"410":0.36711159348487854,"411":0.3126751482486725,"412":0.3681643307209015,"413":0.48707059025764465,"414":-0.8839479684829712,"415":0.47669562697410583,"416":0.5463549494743347,"417":0.33597877621650696,"418":-0.37019842863082886,"419":0.8644505739212036,"420":0.4872400164604187,"421":0.5091643929481506,"422":0.3591599762439728,"423":-0.5567296743392944,"424":0.4241800606250763,"425":0.3229917585849762,"426":-0.1672617793083191,"427":0.48649150133132935,"428":0.3988228142261505,"429":0.4495598375797272,"430":0.6336835622787476,"431":-0.3950730860233307,"432":0.3303581178188324,"433":-0.22037120163440704,"434":-1.4568711519241333,"435":-0.0569322407245636,"436":0.4481085538864136,"437":-0.33895501494407654,"438":-0.5874051451683044,"439":0.42488837242126465,"440":-0.6500601768493652,"441":-0.34868013858795166,"442":-0.9565038084983826,"443":0.5377225875854492,"444":-0.23828409612178802,"445":-0.6564618349075317,"446":-0.5676652789115906,"447":-0.41480886936187744,"448":-0.7338096499443054,"449":0.4655933678150177,"450":-0.2698369026184082,"451":-0.5883617997169495,"452":-0.4872569739818573,"453":0.7845225930213928,"454":-0.3447836935520172,"455":0.3923766314983368,"456":0.48373478651046753,"457":-0.3840175271034241,"458":-0.7825503945350647,"459":-0.42228376865386963,"460":0.3927932381629944,"461":0.7220709919929504,"462":0.13573521375656128,"463":0.2574402093887329,"464":0.366653174161911,"465":0.10351531952619553,"466":0.166973277926445,"467":0.6606351733207703,"468":-0.693189799785614,"469":0.3318987786769867,"470":0.21508856117725372,"471":-0.015533925965428352,"472":0.00896325521171093,"473":-1.272348403930664,"474":-0.6214882731437683,"475":-0.48999670147895813,"476":0.1698421835899353,"477":0.4229566156864166,"478":0.9245944023132324,"479":0.601706326007843,"480":-0.5239859819412231,"481":0.00006227281119208783,"482":0.6656354665756226,"483":-0.9087761640548706,"484":-0.20352843403816223,"485":0.9648670554161072,"486":0.20070935785770416,"487":0.4687124490737915,"488":0.33858156204223633,"489":1.0397379398345947,"490":0.6664745211601257,"491":-0.2854521572589874,"492":0.6472798585891724,"493":0.046462804079055786,"494":-0.11275603622198105,"495":0.6631776094436646,"496":0.7441648840904236,"497":0.8499230146408081,"498":0.17910043895244598,"499":-0.16122965514659882,"500":-0.08564803749322891,"501":0.5355092883110046,"502":0.08421126753091812,"503":-1.1048206090927124,"504":0.4384481906890869,"505":1.0752160549163818,"506":1.10300874710083,"507":0.20298095047473907,"508":-0.5200141668319702,"509":-0.22722865641117096,"510":-0.4780992865562439,"511":1.0541361570358276,"512":-0.909295916557312,"513":1.1998013257980347,"514":-0.9551717638969421,"515":-0.6806334853172302,"516":0.4725573658943176,"517":-0.42912235856056213,"518":-0.9864080548286438,"519":0.566184937953949,"520":-0.08668412268161774,"521":-0.5590350031852722,"522":-0.08289596438407898,"523":-0.2021612524986267,"524":-0.9268361330032349,"525":-1.5484329462051392,"526":0.3852299451828003,"527":-0.03882516920566559,"528":-0.535423994064331,"529":-0.9447163939476013,"530":0.744448721408844,"531":-0.6470091938972473,"532":0.17222538590431213,"533":-0.030780965462327003,"534":-0.4468267560005188,"535":-0.2804888188838959,"536":-0.7221511602401733,"537":-0.1708262413740158,"538":0.004485385492444038,"539":0.4394937753677368,"540":0.95584636926651,"541":-0.21640709042549133,"542":-0.8438534140586853,"543":-0.2577669024467468,"544":0.2614632844924927,"545":0.49613067507743835,"546":0.2974005937576294,"547":0.1824595332145691,"548":0.6617004871368408,"549":0.36641925573349,"550":0.012303617782890797,"551":-0.21683450043201447,"552":-0.25937899947166443,"553":0.2990630865097046,"554":0.3205713629722595,"555":0.23151232302188873,"556":0.2646996080875397,"557":-0.2205095738172531,"558":-0.288058876991272,"559":-0.35964834690093994,"560":-0.39697718620300293,"561":0.536517322063446,"562":0.16794641315937042,"563":-0.37394437193870544,"564":0.38114628195762634,"565":0.2989819645881653,"566":0.3722709119319916,"567":0.27077776193618774,"568":-0.4554181694984436,"569":0.22921143472194672,"570":0.40490075945854187,"571":0.41428613662719727,"572":-0.25125670433044434,"573":1.038985013961792,"574":0.4623327851295471,"575":0.5483605861663818,"576":0.02417249046266079,"577":-0.36073029041290283,"578":0.21145369112491608,"579":-0.07226554304361343,"580":-0.6466428637504578,"581":0.30241119861602783,"582":0.5084573030471802,"583":0.41954630613327026,"584":0.7452346086502075,"585":-0.2952040731906891,"586":0.42843323945999146,"587":-0.26165610551834106,"588":-1.4134252071380615,"589":0.3870680034160614,"590":0.020844146609306335,"591":-0.16543565690517426,"592":-0.24098999798297882,"593":0.3328242301940918,"594":-0.0032631871290504932,"595":-0.690369725227356,"596":0.4224388897418976,"597":0.07852078974246979,"598":-0.39008578658103943,"599":-0.3155403733253479,"600":-0.7822071313858032,"601":-0.328124076128006,"602":-0.07141432911157608,"603":0.26205605268478394,"604":-0.1168876364827156,"605":-0.19820021092891693,"606":-0.4150553345680237,"607":0.7046672701835632,"608":-0.5206251740455627,"609":0.462514191865921,"610":0.6345329880714417,"611":-0.2690228223800659,"612":-0.6139087080955505,"613":-0.3088148236274719,"614":0.11469317972660065,"615":0.1706167459487915,"616":0.7128059267997742,"617":-1.2594984769821167,"618":0.3032735288143158,"619":1.3080586194992065,"620":-0.3397214710712433,"621":0.2871887683868408,"622":0.7971097230911255,"623":-0.058658771216869354,"624":0.3145434260368347,"625":-0.6696860194206238,"626":0.15023502707481384,"627":-0.39535412192344666,"628":-0.325061559677124,"629":-0.2882799506187439,"630":0.27025726437568665,"631":0.3221644461154938,"632":0.6720240712165833,"633":0.17346329987049103,"634":-0.28955385088920593,"635":-0.30795273184776306,"636":0.9628192782402039,"637":-0.17812877893447876,"638":0.5912607908248901,"639":0.22526857256889343,"640":-0.21956510841846466,"641":0.40522539615631104,"642":0.3788195848464966,"643":-0.9103803038597107,"644":0.4753797948360443,"645":0.22790895402431488,"646":0.31340834498405457,"647":0.5781298875808716,"648":-0.4747670590877533,"649":0.6187400817871094,"650":1.1058430671691895,"651":0.2960410416126251,"652":1.0388436317443848,"653":0.41367900371551514,"654":-0.8499819040298462,"655":0.3618125021457672,"656":-0.5105114579200745,"657":-1.2397900819778442,"658":0.35117873549461365,"659":0.5355008840560913,"660":0.3681590259075165,"661":0.6679575443267822,"662":-0.3073728084564209,"663":0.3245129883289337,"664":-0.5005753636360168,"665":1.3677804470062256,"666":0.08281054347753525,"667":-0.2534323036670685,"668":-1.1831635236740112,"669":-0.18820488452911377,"670":0.35947754979133606,"671":0.861093282699585,"672":-0.5157817006111145,"673":0.42716559767723083,"674":0.6452478766441345,"675":-0.35074692964553833,"676":0.16347180306911469,"677":-0.7486051917076111,"678":0.03763136640191078,"679":0.028501613065600395,"680":0.2987838685512543,"681":-0.27290838956832886,"682":-0.3607434928417206,"683":-0.2667987644672394,"684":-0.36350303888320923,"685":-0.48865261673927307,"686":0.31587719917297363,"687":-0.3004021942615509,"688":-0.4805504083633423,"689":-0.12357531487941742,"690":-0.5370457172393799,"691":0.15362463891506195,"692":-0.2662210166454315,"693":0.13425640761852264,"694":0.5448946952819824,"695":-0.28081458806991577,"696":-0.10679066926240921,"697":-0.33073729276657104,"698":0.3631071150302887,"699":0.21283429861068726,"700":0.4929179847240448,"701":0.17623677849769592,"702":0.2376651167869568,"703":0.30529630184173584,"704":0.7268475890159607,"705":-0.47488096356391907,"706":-0.4361514449119568,"707":0.25195804238319397,"708":0.29923033714294434,"709":-0.43300119042396545,"710":0.3925847113132477,"711":-0.34015345573425293,"712":-0.2283349633216858,"713":-0.3984747529029846,"714":-0.14215925335884094,"715":0.05511992797255516,"716":0.43581634759902954,"717":-0.020817920565605164,"718":0.2317637801170349,"719":0.3871854543685913,"720":0.8542863726615906,"721":0.14397338032722473,"722":-0.29051825404167175,"723":0.4410199522972107,"724":0.3137095272541046,"725":0.5658034086227417,"726":-0.4840046763420105,"727":0.2481125295162201,"728":0.3610250651836395,"729":0.14478370547294617,"730":0.4532933533191681,"731":-0.17211604118347168,"732":0.40453848242759705,"733":0.7212923765182495,"734":0.2876330018043518,"735":0.3482038974761963,"736":-0.007210340816527605,"737":-0.06534962356090546,"738":0.09408142417669296,"739":-0.34870874881744385,"740":0.3229389488697052,"741":0.19974157214164734,"742":-0.1329328417778015,"743":-0.5249195098876953,"744":0.9223684668540955,"745":-0.41824233531951904,"746":-0.2697461247444153,"747":0.3731994926929474,"748":-0.42732083797454834,"749":0.31312060356140137,"750":0.1501881331205368,"751":0.31399446725845337,"752":-0.10659613460302353,"753":-0.21113362908363342,"754":0.2973608374595642,"755":-0.31012091040611267,"756":-0.04641735181212425,"757":0.3455774486064911,"758":-0.43659815192222595,"759":-0.3690972924232483,"760":-0.35104262828826904,"761":0.3167359530925751,"762":-0.023630790412425995,"763":0.23011808097362518,"764":0.16059061884880066,"765":-0.3409622013568878,"766":0.04545598104596138,"767":-0.0029301210306584835,"768":0.1512838900089264,"769":0.30638769268989563,"770":0.41938474774360657,"771":0.6837801933288574,"772":0.1263885200023651,"773":0.5646494626998901,"774":-0.26830723881721497,"775":0.23733936250209808,"776":0.053743626922369,"777":-0.15658853948116302,"778":0.39745238423347473,"779":-1.1393775939941406,"780":0.16501612961292267,"781":-0.26265862584114075,"782":-0.23284468054771423,"783":-0.48681801557540894,"784":0.2889231741428375,"785":-0.08551549166440964,"786":-0.14046934247016907,"787":0.3336782157421112,"788":0.1036587581038475,"789":-0.36347126960754395,"790":0.7557231783866882,"791":-0.007907005958259106,"792":0.8274725079536438,"793":0.2064896821975708,"794":-0.30259445309638977,"795":0.23539024591445923,"796":0.2790488600730896,"797":-0.6013477444648743,"798":0.35037297010421753,"799":1.0347543954849243,"800":0.2611336410045624,"801":0.25754666328430176,"802":-0.10862553864717484,"803":0.2260400503873825,"804":0.05069854110479355,"805":-0.3178940415382385,"806":0.6929597854614258,"807":0.3610551059246063,"808":-0.5854172110557556,"809":0.2806352972984314,"810":-0.1697845607995987,"811":-1.8101589679718018,"812":0.05325375124812126,"813":0.5993171334266663,"814":0.363854318857193,"815":0.3293135166168213,"816":-0.31761181354522705,"817":0.22434906661510468,"818":-0.5663352608680725,"819":1.8323441743850708,"820":1.5695983171463013,"821":-0.6575578451156616,"822":1.001846432685852,"823":0.06644655764102936,"824":0.07796017080545425,"825":1.6049593687057495,"826":-0.2499549686908722,"827":2.4905612468719482,"828":0.3571018576622009,"829":-0.31519246101379395,"830":-0.06004418060183525,"831":-0.046162500977516174,"832":-0.0634145513176918,"833":0.3493711054325104,"834":0.22590357065200806,"835":-0.35709503293037415,"836":-0.06019897758960724,"837":0.027492156252264977,"838":-0.1892593950033188,"839":-0.3785954713821411,"840":0.0807686373591423,"841":-0.12471073120832443,"842":-0.4031873345375061,"843":-0.46096017956733704,"844":-0.3490450084209442,"845":0.2780700623989105,"846":-0.1296962946653366,"847":0.22565193474292755,"848":0.2119634747505188,"849":0.5847082734107971,"850":0.09761514514684677,"851":-0.44859015941619873,"852":0.37244686484336853,"853":-0.014401968568563461,"854":-0.08069979399442673,"855":0.4845413863658905,"856":-0.11786473542451859,"857":-0.00007792702672304586,"858":-0.4676418900489807,"859":-0.3336762487888336,"860":-0.665044367313385,"861":0.3971411883831024,"862":1.3499361276626587,"863":0.4162842333316803,"864":0.431344598531723,"865":0.08577288687229156,"866":-0.012731681577861309,"867":0.21479257941246033,"868":-0.20679952204227448,"869":0.35033246874809265,"870":0.167404443025589,"871":0.08570925146341324,"872":0.32438915967941284,"873":0.46772271394729614,"874":-0.007596060633659363,"875":0.3257642090320587,"876":0.7997300028800964,"877":0.29907816648483276,"878":0.22082626819610596,"879":-0.16593755781650543,"880":0.37717151641845703,"881":0.6659359335899353,"882":0.30274155735969543,"883":0.205244779586792,"884":0.09764901548624039,"885":-0.10995440185070038,"886":0.34559381008148193,"887":-0.4474688470363617,"888":-1.1433017253875732,"889":0.2523201107978821,"890":0.3662918210029602,"891":0.37007611989974976,"892":0.21845780313014984,"893":-0.27964386343955994,"894":0.09870444238185883,"895":-0.23586133122444153,"896":1.0535097122192383,"897":1.5306003093719482,"898":-0.3730946481227875,"899":0.882888674736023,"900":-0.11771789193153381,"901":0.3075811266899109,"902":0.9938916563987732,"903":-0.22122065722942352,"904":1.8640316724777222,"905":0.1892617642879486,"906":-0.28819432854652405,"907":0.23849067091941833,"908":-0.6099303364753723,"909":-0.20167630910873413,"910":-0.19437487423419952,"911":0.3852219581604004,"912":-0.03833208978176117,"913":-0.12104663252830505,"914":-0.25195440649986267,"915":-0.563616156578064,"916":-0.5046353936195374,"917":0.10537406802177429,"918":-0.1654195934534073,"919":-0.23914650082588196,"920":-0.26041528582572937,"921":-0.3265950381755829,"922":-0.28098419308662415,"923":-0.3119557499885559,"924":0.34713834524154663,"925":1.1998628377914429,"926":-0.03133971989154816,"927":-1.6637935638427734,"928":0.08518365025520325,"929":0.5748506188392639,"930":-0.7796013951301575,"931":0.3176232576370239,"932":0.06272005289793015,"933":-0.12416459619998932,"934":0.2509377896785736,"935":-0.6377847790718079,"936":-0.7091447114944458,"937":-0.046774592250585556,"938":0.07555366307497025,"939":0.617268979549408,"940":1.701135516166687,"941":0.3844878375530243,"942":-0.9581289291381836,"943":-0.06640678644180298,"944":0.13738290965557098,"945":-0.936103880405426,"946":-0.2294134497642517,"947":0.7301805019378662,"948":0.5244148373603821,"949":0.3542386293411255,"950":0.36801254749298096,"951":1.0398414134979248,"952":0.10961820930242538,"953":-0.6967509984970093,"954":0.5197086930274963,"955":0.36521077156066895,"956":0.39059939980506897,"957":0.613643229007721,"958":1.064379334449768,"959":0.1620616912841797,"960":0.5591406226158142,"961":-0.4517476260662079,"962":-0.2246539443731308,"963":0.7631151080131531,"964":0.14825138449668884,"965":-0.7435364723205566,"966":0.5443629622459412,"967":0.9284636974334717,"968":0.7535415887832642,"969":0.35887983441352844,"970":-0.4029753804206848,"971":-0.5721418261528015,"972":-0.5252187252044678,"973":-0.051887404173612595,"974":-0.5302773118019104,"975":0.6713600158691406,"976":-0.5864981412887573,"977":-0.4579925239086151,"978":0.38943958282470703,"979":-0.11944621801376343,"980":-0.862698495388031,"981":0.6986933350563049,"982":-0.21246759593486786,"983":-0.4113827645778656,"984":-0.5162798762321472,"985":-0.6809309720993042,"986":-0.7696644067764282,"987":-1.4900665283203125,"988":0.334380567073822,"989":0.048889290541410446,"990":-0.25082749128341675,"991":-0.8152905106544495,"992":1.0126621723175049,"993":-0.5101519823074341,"994":0.31035730242729187,"995":0.10635322332382202,"996":-0.22142836451530457,"997":0.10976545512676239,"998":-0.3829764425754547,"999":-0.22113780677318573,"1000":0.18494267761707306,"1001":0.4592565596103668,"1002":0.48432332277297974,"1003":-0.3210912048816681,"1004":0.07299327105283737,"1005":-0.3862154483795166,"1006":0.4734638035297394,"1007":0.5752313733100891,"1008":0.6687528491020203,"1009":0.3683824837207794,"1010":0.06096065416932106,"1011":0.363251268863678,"1012":0.40314286947250366,"1013":-0.4801410734653473,"1014":-0.37401288747787476,"1015":0.26590362191200256,"1016":0.5540302395820618,"1017":-0.24819418787956238,"1018":0.3595432937145233,"1019":-0.5648466348648071,"1020":-0.4922126233577728,"1021":-0.27965134382247925,"1022":-0.3747214376926422,"1023":0.6800777912139893,"1024":0.49932602047920227,"1025":-0.2229076623916626,"1026":0.3636264503002167,"1027":0.3219526410102844,"1028":0.6486796140670776,"1029":0.23170901834964752,"1030":-0.4317489564418793,"1031":0.5139091610908508,"1032":0.40000948309898376,"1033":0.39002725481987,"1034":-0.4528869688510895,"1035":0.3176070749759674,"1036":0.3462767004966736,"1037":0.41353291273117065,"1038":0.47000810503959656,"1039":-0.5247063040733337,"1040":0.3865208327770233,"1041":0.7324862480163574,"1042":-0.551582396030426,"1043":0.538737952709198,"1044":0.31224873661994934,"1045":0.28826770186424255,"1046":0.6217623353004456,"1047":-0.4523855745792389,"1048":0.33658668398857117,"1049":-0.1743159145116806,"1050":-0.8998191952705383,"1051":0.7839784622192383,"1052":0.5746241211891174,"1053":-0.22010281682014465,"1054":-0.35384199023246765,"1055":0.2856564223766327,"1056":0.5672467350959778,"1057":-0.08458297699689865,"1058":0.2077421396970749,"1059":0.252352774143219,"1060":-0.3491765558719635,"1061":-0.5622161626815796,"1062":-0.24609233438968658,"1063":-0.41361933946609497,"1064":-0.48507118225097656,"1065":0.46882492303848267,"1066":-0.39021170139312744,"1067":-0.5428267121315002,"1068":-0.5451870560646057,"1069":0.4125230014324188,"1070":-0.3870377838611603,"1071":0.2606410086154938,"1072":0.38412660360336304,"1073":-0.39584672451019287,"1074":-0.4305276572704315,"1075":-0.27831950783729553,"1076":0.5022599101066589,"1077":0.47851303219795227,"1078":0.31022438406944275,"1079":-1.2338988780975342,"1080":0.45482581853866577,"1081":0.5913053154945374,"1082":-0.6935306787490845,"1083":0.0961371436715126,"1084":0.7742869853973389,"1085":0.6624228954315186,"1086":-0.14270421862602234,"1087":0.19107772409915924,"1088":-0.13490667939186096,"1089":-0.7830268144607544,"1090":-0.021584102883934975,"1091":1.3550910949707031,"1092":-0.09288739413022995,"1093":-0.25178807973861694,"1094":0.16227643191814423,"1095":-0.03519996628165245,"1096":-0.9176809191703796,"1097":-0.9492214918136597,"1098":-0.40016287565231323,"1099":-0.19834959506988525,"1100":1.600339412689209,"1101":0.007698384579271078,"1102":-0.8183453679084778,"1103":0.015445510856807232,"1104":0.048496853560209274,"1105":0.08418053388595581,"1106":0.16146796941757202,"1107":-2.0212278366088867,"1108":-0.11479687690734863,"1109":0.14185668528079987,"1110":1.0471508502960205,"1111":-0.6047827005386353,"1112":-0.7604185342788696,"1113":0.3905991017818451,"1114":0.17137554287910461,"1115":0.4208374619483948,"1116":0.2501644790172577,"1117":0.08985815197229385,"1118":-0.3245496451854706,"1119":-0.4566214084625244,"1120":0.07957938313484192,"1121":0.5483725666999817,"1122":0.004074855241924524,"1123":1.7632025480270386,"1124":0.09039586782455444,"1125":0.8493112921714783,"1126":0.028700942173600197,"1127":-0.5482427477836609,"1128":0.4705456793308258,"1129":-0.5124769806861877,"1130":-1.0682371854782104,"1131":-0.07437092810869217,"1132":-0.07054658234119415,"1133":1.6616278886795044,"1134":-0.002446872880682349,"1135":-1.8513989448547363,"1136":0.4399576485157013,"1137":-0.026301661506295204,"1138":-0.3468567728996277,"1139":-0.02972385473549366,"1140":-0.28949445486068726,"1141":-0.19985799491405487,"1142":0.03010856732726097,"1143":-0.4782402217388153,"1144":0.0991174578666687,"1145":-0.02248516120016575,"1146":-0.5824166536331177,"1147":-0.5740101933479309,"1148":-0.4016667902469635,"1149":-0.3800203204154968,"1150":0.0015430336352437735,"1151":0.36064592003822327,"1152":-0.24327535927295685,"1153":-0.24811747670173645,"1154":0.805794894695282,"1155":0.4837924838066101,"1156":0.6751924157142639,"1157":0.1801495999097824,"1158":-0.20980903506278992,"1159":-0.323416531085968,"1160":0.24524489045143127,"1161":-0.2520889937877655,"1162":-0.18513578176498413,"1163":0.4059697687625885,"1164":0.4357852041721344,"1165":-0.0040763732977211475,"1166":-0.4643799364566803,"1167":-0.2770047187805176,"1168":-0.1300804615020752,"1169":0.33437275886535645,"1170":0.22967250645160675,"1171":0.2888101041316986,"1172":0.416464626789093,"1173":0.11463341861963272,"1174":-0.19298239052295685,"1175":0.03603237867355347,"1176":-0.3039570152759552,"1177":0.5813932418823242,"1178":0.32529324293136597,"1179":-0.16413749754428864,"1180":0.18947488069534302,"1181":0.42296460270881653,"1182":-0.2915908396244049,"1183":0.8542989492416382,"1184":0.4887101948261261,"1185":0.2470153272151947,"1186":0.285750150680542,"1187":-0.2449544221162796,"1188":0.3119806945323944,"1189":0.8909903764724731,"1190":-0.05379830673336983,"1191":0.6735344529151917,"1192":0.0566171370446682,"1193":-0.5462300181388855,"1194":0.35819244384765625,"1195":-0.4293668568134308,"1196":-1.9647982120513916,"1197":0.10921700298786163,"1198":1.3645542860031128,"1199":0.7387159466743469,"1200":0.42972251772880554,"1201":-0.27640873193740845,"1202":-0.05006717890501022,"1203":-0.695776641368866,"1204":0.6820812821388245,"1205":0.6799317598342896,"1206":-0.5127606987953186,"1207":0.5802996158599854,"1208":-0.22018137574195862,"1209":0.1406988650560379,"1210":0.8598748445510864,"1211":-1.0366085767745972,"1212":1.9501787424087524,"1213":0.16809958219528198,"1214":-0.4063914716243744,"1215":-0.19628497958183289,"1216":-0.8619120717048645,"1217":-0.3653290271759033,"1218":-0.1319815218448639,"1219":0.3175141215324402,"1220":-0.12887024879455566,"1221":-0.02646557427942753,"1222":-0.11946004629135132,"1223":0.5081822276115417,"1224":-0.8458806872367859,"1225":0.18761029839515686,"1226":-0.16702568531036377,"1227":-0.2832067906856537,"1228":-0.9421494603157043,"1229":-1.0095134973526,"1230":0.1498871147632599,"1231":-0.045048024505376816,"1232":0.29076066613197327,"1233":-1.852208137512207,"1234":-0.06390407681465149,"1235":0.3918503224849701,"1236":-0.4254414439201355,"1237":0.22423654794692993,"1238":0.8221631646156311,"1239":0.518088698387146,"1240":0.018448248505592346,"1241":0.3114234507083893,"1242":-0.059552282094955444,"1243":-0.04729200527071953,"1244":-0.16180261969566345,"1245":1.6666635274887085,"1246":-0.02993600256741047,"1247":-0.33068251609802246,"1248":-0.01342457439750433,"1249":0.10522691905498505,"1250":-0.7808510661125183,"1251":-0.8761677145957947,"1252":-0.07940444350242615,"1253":-0.4187506437301636,"1254":1.2790416479110718,"1255":0.21081151068210602,"1256":-0.7664422392845154,"1257":0.1227569431066513,"1258":0.16999417543411255,"1259":0.16439075767993927,"1260":0.18202044069766998,"1261":-2.856168270111084,"1262":0.06753983348608017,"1263":0.10518036782741547,"1264":1.034315586090088,"1265":-0.6885484457015991,"1266":-1.1045674085617065,"1267":0.35425737500190735,"1268":0.014280724339187145,"1269":0.28361818194389343,"1270":0.2378818392753601,"1271":0.2408698946237564,"1272":-0.09881497174501419,"1273":-0.434540331363678,"1274":0.1910911202430725,"1275":0.4913173019886017,"1276":0.05428579822182655,"1277":1.901789903640747,"1278":-0.040510520339012146,"1279":0.6645150184631348,"1280":0.07294012606143951,"1281":-0.16169652342796326,"1282":-0.8185499906539917,"1283":-0.08715734630823135,"1284":-1.162237524986267,"1285":-0.16774724423885345,"1286":0.025580044835805893,"1287":1.8473870754241943,"1288":-0.12312310934066772,"1289":-2.9166460037231445,"1290":0.2795009911060333,"1291":-0.06712232530117035,"1292":-0.47851255536079407,"1293":-0.13780318200588226,"1294":-0.4199007451534271,"1295":-0.37664830684661865,"1296":0.1855996549129486,"1297":-0.3623169958591461,"1298":0.009877287782728672,"1299":-0.08408763259649277,"1300":-0.312385231256485,"1301":-0.4766581654548645,"1302":-0.2251117080450058,"1303":-0.07984744012355804,"1304":-0.046554554253816605,"1305":0.06680212169885635,"1306":-0.23641429841518402,"1307":0.03506609797477722,"1308":0.9642271995544434,"1309":0.23164238035678864,"1310":0.543804943561554,"1311":0.0034608927089720964,"1312":-0.18626782298088074,"1313":-0.40913769602775574,"1314":0.43928152322769165,"1315":0.012402787804603577,"1316":0.4098895788192749,"1317":0.4215890169143677,"1318":0.8512957096099854,"1319":0.3761346936225891,"1320":0.009101609699428082,"1321":-0.4520149827003479,"1322":-0.5922974944114685,"1323":0.4141332805156708,"1324":0.8960989713668823,"1325":0.9068397283554077,"1326":0.4379867911338806,"1327":-0.28407925367355347,"1328":-0.26723286509513855,"1329":-0.4878339469432831,"1330":-0.581051766872406,"1331":0.31028249859809875,"1332":0.29193851351737976,"1333":-0.1356179416179657,"1334":0.37027060985565186,"1335":0.46856197714805603,"1336":0.6307967305183411,"1337":0.46333783864974976,"1338":0.16076426208019257,"1339":0.38362589478492737,"1340":0.36372488737106323,"1341":0.5825305581092834,"1342":-0.40637144446372986,"1343":0.9438715577125549,"1344":0.46426376700401306,"1345":0.34338343143463135,"1346":0.2883022725582123,"1347":-0.22750459611415863,"1348":0.28474175930023193,"1349":0.2750895619392395,"1350":-0.8669483065605164,"1351":0.22231076657772064,"1352":0.39107415080070496,"1353":0.3682468831539154,"1354":0.3479619026184082,"1355":-0.38696175813674927,"1356":0.11115899682044983,"1357":-0.27307409048080444,"1358":0.41712331771850586,"1359":0.8763192892074585,"1360":0.39698588848114014,"1361":0.23927484452724457,"1362":-0.463800847530365,"1363":0.4538877010345459,"1364":0.7217411994934082,"1365":-0.3933694660663605,"1366":0.452082097530365,"1367":0.16084697842597961,"1368":-0.38165149092674255,"1369":-0.24036149680614471,"1370":-0.9522582292556763,"1371":-0.5021480917930603,"1372":-0.4454233646392822,"1373":0.28967514634132385,"1374":-0.48552390933036804,"1375":-0.22073911130428314,"1376":-0.2550872266292572,"1377":0.6223202347755432,"1378":-0.5632520318031311,"1379":0.35657230019569397,"1380":0.25843146443367004,"1381":-0.39624762535095215,"1382":-0.581824779510498,"1383":-0.4992121160030365,"1384":0.071171335875988,"1385":0.08606065809726715,"1386":0.5733619332313538,"1387":0.7166202068328857,"1388":0.4535733461380005,"1389":0.08149883151054382,"1390":-0.8648198843002319,"1391":0.4078598618507385,"1392":-0.08499877899885178,"1393":0.1328551471233368,"1394":0.711188793182373,"1395":-0.4990277886390686,"1396":0.07282529771327972,"1397":-0.39864465594291687,"1398":-0.38601720333099365,"1399":-0.9084975719451904,"1400":0.5552130937576294,"1401":2.2221319675445557,"1402":0.4792180359363556,"1403":0.6816936135292053,"1404":-0.09672403335571289,"1405":-0.23060385882854462,"1406":0.48265376687049866,"1407":-0.3960660696029663,"1408":1.1666501760482788,"1409":0.38236624002456665,"1410":0.034854456782341,"1411":0.529579758644104,"1412":0.6669936180114746,"1413":0.3612660765647888,"1414":0.560930609703064,"1415":0.404727041721344,"1416":0.3598134517669678,"1417":0.3989110589027405,"1418":0.18980799615383148,"1419":-0.0917624905705452,"1420":0.8006336092948914,"1421":0.20190179347991943,"1422":0.32878080010414124,"1423":0.24126724898815155,"1424":-0.5927802324295044,"1425":0.4311232566833496,"1426":-0.05023454874753952,"1427":-1.478540062904358,"1428":0.17146214842796326,"1429":0.4660940170288086,"1430":0.6125249862670898,"1431":0.5087073445320129,"1432":-0.5232216119766235,"1433":0.33393970131874084,"1434":-0.4042317867279053,"1435":0.8235188722610474,"1436":1.5728644132614136,"1437":0.26661884784698486,"1438":0.36093270778656006,"1439":-0.033883560448884964,"1440":0.35504698753356934,"1441":1.1415382623672485,"1442":-0.1323438137769699,"1443":0.04895332083106041,"1444":0.3279127776622772,"1445":-0.6018475294113159,"1446":0.36380329728126526,"1447":-0.38319167494773865,"1448":-0.4418649673461914,"1449":-0.4403693974018097,"1450":0.5422807335853577,"1451":-0.5816851854324341,"1452":-0.314721018075943,"1453":-0.11048711091279984,"1454":-0.41409409046173096,"1455":-0.5884734988212585,"1456":-0.16327540576457977,"1457":-0.0420534573495388,"1458":-0.883176863193512,"1459":-0.7535693645477295,"1460":-0.24090908467769623,"1461":0.0055913859978318214,"1462":-0.14823010563850403,"1463":-0.16413314640522003,"1464":0.7434880137443542,"1465":-0.15387675166130066,"1466":-0.45680519938468933,"1467":-0.05492938309907913,"1468":0.31787848472595215,"1469":-0.2514408826828003,"1470":-0.052425019443035126,"1471":0.3346029818058014,"1472":0.9640238285064697,"1473":0.12035705894231796,"1474":0.3505077660083771,"1475":-0.34269264340400696,"1476":0.6378015875816345,"1477":0.1952013224363327,"1478":0.4205552339553833,"1479":-0.05306949466466904,"1480":0.4007793068885803,"1481":0.14565007388591766,"1482":0.15253667533397675,"1483":-1.0194259881973267,"1484":-0.4896143078804016,"1485":-0.3670732080936432,"1486":0.5326230525970459,"1487":0.004114987328648567,"1488":0.2179495245218277,"1489":0.2805982232093811,"1490":0.1581212282180786,"1491":0.17802466452121735,"1492":-0.40101358294487,"1493":0.3344452977180481,"1494":-0.07518749684095383,"1495":-0.16867941617965698,"1496":0.11546068638563156,"1497":0.7080859541893005,"1498":0.1950332373380661,"1499":-0.4521873891353607,"1500":-0.1891912966966629,"1501":0.36368608474731445,"1502":0.38103950023651123,"1503":-0.05776955187320709,"1504":-0.3637021481990814,"1505":0.2611689567565918,"1506":0.17601171135902405,"1507":0.11881281435489655,"1508":-0.17348220944404602,"1509":-0.3621637225151062,"1510":-0.1841953694820404,"1511":-0.3089698851108551,"1512":-1.3748488426208496,"1513":-0.7757298946380615,"1514":0.515417754650116,"1515":-0.19870774447917938,"1516":-0.3949834108352661,"1517":0.29719439148902893,"1518":-0.3790397644042969,"1519":-0.29978910088539124,"1520":-0.3082306385040283,"1521":-0.049465522170066833,"1522":-0.3355950713157654,"1523":-0.1981208622455597,"1524":-0.7131184935569763,"1525":-0.5119143128395081,"1526":-0.39913803339004517,"1527":0.24097946286201477,"1528":0.2836945652961731,"1529":-0.23705703020095825,"1530":-0.22897429764270782,"1531":0.8084047436714172,"1532":-0.11880695074796677,"1533":0.202326238155365,"1534":0.054408054798841476,"1535":-0.25930798053741455,"1536":-0.9754449725151062,"1537":-0.20634275674819946,"1538":0.09585815668106079,"1539":0.3051793873310089,"1540":-0.8569650650024414,"1541":0.7220439910888672,"1542":0.12273658812046051,"1543":-0.2728361487388611,"1544":0.47449514269828796,"1545":-0.23155605792999268,"1546":-0.39139237999916077,"1547":-0.4327048361301422,"1548":-0.41427576541900635,"1549":0.6861653923988342,"1550":-0.3577198088169098,"1551":-0.013543418608605862,"1552":0.18867915868759155,"1553":0.8865374326705933,"1554":-0.5972354412078857,"1555":-0.06514128297567368,"1556":-0.42108234763145447,"1557":-0.24251560866832733,"1558":0.5107952952384949,"1559":0.8539305925369263,"1560":-1.020635724067688,"1561":0.3667449355125427,"1562":-0.6539100408554077,"1563":-0.08156941831111908,"1564":0.9298162460327148,"1565":-0.35711488127708435,"1566":-0.14828792214393616,"1567":-0.10752340406179428,"1568":-0.27538472414016724,"1569":0.07879429310560226,"1570":-0.18528805673122406,"1571":-0.5797916650772095,"1572":-0.596418023109436,"1573":0.7449812293052673,"1574":0.1852642446756363,"1575":0.0003155257145408541,"1576":-0.904332160949707,"1577":-1.0754146575927734,"1578":0.8198918700218201,"1579":-0.2014361023902893,"1580":-0.6722325086593628,"1581":0.155659481883049,"1582":-0.3574352264404297,"1583":-0.5191946625709534,"1584":-0.44581714272499084,"1585":-0.5057727694511414,"1586":0.13999703526496887,"1587":-0.9127764105796814,"1588":0.4716075360774994,"1589":-0.7819216847419739,"1590":-0.1344769448041916,"1591":-0.35071083903312683,"1592":-0.012571955099701881,"1593":0.37514519691467285,"1594":-0.29745739698410034,"1595":-0.4862842261791229,"1596":0.02804640308022499,"1597":-0.10579877346754074,"1598":-1.0295335054397583,"1599":0.3432846963405609,"1600":0.26245781779289246,"1601":-0.14815163612365723,"1602":0.2644610106945038,"1603":0.4796082079410553,"1604":-0.1980622410774231,"1605":1.2781673669815063,"1606":0.43063589930534363,"1607":0.1543697863817215,"1608":0.504154622554779,"1609":0.5292679667472839,"1610":0.47920212149620056,"1611":0.099816232919693,"1612":0.4068542718887329,"1613":-0.5891242623329163,"1614":0.2545597553253174,"1615":-0.5159642696380615,"1616":-0.041917964816093445,"1617":0.9939112067222595,"1618":-0.06922736763954163,"1619":0.19774457812309265,"1620":-0.14827856421470642,"1621":-0.6825494766235352,"1622":0.49981656670570374,"1623":0.3325228989124298,"1624":0.27417469024658203,"1625":0.029265237972140312,"1626":0.6528562903404236,"1627":0.3646918535232544,"1628":-1.0048446655273438,"1629":-0.5003579258918762,"1630":-0.6048545837402344,"1631":0.06883706152439117,"1632":-0.401641845703125,"1633":0.6113158464431763,"1634":0.31647762656211853,"1635":-0.7098629474639893,"1636":-0.2747887074947357,"1637":0.4054204523563385,"1638":-0.5628350377082825,"1639":1.1423345804214478,"1640":0.3040551245212555,"1641":-0.12211676687002182,"1642":0.24100975692272186,"1643":0.4530288577079773,"1644":0.18001720309257507,"1645":0.6377667784690857,"1646":-0.5185474753379822,"1647":0.3611024022102356,"1648":0.8028452396392822,"1649":-0.10477020591497421,"1650":0.5765617489814758,"1651":2.8605949878692627,"1652":0.34579411149024963,"1653":1.2141056060791016,"1654":0.1774120181798935,"1655":-0.9637976288795471,"1656":0.3851938247680664,"1657":-0.4132450520992279,"1658":-1.4936338663101196,"1659":0.5331541299819946,"1660":0.9416336417198181,"1661":0.647810161113739,"1662":0.8031305074691772,"1663":-0.24148990213871002,"1664":-0.11817745119333267,"1665":-0.6201738119125366,"1666":-0.06705989688634872,"1667":0.5914138555526733,"1668":-0.39914122223854065,"1669":-0.7630349397659302,"1670":-0.8453781008720398,"1671":0.2616012990474701,"1672":0.8121026754379272,"1673":-0.5681918859481812,"1674":1.0076472759246826,"1675":0.43932729959487915,"1676":-0.40906795859336853,"1677":-0.6943140625953674,"1678":-0.6513722538948059,"1679":-0.647082507610321,"1680":-0.7144142985343933,"1681":0.3576529622077942,"1682":-0.1713811606168747,"1683":-0.4399817883968353,"1684":-0.5323469638824463,"1685":0.6233111619949341,"1686":-0.7953594923019409,"1687":0.46896880865097046,"1688":-0.04043831303715706,"1689":-0.4884241819381714,"1690":-0.9172686338424683,"1691":-0.7648003697395325,"1692":-0.029516153037548065,"1693":0.01780916005373001,"1694":0.05028775334358215,"1695":-0.3990479111671448,"1696":-1.860827088356018,"1697":1.808057188987732,"1698":0.20964069664478302,"1699":-0.0921873226761818,"1700":1.2502248287200928,"1701":0.7278758883476257,"1702":-0.5454656481742859,"1703":-1.336865782737732,"1704":0.9072957634925842,"1705":1.7233283519744873,"1706":0.30902189016342163,"1707":0.7389588356018066,"1708":-0.240550234913826,"1709":-0.6036489009857178,"1710":-2.2384276390075684,"1711":-0.4075871407985687,"1712":-0.05820268392562866,"1713":-1.2440401315689087,"1714":-0.018918512389063835,"1715":0.8371726870536804,"1716":0.13715040683746338,"1717":-0.481023907661438,"1718":-1.4073210954666138,"1719":-0.25951075553894043,"1720":-0.43143120408058167,"1721":-0.08563012629747391,"1722":-0.834863543510437,"1723":-0.39804646372795105,"1724":-0.2905937433242798,"1725":0.11971093714237213,"1726":0.6743037104606628,"1727":-0.7989965081214905,"1728":-0.9060803055763245,"1729":-0.8670082688331604,"1730":0.7707178592681885,"1731":0.5654563307762146,"1732":-0.35329586267471313,"1733":-0.21003815531730652,"1734":1.0836091041564941,"1735":1.372443675994873,"1736":-0.17043271660804749,"1737":-0.7831001877784729,"1738":-0.669283390045166,"1739":0.2851448655128479,"1740":0.08204865455627441,"1741":1.3419580459594727,"1742":-0.11514756828546524,"1743":0.18118353188037872,"1744":-0.51038658618927,"1745":0.06524138152599335,"1746":-0.5964587330818176,"1747":0.8480936884880066,"1748":0.003208376234397292,"1749":1.548809289932251,"1750":0.6401908993721008,"1751":-0.8457850813865662,"1752":0.4337993860244751,"1753":0.23699861764907837,"1754":-0.8803490400314331,"1755":0.8871679306030273,"1756":0.7302104234695435,"1757":0.861146867275238,"1758":-0.12676574289798737,"1759":-0.7434186935424805,"1760":-0.03152518346905708,"1761":0.4812968969345093,"1762":-0.1708972007036209,"1763":0.7459752559661865,"1764":0.17520076036453247,"1765":0.7314156293869019,"1766":-0.05294676870107651,"1767":0.5651730895042419,"1768":0.8500759601593018,"1769":1.5071171522140503,"1770":1.300742745399475,"1771":0.24671202898025513,"1772":1.1733546257019043,"1773":-0.6015989780426025,"1774":-1.00381600856781,"1775":-0.20875531435012817,"1776":0.23133592307567596,"1777":0.23275494575500488,"1778":0.2808016836643219,"1779":0.24171555042266846,"1780":0.24032318592071533,"1781":0.29635193943977356,"1782":0.4148809015750885,"1783":-0.44682517647743225,"1784":0.17967002093791962,"1785":0.2768954932689667,"1786":-0.12712465226650238,"1787":-0.6556177139282227,"1788":0.17610874772071838,"1789":-0.22748509049415588,"1790":-0.5082935094833374,"1791":-1.1106832027435303,"1792":-0.1173739805817604,"1793":-0.048301152884960175,"1794":0.29853492975234985,"1795":0.04463912174105644,"1796":0.14134293794631958,"1797":0.3806116580963135,"1798":0.4265410602092743,"1799":0.028473174199461937,"1800":-0.2292117029428482,"1801":0.27325475215911865,"1802":0.2597543001174927,"1803":0.21610721945762634,"1804":-0.7764036059379578,"1805":-0.1465715616941452,"1806":0.12877266108989716,"1807":0.0747963935136795,"1808":0.06728119403123856,"1809":-0.09626119583845139,"1810":0.4233788847923279,"1811":0.40864673256874084,"1812":0.31824350357055664,"1813":0.36809006333351135,"1814":0.0299394354224205,"1815":0.11916235089302063,"1816":0.007928777486085892,"1817":-0.2661432921886444,"1818":-0.03433866426348686,"1819":-0.47624170780181885,"1820":-1.864104151725769,"1821":0.1571367084980011,"1822":0.1309148669242859,"1823":0.5585020780563354,"1824":-0.05593101307749748,"1825":0.16273602843284607,"1826":-0.3767499327659607,"1827":-0.5095083117485046,"1828":0.2385517954826355,"1829":0.08590207248926163,"1830":-0.18993258476257324,"1831":-0.6612125635147095,"1832":-0.006512765772640705,"1833":-0.28471964597702026,"1834":-0.2598164975643158,"1835":0.25074252486228943,"1836":0.037311721593141556,"1837":-0.2076018750667572,"1838":-0.2329036295413971,"1839":1.4886538982391357,"1840":-0.17206215858459473,"1841":0.3798591196537018,"1842":0.7420111894607544,"1843":-0.2210819125175476,"1844":-1.3857622146606445,"1845":-0.0453944057226181,"1846":0.327775239944458,"1847":0.49743717908859253,"1848":0.33848094940185547,"1849":1.4986823797225952,"1850":-0.4446931481361389,"1851":-0.11703196167945862,"1852":-0.4136735498905182,"1853":0.3323154151439667,"1854":0.19012479484081268,"1855":0.39978593587875366,"1856":0.3607092797756195,"1857":0.41651651263237,"1858":0.3506312370300293,"1859":0.667195737361908,"1860":-0.37593531608581543,"1861":-0.5237270593643188,"1862":0.3213232755661011,"1863":0.33530715107917786,"1864":-0.3443852961063385,"1865":0.42327725887298584,"1866":-0.4245235025882721,"1867":-0.4260140061378479,"1868":-0.5602673888206482,"1869":-0.2880631685256958,"1870":0.13067598640918732,"1871":0.47648903727531433,"1872":-0.34517747163772583,"1873":0.29966771602630615,"1874":0.3603288531303406,"1875":0.5459593534469604,"1876":0.2595522999763489,"1877":-0.20861433446407318,"1878":0.4489670395851135,"1879":0.31104058027267456,"1880":0.4752213656902313,"1881":-0.6837725043296814,"1882":0.25323277711868286,"1883":0.21489784121513367,"1884":0.12265045940876007,"1885":0.437415212392807,"1886":-0.19750431180000305,"1887":0.2581699788570404,"1888":0.5688726902008057,"1889":-0.22705210745334625,"1890":0.2878902554512024,"1891":0.23324374854564667,"1892":0.10597830265760422,"1893":0.13090768456459045,"1894":-0.3502919673919678,"1895":0.27231892943382263,"1896":-0.17040570080280304,"1897":-0.612663745880127,"1898":0.35468050837516785,"1899":0.5376332402229309,"1900":0.01179579272866249,"1901":-0.31230950355529785,"1902":0.26572704315185547,"1903":-0.07800201326608658,"1904":-0.11641344428062439,"1905":0.12378107756376266,"1906":0.18799634277820587,"1907":-0.32948392629623413,"1908":-0.4420517683029175,"1909":-0.1294696182012558,"1910":-0.31578004360198975,"1911":-0.25988614559173584,"1912":0.423227995634079,"1913":-0.4408372938632965,"1914":-0.34950849413871765,"1915":-0.3389427661895752,"1916":0.3301699757575989,"1917":-0.15734133124351501,"1918":0.26247304677963257,"1919":0.33018332719802856,"1920":-0.26493850350379944,"1921":-0.1531630903482437,"1922":-0.22592629492282867,"1923":0.4084969460964203,"1924":0.35161587595939636,"1925":-0.12126102298498154,"1926":1.4821349382400513,"1927":-0.3700729310512543,"1928":0.15681764483451843,"1929":-0.17513407766819,"1930":0.172067329287529,"1931":-0.24832169711589813,"1932":-0.006861402187496424,"1933":0.1980721354484558,"1934":1.2763330936431885,"1935":0.22275088727474213,"1936":0.7432834506034851,"1937":-0.3924373388290405,"1938":0.27114906907081604,"1939":0.11638051271438599,"1940":0.17917872965335846,"1941":0.18182815611362457,"1942":0.3108919858932495,"1943":0.2594461441040039,"1944":-0.2511727511882782,"1945":-1.1380692720413208,"1946":-0.35883283615112305,"1947":-1.0050119161605835,"1948":0.37523290514945984,"1949":-0.37095195055007935,"1950":0.03119540959596634,"1951":0.38681432604789734,"1952":0.18103082478046417,"1953":0.12644660472869873,"1954":-0.2824065089225769,"1955":0.31473737955093384,"1956":0.09006978571414948,"1957":0.014239043928682804,"1958":-0.29366907477378845,"1959":0.8289366364479065,"1960":0.24471600353717804,"1961":-0.6430730819702148,"1962":0.0497342087328434,"1963":0.22902722656726837,"1964":0.31538093090057373,"1965":0.07655573636293411,"1966":-0.22370125353336334,"1967":0.23030948638916016,"1968":0.24121588468551636,"1969":-0.09046097844839096,"1970":-0.6343889832496643,"1971":-0.29217612743377686,"1972":-0.14308488368988037,"1973":-0.15344388782978058,"1974":-1.1507010459899902,"1975":0.6485705375671387,"1976":0.27757617831230164,"1977":0.3131832480430603,"1978":-0.48818132281303406,"1979":0.20677927136421204,"1980":-1.3800199031829834,"1981":-0.3782988488674164,"1982":0.021553054451942444,"1983":0.09323085844516754,"1984":-0.18568596243858337,"1985":-0.26548656821250916,"1986":-0.7874507904052734,"1987":-0.48794978857040405,"1988":-0.2915136218070984,"1989":0.31366050243377686,"1990":0.3420947194099426,"1991":-0.15373411774635315,"1992":-0.14785338938236237,"1993":1.4153047800064087,"1994":-0.11663340032100677,"1995":0.4061819612979889,"1996":0.17083479464054108,"1997":-0.1930154711008072,"1998":-1.1025850772857666,"1999":-0.41662120819091797,"2000":0.28404420614242554,"2001":0.4210614264011383,"2002":-0.3726678192615509,"2003":-1.9646210670471191,"2004":0.4656297266483307,"2005":-0.596703827381134,"2006":-0.44368427991867065,"2007":0.14295384287834167,"2008":0.027663996443152428,"2009":1.657742977142334,"2010":-0.2817801535129547,"2011":0.7804123759269714,"2012":-0.5429409742355347,"2013":-0.5997312068939209,"2014":-0.33608096837997437,"2015":2.3575637340545654,"2016":-0.5785958766937256,"2017":-0.10367079079151154,"2018":0.061146438121795654,"2019":0.20702917873859406,"2020":-0.49362242221832275,"2021":-0.9130768775939941,"2022":-1.5111751556396484,"2023":-0.2873634994029999,"2024":1.395572304725647,"2025":0.5119494199752808,"2026":-0.6101587414741516,"2027":-0.45191699266433716,"2028":0.0623285211622715,"2029":0.8062840104103088,"2030":0.6329775452613831,"2031":-4.173766613006592,"2032":0.07755520194768906,"2033":-0.5054191946983337,"2034":1.2018897533416748,"2035":0.06270738691091537,"2036":-1.0139728784561157,"2037":0.8142069578170776,"2038":-0.49098044633865356,"2039":-0.05902139097452164,"2040":1.0583654642105103,"2041":0.2884421944618225,"2042":-0.3535465896129608,"2043":-0.6945593953132629,"2044":0.1361882984638214,"2045":0.6540899276733398,"2046":-0.15443074703216553,"2047":0.8361444473266602,"2048":-0.13612830638885498,"2049":0.6400336027145386,"2050":0.4395248591899872,"2051":-0.8682844638824463,"2052":1.2193715572357178,"2053":0.057638220489025116,"2054":-0.0727258026599884,"2055":-0.34477323293685913,"2056":-0.2659722566604614,"2057":1.2500377893447876,"2058":-0.12150190025568008,"2059":-1.9877831935882568,"2060":0.04453929886221886,"2061":-0.012763897888362408,"2062":-0.05409086495637894,"2063":-0.5370467901229858,"2064":-0.728500247001648,"2065":-0.4784076511859894,"2066":0.042192187160253525,"2067":0.352567583322525,"2068":-0.07462116330862045,"2069":-0.028261611238121986,"2070":0.36818501353263855,"2071":-0.4605556130409241,"2072":-1.0114593505859375,"2073":-1.1141891479492188,"2074":0.2920062839984894,"2075":-0.03062368556857109,"2076":-0.4494962990283966,"2077":-0.2969416081905365,"2078":0.897309422492981,"2079":0.0427711196243763,"2080":0.6834113597869873,"2081":-0.18810543417930603,"2082":-0.6660067439079285,"2083":-0.1919475495815277,"2084":0.27459391951560974,"2085":-0.16429704427719116,"2086":0.046841852366924286,"2087":0.30087003111839294,"2088":0.8899479508399963,"2089":0.24027934670448303,"2090":0.3804018199443817,"2091":-0.36169832944869995,"2092":0.2371702939271927,"2093":0.17632776498794556,"2094":0.2890201210975647,"2095":-0.19176824390888214,"2096":0.2411695271730423,"2097":-0.11934416741132736,"2098":0.16392876207828522,"2099":-0.984368622303009,"2100":-0.29631125926971436,"2101":-0.2955876290798187,"2102":0.2995111346244812,"2103":-0.0014378983760252595,"2104":0.14821679890155792,"2105":0.39016929268836975,"2106":0.19502797722816467,"2107":0.17491544783115387,"2108":-0.3546968996524811,"2109":0.17088720202445984,"2110":0.10576552152633667,"2111":-0.005639502312988043,"2112":0.06298239529132843,"2113":0.8503327965736389,"2114":0.20771296322345734,"2115":-0.124616838991642,"2116":-0.027822161093354225,"2117":0.051003970205783844,"2118":0.26800796389579773,"2119":0.2020449936389923,"2120":0.18313480913639069,"2121":0.35558927059173584,"2122":-0.0044322991743683815,"2123":0.1566367745399475,"2124":-0.02317093126475811,"2125":-0.33670714497566223,"2126":-0.09039721637964249,"2127":-0.1649770438671112,"2128":-1.7760841846466064,"2129":-1.2569262981414795,"2130":0.21968281269073486,"2131":-0.1503748744726181,"2132":-0.2640407681465149,"2133":0.2450675517320633,"2134":-0.9403984546661377,"2135":-0.2653435468673706,"2136":-0.05191546306014061,"2137":0.06267709285020828,"2138":-0.2029099464416504,"2139":-0.27489209175109863,"2140":-0.5012660026550293,"2141":-0.38004764914512634,"2142":-0.19749943912029266,"2143":0.28865811228752136,"2144":0.058660052716732025,"2145":-0.3475651144981384,"2146":-0.34242233633995056,"2147":0.7293875813484192,"2148":-0.026457058265805244,"2149":0.26192885637283325,"2150":0.22647105157375336,"2151":-0.17559842765331268,"2152":-0.7169606685638428,"2153":-0.14523938298225403,"2154":0.08935047686100006,"2155":0.2597106695175171,"2156":0.292624294757843,"2157":-0.0543464832007885,"2158":-0.39475592970848083,"2159":-0.2067214697599411,"2160":-0.2825821340084076,"2161":0.26306283473968506,"2162":0.900425136089325,"2163":0.5593888163566589,"2164":0.4607795476913452,"2165":-0.5889362692832947,"2166":-0.2328493744134903,"2167":0.48212531208992004,"2168":-0.4210919737815857,"2169":-0.2249946892261505,"2170":0.32371410727500916,"2171":0.4711461663246155,"2172":0.2947678565979004,"2173":0.392983078956604,"2174":-0.35476818680763245,"2175":-0.8608265519142151,"2176":-0.5037820935249329,"2177":-0.4285929203033447,"2178":-0.35910242795944214,"2179":0.36413633823394775,"2180":-0.5034035444259644,"2181":0.07716114073991776,"2182":0.4219006299972534,"2183":0.24366416037082672,"2184":0.5772637724876404,"2185":-0.4624490737915039,"2186":0.39760348200798035,"2187":0.47493916749954224,"2188":-0.15693767368793488,"2189":-1.6194559335708618,"2190":-0.5545306205749512,"2191":0.737816333770752,"2192":-0.0624016672372818,"2193":0.27394208312034607,"2194":-0.20125378668308258,"2195":0.33721765875816345,"2196":-0.03443650156259537,"2197":0.385942667722702,"2198":0.5669898986816406,"2199":0.15469549596309662,"2200":0.13094687461853027,"2201":0.15028753876686096,"2202":-0.3365025818347931,"2203":0.6201602220535278,"2204":0.23591496050357819,"2205":-0.20217116177082062,"2206":-0.4759272336959839,"2207":0.3411930203437805,"2208":0.7667900323867798,"2209":-0.693182647228241,"2210":0.3882729709148407,"2211":-0.243873730301857,"2212":0.4701712429523468,"2213":0.05679621919989586,"2214":0.35471028089523315,"2215":-0.12625709176063538,"2216":-0.15164370834827423,"2217":-0.6845370531082153,"2218":-0.6281692981719971,"2219":-0.18894965946674347,"2220":0.4036810100078583,"2221":0.2610137164592743,"2222":-0.3350659906864166,"2223":-0.3931766450405121,"2224":0.10486320406198502,"2225":-0.457748144865036,"2226":0.579377293586731,"2227":0.22398929297924042,"2228":-0.24993062019348145,"2229":-0.24808983504772186,"2230":-0.48303720355033875,"2231":0.31135815382003784,"2232":0.38794007897377014,"2233":0.3276568651199341,"2234":1.5833646059036255,"2235":-0.815573513507843,"2236":-0.7885271310806274,"2237":-0.22847691178321838,"2238":0.20395967364311218,"2239":-0.10877909511327744,"2240":0.30717942118644714,"2241":0.25972747802734375,"2242":0.12225756794214249,"2243":0.4177338778972626,"2244":0.9725643396377563,"2245":-0.2883732318878174,"2246":0.3251309096813202,"2247":0.09474342316389084,"2248":-0.48557883501052856,"2249":-0.28333422541618347,"2250":0.2934931218624115,"2251":0.03127116709947586,"2252":-0.6874935030937195,"2253":-1.056061863899231,"2254":-0.27340200543403625,"2255":0.09511104971170425,"2256":0.350306898355484,"2257":-0.6122370958328247,"2258":-0.0006278657237999141,"2259":0.21983374655246735,"2260":0.1854369044303894,"2261":0.1599114090204239,"2262":-0.1671534776687622,"2263":0.3194587528705597,"2264":0.1911519318819046,"2265":0.0691930279135704,"2266":-0.6578901410102844,"2267":-0.29313066601753235,"2268":-0.14330734312534332,"2269":0.1132318302989006,"2270":0.08589340001344681,"2271":-0.2907150983810425,"2272":0.33785539865493774,"2273":0.13767212629318237,"2274":-0.6102685332298279,"2275":0.09542795270681381,"2276":0.32780954241752625,"2277":-0.20360442996025085,"2278":0.23915912210941315,"2279":-0.2583618760108948,"2280":0.05234947055578232,"2281":-0.300924688577652,"2282":-0.8701642155647278,"2283":1.1136906147003174,"2284":0.2922056019306183,"2285":0.3747546970844269,"2286":-0.2411690354347229,"2287":0.07532136887311935,"2288":0.5630698204040527,"2289":-0.22722025215625763,"2290":0.17770391702651978,"2291":0.18070290982723236,"2292":-0.150188609957695,"2293":-0.9089822769165039,"2294":0.3759714663028717,"2295":-0.292196124792099,"2296":-0.04118525609374046,"2297":0.26053038239479065,"2298":-0.04597630351781845,"2299":-0.06147283315658569,"2300":0.000862836663145572,"2301":0.9034578204154968,"2302":-0.10619702190160751,"2303":0.2264874279499054,"2304":0.43097639083862305,"2305":-0.15497973561286926,"2306":-1.2888126373291016,"2307":-0.1065952256321907,"2308":0.8933002352714539,"2309":0.7740434408187866,"2310":0.007070283871144056,"2311":1.436156988143921,"2312":-0.571504533290863,"2313":-0.06610521674156189,"2314":-0.149258553981781,"2315":0.6433889269828796,"2316":-0.12383732944726944,"2317":0.2371262162923813,"2318":0.1438569277524948,"2319":1.1093270778656006,"2320":0.7400901317596436,"2321":0.039051685482263565,"2322":-0.7975966930389404,"2323":0.02821875736117363,"2324":0.45915648341178894,"2325":-0.16512544453144073,"2326":0.2081609070301056,"2327":0.6097676157951355,"2328":-0.36956045031547546,"2329":-0.6296809315681458,"2330":-0.8591777086257935,"2331":-1.1134841442108154,"2332":-0.032893892377614975,"2333":0.35078853368759155,"2334":-0.41753947734832764,"2335":0.28799593448638916,"2336":0.7932416796684265,"2337":1.0638155937194824,"2338":0.014762249775230885,"2339":-0.4093465209007263,"2340":0.3551432490348816,"2341":0.30009913444519043,"2342":0.4460870325565338,"2343":-0.2684815227985382,"2344":0.862811803817749,"2345":0.34885159134864807,"2346":0.11246106028556824,"2347":-0.5036001205444336,"2348":-0.09803410619497299,"2349":0.9088410139083862,"2350":0.003962360788136721,"2351":-1.38650381565094,"2352":0.5149922370910645,"2353":0.7226965427398682,"2354":0.3329996168613434,"2355":-0.08681540191173553,"2356":-0.40780913829803467,"2357":0.05417890474200249,"2358":-0.7073526978492737,"2359":-0.6451188921928406,"2360":1.1200320720672607,"2361":0.3766585886478424,"2362":0.3500288426876068,"2363":-0.20455922186374664,"2364":0.47957614064216614,"2365":0.2572047710418701,"2366":-0.801040768623352,"2367":0.5175638794898987,"2368":-0.4023226201534271,"2369":-0.7367048859596252,"2370":-0.8905130624771118,"2371":-0.8055163025856018,"2372":-1.1010899543762207,"2373":-0.9035993814468384,"2374":0.5280457139015198,"2375":0.205912247300148,"2376":0.06657189130783081,"2377":-0.7525791525840759,"2378":1.927839994430542,"2379":-0.7667765021324158,"2380":0.8009983897209167,"2381":0.8945645093917847,"2382":-0.26605382561683655,"2383":-0.9067605137825012,"2384":-0.3984307050704956,"2385":0.25347039103507996,"2386":0.34720557928085327,"2387":0.029413584619760513,"2388":1.049428939819336,"2389":-0.7223460078239441,"2390":-0.3577314019203186,"2391":-0.14870645105838776,"2392":0.20554107427597046,"2393":-0.035378191620111465,"2394":0.20037414133548737,"2395":0.2455819994211197,"2396":1.2632489204406738,"2397":0.5435804128646851,"2398":1.1074076890945435,"2399":-0.24777138233184814,"2400":0.15789850056171417,"2401":0.2598775029182434,"2402":0.3621487319469452,"2403":0.2306930273771286,"2404":0.14835916459560394,"2405":-0.07426077127456665,"2406":-0.3484362065792084,"2407":-1.0223174095153809,"2408":-0.22163982689380646,"2409":-0.6062678694725037,"2410":0.37401846051216125,"2411":-0.6783319115638733,"2412":0.19439351558685303,"2413":0.3195299506187439,"2414":0.132167786359787,"2415":-0.011392471380531788,"2416":-0.3391464650630951,"2417":0.3238013684749603,"2418":0.2407890111207962,"2419":0.05005781725049019,"2420":-0.5787981152534485,"2421":0.8268368244171143,"2422":0.4819176495075226,"2423":-0.5687243342399597,"2424":0.39888620376586914,"2425":0.09844683855772018,"2426":0.18400700390338898,"2427":0.659595787525177,"2428":-0.2846561372280121,"2429":0.42876163125038147,"2430":-0.03344906494021416,"2431":-0.13933566212654114,"2432":-0.4569476544857025,"2433":-0.21570950746536255,"2434":0.0007597216754220426,"2435":-0.23986077308654785,"2436":-1.3864163160324097,"2437":0.19126135110855103,"2438":0.2519806921482086,"2439":0.2490563988685608,"2440":-0.5806432366371155,"2441":0.3251514434814453,"2442":-1.646797776222229,"2443":-0.534033477306366,"2444":0.6719984412193298,"2445":0.3120369613170624,"2446":-0.1779012680053711,"2447":-0.35110974311828613,"2448":-0.7663506269454956,"2449":-0.23674294352531433,"2450":-0.25223973393440247,"2451":0.20120708644390106,"2452":0.22567647695541382,"2453":-0.2399740219116211,"2454":-0.33625417947769165,"2455":1.6555205583572388,"2456":-0.13062334060668945,"2457":0.6903400421142578,"2458":0.4509985148906708,"2459":-0.18890531361103058,"2460":-0.8818908929824829,"2461":-0.29969558119773865,"2462":0.3950023651123047,"2463":0.4945196807384491,"2464":0.7223915457725525,"2465":1.6529202461242676,"2466":-0.9589455723762512,"2467":-1.2887495756149292,"2468":-0.7864450812339783,"2469":0.6296262145042419,"2470":0.8164573907852173,"2471":0.5219091176986694,"2472":0.632045328617096,"2473":0.938737690448761,"2474":0.7594811320304871,"2475":0.8688035607337952,"2476":-0.8481906652450562,"2477":-0.238589346408844,"2478":0.5684896111488342,"2479":0.7212355136871338,"2480":-0.5750595331192017,"2481":0.6547518372535706,"2482":-0.586582601070404,"2483":-0.8138130307197571,"2484":-0.9836764335632324,"2485":-0.6969778537750244,"2486":0.35079747438430786,"2487":0.7999234199523926,"2488":-0.7503839135169983,"2489":0.5506942868232727,"2490":0.7652861475944519,"2491":0.9692803025245667,"2492":0.6653384566307068,"2493":-0.7479292154312134,"2494":0.7682419419288635,"2495":0.6096289753913879,"2496":0.49289512634277344,"2497":-0.9449104070663452,"2498":0.9458792209625244,"2499":0.8476762771606445,"2500":0.6459776163101196,"2501":0.5846309661865234,"2502":-0.6635104417800903,"2503":0.8234896659851074,"2504":0.8154610991477966,"2505":-0.509833812713623,"2506":0.8513978719711304,"2507":0.5587499737739563,"2508":0.4185658395290375,"2509":0.5355082750320435,"2510":-0.7843279838562012,"2511":1.0106744766235352,"2512":-0.638658344745636,"2513":-1.6483709812164307,"2514":0.8556692004203796,"2515":0.9362717866897583,"2516":-0.5136700868606567,"2517":-0.6481757760047913,"2518":0.6805320382118225,"2519":0.1511763334274292,"2520":-0.4653785228729248,"2521":0.31753021478652954,"2522":0.6375289559364319,"2523":-0.5512180328369141,"2524":-0.848477303981781,"2525":-0.9470287561416626,"2526":-0.7244846820831299,"2527":-0.6361261606216431,"2528":0.7723953723907471,"2529":-0.4709405303001404,"2530":-0.7428017258644104,"2531":-0.7022538781166077,"2532":1.4602361917495728,"2533":-0.7281415462493896,"2534":0.7425118088722229,"2535":0.6968795657157898,"2536":-0.6784103512763977,"2537":-1.2897075414657593,"2538":-0.5792182683944702,"2539":1.0015729665756226,"2540":0.7065020799636841,"2541":0.6545523405075073,"2542":0.596739649772644,"2543":-0.24552254378795624,"2544":1.001854419708252,"2545":-0.4076954126358032,"2546":0.15851090848445892,"2547":0.2898041009902954,"2548":0.08454912900924683,"2549":0.43730995059013367,"2550":-0.04685205593705177,"2551":0.45019304752349854,"2552":-0.21285638213157654,"2553":-0.27322521805763245,"2554":-0.5319240689277649,"2555":0.34165266156196594,"2556":0.008179888129234314,"2557":-0.11457158625125885,"2558":0.25133317708969116,"2559":-0.23950877785682678,"2560":-0.5412943363189697,"2561":0.2297893762588501,"2562":-0.28918376564979553,"2563":0.7398750185966492,"2564":0.06926784664392471,"2565":-0.8983215093612671,"2566":0.3260113596916199,"2567":0.2265816479921341,"2568":-0.5345670580863953,"2569":0.48346978425979614,"2570":0.6628799438476562,"2571":0.2014966756105423,"2572":0.5353999137878418,"2573":-0.30189600586891174,"2574":0.1612325757741928,"2575":0.4413451850414276,"2576":-0.0493779256939888,"2577":0.8483748435974121,"2578":0.2332395762205124,"2579":-0.9033273458480835,"2580":0.27008679509162903,"2581":-0.16859060525894165,"2582":-1.3004438877105713,"2583":0.22837358713150024,"2584":0.5616512298583984,"2585":0.4023105204105377,"2586":0.597518265247345,"2587":-0.1731514036655426,"2588":0.1052008643746376,"2589":-1.2002378702163696,"2590":0.436947226524353,"2591":2.0774085521698,"2592":-0.7246633172035217,"2593":0.08032931387424469,"2594":-0.2890124022960663,"2595":0.21708562970161438,"2596":1.3663595914840698,"2597":-1.1563268899917603,"2598":1.186912178993225,"2599":0.4414130747318268,"2600":-0.47857216000556946,"2601":-0.4604262113571167,"2602":-0.2576780915260315,"2603":-0.18721647560596466,"2604":-0.2677133083343506,"2605":0.2661711573600769,"2606":-0.140710711479187,"2607":-0.23862557113170624,"2608":-0.2241874486207962,"2609":0.43007829785346985,"2610":-0.6630223989486694,"2611":0.4340093433856964,"2612":0.3652981221675873,"2613":-0.4330294132232666,"2614":-1.315603494644165,"2615":-0.6305948495864868,"2616":0.5550380349159241,"2617":0.2448536902666092,"2618":0.5543224215507507,"2619":0.9599781036376953,"2620":0.07418634742498398,"2621":-0.0051651145331561565,"2622":-0.10548601299524307,"2623":0.31208884716033936,"2624":0.3274489641189575,"2625":0.26052653789520264,"2626":0.4286784827709198,"2627":0.06119009479880333,"2628":0.38620519638061523,"2629":0.3751797676086426,"2630":-0.25118187069892883,"2631":-1.1321898698806763,"2632":0.5791570544242859,"2633":0.24295929074287415,"2634":-0.2005973607301712,"2635":0.30979156494140625,"2636":-0.42890384793281555,"2637":-0.487927109003067,"2638":-0.024086246266961098,"2639":-0.11471005529165268,"2640":0.5865718722343445,"2641":0.11672475188970566,"2642":-0.4697924256324768,"2643":0.38985854387283325,"2644":0.23255397379398346,"2645":0.5349701046943665,"2646":0.2604101598262787,"2647":-0.005068287253379822,"2648":0.24059376120567322,"2649":0.4626106917858124,"2650":0.8631054759025574,"2651":-0.5097829699516296,"2652":0.6363610029220581,"2653":0.19205328822135925,"2654":0.6615012288093567,"2655":0.7168000340461731,"2656":-0.7845884561538696,"2657":0.15832649171352386,"2658":0.6016968488693237,"2659":0.22227637469768524,"2660":0.377272367477417,"2661":0.20346175134181976,"2662":0.43120914697647095,"2663":0.5588711500167847,"2664":-0.24741825461387634,"2665":0.6224707365036011,"2666":-0.24570298194885254,"2667":-0.625042736530304,"2668":-0.18341422080993652,"2669":1.0508252382278442,"2670":-0.43937477469444275,"2671":-0.32137876749038696,"2672":0.4399831295013428,"2673":0.2825399935245514,"2674":-0.34676074981689453,"2675":-0.21387168765068054,"2676":0.47371381521224976,"2677":-0.3991850018501282,"2678":-0.17734450101852417,"2679":-0.23648934066295624,"2680":-0.21980814635753632,"2681":0.10897752642631531,"2682":0.2221713811159134,"2683":-0.8371474742889404,"2684":-0.3916916251182556,"2685":-0.575624942779541,"2686":0.1729879528284073,"2687":-0.25322529673576355,"2688":0.3247472941875458,"2689":0.702159583568573,"2690":-0.2982371151447296,"2691":0.12833823263645172,"2692":-0.2634769082069397,"2693":0.22224879264831543,"2694":-0.1100425124168396,"2695":0.3584214448928833,"2696":1.5925049781799316,"2697":-0.949155330657959,"2698":-1.1089736223220825,"2699":-0.36089611053466797,"2700":0.2654161751270294,"2701":-0.17495328187942505,"2702":0.21074077486991882,"2703":0.09056711196899414,"2704":-0.11730024218559265,"2705":0.3725188672542572,"2706":0.9866243004798889,"2707":-0.2703387439250946,"2708":0.4317207932472229,"2709":0.11772886663675308,"2710":-0.5246902704238892,"2711":-0.5556646585464478,"2712":0.2649170756340027,"2713":-0.04727436974644661,"2714":-0.6484074592590332,"2715":-1.0848129987716675,"2716":0.01709902100265026,"2717":0.4196562170982361,"2718":0.2206152379512787,"2719":-0.5205918550491333,"2720":0.09616634994745255,"2721":0.22321732342243195,"2722":-0.009879907593131065,"2723":0.10303113609552383,"2724":-0.09009330719709396,"2725":0.29514357447624207,"2726":0.29946672916412354,"2727":0.3307919502258301,"2728":-0.5882848501205444,"2729":-0.15591776371002197,"2730":-0.6026825904846191,"2731":0.3787955641746521,"2732":0.23247316479682922,"2733":-0.4699908494949341,"2734":0.30775895714759827,"2735":0.26062503457069397,"2736":-0.5154297351837158,"2737":0.05453640595078468,"2738":0.2642172574996948,"2739":0.05221417546272278,"2740":0.44304361939430237,"2741":-0.16786396503448486,"2742":0.05283263325691223,"2743":-0.26515665650367737,"2744":-1.0237630605697632,"2745":1.2633785009384155,"2746":-0.17851293087005615,"2747":-0.19073836505413055,"2748":-0.04856390878558159,"2749":0.06179433315992355,"2750":0.716340184211731,"2751":-0.5614160895347595,"2752":0.45737510919570923,"2753":0.2422354817390442,"2754":-0.09627597033977509,"2755":-0.7915011048316956,"2756":0.28639665246009827,"2757":-0.27087271213531494,"2758":0.1340901255607605,"2759":0.2343500405550003,"2760":-0.2480410784482956,"2761":-0.10009972751140594,"2762":-0.1008932963013649,"2763":0.8297007083892822,"2764":-0.061806079000234604,"2765":0.31550928950309753,"2766":0.47662612795829773,"2767":-0.2551603615283966,"2768":-1.0306397676467896,"2769":-0.06666436046361923,"2770":0.7809762358665466,"2771":0.8051699995994568,"2772":0.5486980080604553,"2773":2.4107375144958496,"2774":-0.005524016451090574,"2775":-0.15471695363521576,"2776":-0.49366295337677,"2777":0.5648261308670044,"2778":-0.27794137597084045,"2779":0.04339319095015526,"2780":0.7146482467651367,"2781":-1.0609869956970215,"2782":0.08745607733726501,"2783":0.07709581404924393,"2784":-0.4741007685661316,"2785":0.04324325919151306,"2786":0.7080709934234619,"2787":-0.269988477230072,"2788":-0.7072744369506836,"2789":0.5216413736343384,"2790":-0.10090082138776779,"2791":-0.5456307530403137,"2792":-0.38958868384361267,"2793":-0.4271334409713745,"2794":0.6359123587608337,"2795":0.46400243043899536,"2796":-0.6353763341903687,"2797":0.43164941668510437,"2798":0.5579711198806763,"2799":-0.284403532743454,"2800":0.2028396874666214,"2801":0.22867147624492645,"2802":0.5018786787986755,"2803":0.4511561691761017,"2804":0.27009323239326477,"2805":-0.2171347439289093,"2806":0.11711802333593369,"2807":-0.5153245329856873,"2808":0.3833312392234802,"2809":0.22858990728855133,"2810":-0.6162464618682861,"2811":0.6782307028770447,"2812":-0.39211511611938477,"2813":0.42972880601882935,"2814":0.44660666584968567,"2815":0.29014772176742554,"2816":0.4787627160549164,"2817":0.21425682306289673,"2818":-0.5125880837440491,"2819":0.006002322770655155,"2820":-1.00881826877594,"2821":-0.5464930534362793,"2822":1.0365588665008545,"2823":-0.020625676959753036,"2824":0.1778591424226761,"2825":-0.4888747036457062,"2826":0.3227761685848236,"2827":-0.35494107007980347,"2828":-0.914225697517395,"2829":1.2832258939743042,"2830":0.14865444600582123,"2831":-0.5994112491607666,"2832":-1.0250370502471924,"2833":-0.029116734862327576,"2834":-0.437039315700531,"2835":-0.49317917227745056,"2836":0.4283490777015686,"2837":-0.21997521817684174,"2838":-0.27758803963661194,"2839":-0.29903683066368103,"2840":1.0433448553085327,"2841":-0.3883640766143799,"2842":-0.13338975608348846,"2843":0.36488112807273865,"2844":-0.6687093377113342,"2845":-1.131611704826355,"2846":-0.05441797897219658,"2847":0.318970650434494,"2848":-0.042302753776311874,"2849":0.8465374708175659,"2850":-0.547207236289978,"2851":-0.47308415174484253,"2852":0.053818535059690475,"2853":-0.8341361880302429,"2854":0.4367659389972687,"2855":0.9825460314750671,"2856":0.6606743335723877,"2857":0.17885760962963104,"2858":0.29469597339630127,"2859":0.1965562105178833,"2860":0.6329026222229004,"2861":-0.29521769285202026,"2862":0.6562132239341736,"2863":-0.029046496376395226,"2864":-0.3575981855392456,"2865":-0.22497209906578064,"2866":0.2695702910423279,"2867":-1.4228779077529907,"2868":-0.8933872580528259,"2869":-1.2533330917358398,"2870":-0.2540322542190552,"2871":1.2044847011566162,"2872":0.25010767579078674,"2873":-0.7143212556838989,"2874":0.06307142972946167,"2875":0.2972133457660675,"2876":0.9068588614463806,"2877":0.1958899050951004,"2878":-2.0179314613342285,"2879":0.33931663632392883,"2880":0.7948765754699707,"2881":1.3043413162231445,"2882":-1.2722240686416626,"2883":-0.322679728269577,"2884":0.029314201325178146,"2885":0.674222469329834,"2886":0.541685163974762,"2887":-0.25101417303085327,"2888":0.36447805166244507,"2889":0.14394943416118622,"2890":0.22956164181232452,"2891":0.34298017621040344,"2892":0.4812071621417999,"2893":0.1736987978219986,"2894":2.2827117443084717,"2895":-0.17874503135681152,"2896":0.7182207107543945,"2897":0.4083887040615082,"2898":-0.6650422215461731,"2899":0.25209763646125793,"2900":0.34040719270706177,"2901":-1.8200950622558594,"2902":-0.5693806409835815,"2903":0.32176995277404785,"2904":1.1229106187820435,"2905":-0.2365500032901764,"2906":-2.1750125885009766,"2907":0.2576535940170288,"2908":-0.19360066950321198,"2909":-1.7690821886062622,"2910":0.19061173498630524,"2911":-0.511633038520813,"2912":-0.29480642080307007,"2913":0.36620035767555237,"2914":-0.5369508862495422,"2915":-0.3394549489021301,"2916":-0.28876301646232605,"2917":-0.08176904171705246,"2918":-0.3140580952167511,"2919":0.595344603061676,"2920":1.072214126586914,"2921":-0.16654406487941742,"2922":0.22021472454071045,"2923":-0.19247296452522278,"2924":0.1991836428642273,"2925":1.5136137008666992,"2926":0.12148440629243851,"2927":0.9779654741287231,"2928":0.3766331374645233,"2929":0.7894662022590637,"2930":-0.3526014983654022,"2931":0.5386589169502258,"2932":0.5572934746742249,"2933":0.419894814491272,"2934":0.6449755430221558,"2935":0.979153573513031,"2936":0.4570494592189789,"2937":0.0942775160074234,"2938":-0.5472337007522583,"2939":-2.1814827919006348,"2940":1.0069106817245483,"2941":1.5735491514205933,"2942":-0.2619292736053467,"2943":0.5223844647407532,"2944":-0.6428731083869934,"2945":-0.15497109293937683,"2946":-0.3182341456413269,"2947":-0.08250922709703445,"2948":0.4288621246814728,"2949":0.12666288018226624,"2950":-0.7793237566947937,"2951":1.0336803197860718,"2952":0.560799777507782,"2953":0.36311349272727966,"2954":0.7348442673683167,"2955":-0.31810206174850464,"2956":0.5079583525657654,"2957":0.5284538269042969,"2958":1.3186213970184326,"2959":-0.6515551209449768,"2960":0.6855128407478333,"2961":1.1536123752593994,"2962":0.09338828176259995,"2963":1.0399965047836304,"2964":-0.6050887107849121,"2965":0.32862141728401184,"2966":1.0833169221878052,"2967":0.5397957563400269,"2968":0.4047327935695648,"2969":0.3608628213405609,"2970":0.9642455577850342,"2971":0.026436403393745422,"2972":-0.46569961309432983,"2973":1.097588062286377,"2974":-0.3770196735858917,"2975":0.07384654879570007,"2976":1.1486306190490723,"2977":0.6341328024864197,"2978":0.5242331027984619,"2979":-0.4119302034378052,"2980":0.6021888256072998,"2981":-1.6261540651321411,"2982":0.2958340048789978,"2983":-0.4742524325847626,"2984":0.5437825918197632,"2985":-0.669970691204071,"2986":0.052332378923892975,"2987":-0.8401943445205688,"2988":-0.2839958369731903,"2989":-0.21313877403736115,"2990":0.42553266882896423,"2991":-1.2804176807403564,"2992":-0.6161631345748901,"2993":-0.5084432363510132,"2994":-0.4693937301635742,"2995":-0.35192540287971497,"2996":0.5516011714935303,"2997":0.8416085839271545,"2998":-0.5100368857383728,"2999":0.2629413902759552,"3000":-0.5171611309051514,"3001":0.08362936973571777,"3002":-0.003266998566687107,"3003":0.6240900158882141,"3004":0.27482870221138,"3005":0.14143580198287964,"3006":-0.03901992365717888,"3007":-0.7769879102706909,"3008":0.31036216020584106,"3009":0.2632696032524109,"3010":-0.235744908452034,"3011":0.8430185914039612,"3012":0.6331895589828491,"3013":0.0136646069586277,"3014":-0.03402547910809517,"3015":-0.30238404870033264,"3016":-0.1904618740081787,"3017":0.43625640869140625,"3018":1.1071819067001343,"3019":0.22411119937896729,"3020":0.45273879170417786,"3021":-0.05184715986251831,"3022":-0.10871458798646927,"3023":0.02890527807176113,"3024":-0.5922433733940125,"3025":0.4642421305179596,"3026":0.3781934082508087,"3027":0.01578783616423607,"3028":0.5584819912910461,"3029":0.6614182591438293,"3030":0.14269180595874786,"3031":0.8658818006515503,"3032":0.01569477468729019,"3033":0.22954025864601135,"3034":0.5082043409347534,"3035":-0.0273360013961792,"3036":-0.12755286693572998,"3037":0.5087901949882507,"3038":0.4893662929534912,"3039":0.5731890201568604,"3040":0.2061701864004135,"3041":-0.3794022798538208,"3042":0.4366098642349243,"3043":-0.15782010555267334,"3044":-0.7581988573074341,"3045":0.28407153487205505,"3046":1.1164244413375854,"3047":0.8020073771476746,"3048":0.3716248869895935,"3049":-0.4395934045314789,"3050":0.1117192804813385,"3051":-0.8813036680221558,"3052":0.17797617614269257,"3053":0.48669546842575073,"3054":0.27532878518104553,"3055":0.21400339901447296,"3056":-0.5614752173423767,"3057":0.466935396194458,"3058":-0.42873942852020264,"3059":-1.0737029314041138,"3060":0.8553138971328735,"3061":0.37671422958374023,"3062":-0.4785705804824829,"3063":0.2594680190086365,"3064":-0.9867359399795532,"3065":-0.4938620626926422,"3066":-0.5485104918479919,"3067":0.4838240146636963,"3068":-0.20560824871063232,"3069":-0.04479604959487915,"3070":-0.251179575920105,"3071":0.6653508543968201,"3072":-1.1606351137161255,"3073":0.4490489065647125,"3074":-0.3254657983779907,"3075":-0.5099916458129883,"3076":-1.0961838960647583,"3077":-1.0454833507537842,"3078":-0.1277914196252823,"3079":-0.1399625837802887,"3080":-0.029339971020817757,"3081":1.4907554388046265,"3082":0.7930353283882141,"3083":-0.12214821577072144,"3084":-0.09974130243062973,"3085":0.49285948276519775,"3086":-0.538872241973877,"3087":0.3981717824935913,"3088":0.44880804419517517,"3089":0.4453282058238983,"3090":0.1451702117919922,"3091":-1.100508451461792,"3092":-0.1517058163881302,"3093":-1.8820735216140747,"3094":0.5851908326148987,"3095":1.8274872303009033,"3096":1.1508816480636597,"3097":0.26904818415641785,"3098":0.06050420179963112,"3099":0.47824007272720337,"3100":0.36837267875671387,"3101":-0.12985646724700928,"3102":0.3975229859352112,"3103":0.08417458832263947,"3104":0.6567402482032776,"3105":0.5249406099319458,"3106":0.014433627016842365,"3107":-0.11358042806386948,"3108":0.25329574942588806,"3109":1.2646150588989258,"3110":0.27608177065849304,"3111":0.08610974997282028,"3112":-0.23158696293830872,"3113":0.4350016713142395,"3114":-0.045622192323207855,"3115":0.9128890037536621,"3116":-0.5922126770019531,"3117":0.20594321191310883,"3118":0.033338405191898346,"3119":0.06613152474164963,"3120":0.3267095983028412,"3121":-0.4938020706176758,"3122":0.2043554186820984,"3123":-0.06039620563387871,"3124":0.3455478250980377,"3125":-0.39910346269607544,"3126":-0.3260599374771118,"3127":-0.08448605239391327,"3128":0.1445457637310028,"3129":0.7963091731071472,"3130":0.8333522081375122,"3131":0.6327296495437622,"3132":2.50927996635437,"3133":0.2377406507730484,"3134":0.2804626226425171,"3135":-0.8088740706443787,"3136":0.06616408377885818,"3137":2.5943548679351807,"3138":-0.02218286693096161,"3139":-0.4545774757862091,"3140":0.25411415100097656,"3141":-0.8409541845321655,"3142":-0.1348743736743927,"3143":-0.019344668835401535,"3144":0.3471660912036896,"3145":-0.25277459621429443,"3146":-0.28198763728141785,"3147":-0.15343888103961945,"3148":-1.1378365755081177,"3149":-0.47811195254325867,"3150":-0.09135674685239792,"3151":0.25875866413116455,"3152":-0.2651810348033905,"3153":0.7389448881149292,"3154":-0.291839599609375,"3155":-0.22064316272735596,"3156":-0.5862875580787659,"3157":-0.2218642681837082,"3158":0.07506025582551956,"3159":2.206159830093384,"3160":0.28978297114372253,"3161":-1.8750755786895752,"3162":2.919711112976074,"3163":-0.9092477560043335,"3164":-1.1620440483093262,"3165":2.3952476978302,"3166":0.5342498421669006,"3167":-2.158616781234741,"3168":-2.6645915508270264,"3169":-1.3287537097930908,"3170":-2.6597766876220703,"3171":2.7469189167022705,"3172":3.94278883934021,"3173":1.8453224897384644,"3174":1.430515170097351,"3175":-0.27657854557037354,"3176":0.7932711839675903,"3177":3.5605111122131348,"3178":-1.2971423864364624,"3179":-0.16104619204998016,"3180":0.4753854274749756,"3181":1.638597011566162,"3182":4.251932144165039,"3183":1.740570068359375,"3184":0.743902325630188,"3185":0.10799985378980637,"3186":2.103332042694092,"3187":0.6759945750236511,"3188":0.0644795298576355,"3189":-0.29190900921821594,"3190":0.6599572896957397,"3191":-0.12434552609920502,"3192":2.189289093017578,"3193":-0.661281406879425,"3194":-0.491431325674057,"3195":0.3653305470943451,"3196":1.6586189270019531,"3197":-1.5434935092926025,"3198":-1.0151373147964478,"3199":1.0621109008789062,"3200":0.28274407982826233,"3201":0.6196233630180359,"3202":0.20427240431308746,"3203":-2.5503153800964355,"3204":-1.9747575521469116,"3205":0.17977997660636902,"3206":1.5671743154525757,"3207":-0.5204967260360718,"3208":-0.13180318474769592,"3209":2.1894688606262207,"3210":1.1508523225784302,"3211":1.7325416803359985,"3212":-0.3486187160015106,"3213":0.2624084949493408,"3214":0.642876148223877,"3215":-0.0931759774684906,"3216":-3.1391592025756836,"3217":0.8205293416976929,"3218":-1.4200607538223267,"3219":-1.2786411046981812,"3220":-0.6502131819725037,"3221":2.768456220626831,"3222":0.5087804198265076,"3223":-0.16330364346504211,"3224":-1.0749788284301758,"3225":-2.825256824493408,"3226":-1.9690043926239014,"3227":-0.38180118799209595,"3228":-0.27355703711509705,"3229":-3.1118314266204834,"3230":0.7881251573562622,"3231":-0.2077578902244568,"3232":-2.252859354019165,"3233":-2.307509660720825,"3234":0.4443817734718323,"3235":1.3857048749923706,"3236":-0.8808496594429016,"3237":0.15319904685020447,"3238":-0.41598352789878845,"3239":0.44852349162101746,"3240":0.562658965587616,"3241":0.12936647236347198,"3242":0.43170100450515747,"3243":-0.08594480156898499,"3244":0.5926054120063782,"3245":1.3888815641403198,"3246":-0.6268631815910339,"3247":-0.23595350980758667,"3248":0.2684459686279297,"3249":0.3235872983932495,"3250":-0.5471479892730713,"3251":0.3655713200569153,"3252":-0.1063164621591568,"3253":-0.45867985486984253,"3254":-0.9315569996833801,"3255":-0.3678285777568817,"3256":-0.20613901317119598,"3257":0.7911733388900757,"3258":-0.5684075951576233,"3259":0.38857290148735046,"3260":0.595683217048645,"3261":0.1628776490688324,"3262":0.27489280700683594,"3263":0.3441518545150757,"3264":0.5743005275726318,"3265":0.4344187080860138,"3266":-0.005683013703674078,"3267":-0.6052247881889343,"3268":-0.08165562152862549,"3269":0.22471274435520172,"3270":-0.20251472294330597,"3271":0.4193585515022278,"3272":-0.42015501856803894,"3273":0.6378667950630188,"3274":0.44923895597457886,"3275":0.9262658953666687,"3276":0.5923739075660706,"3277":0.12991252541542053,"3278":-0.13968859612941742,"3279":-0.17189227044582367,"3280":-0.5127476453781128,"3281":0.3636086583137512,"3282":-0.22639715671539307,"3283":-0.9017095565795898,"3284":-0.7229298949241638,"3285":0.5613546967506409,"3286":-0.606599748134613,"3287":-0.42933782935142517,"3288":0.4728628098964691,"3289":0.19701844453811646,"3290":0.2985430955886841,"3291":-0.011407892219722271,"3292":0.5131535530090332,"3293":-0.08470587432384491,"3294":-0.4340818226337433,"3295":-0.11444177478551865,"3296":-0.3923828899860382,"3297":-0.2676074802875519,"3298":0.560293972492218,"3299":-0.2486603558063507,"3300":-0.6026488542556763,"3301":-0.4787130653858185,"3302":0.8341829180717468,"3303":-0.16076405346393585,"3304":0.518653392791748,"3305":0.47452983260154724,"3306":-0.40361297130584717,"3307":-0.5889083743095398,"3308":-0.2672278583049774,"3309":0.9282695651054382,"3310":0.40206819772720337,"3311":0.8433660864830017,"3312":-0.9057565331459045,"3313":-0.8530441522598267,"3314":1.0919941663742065,"3315":-0.7116211652755737,"3316":0.7472312450408936,"3317":1.594100832939148,"3318":1.459734559059143,"3319":1.0275179147720337,"3320":-0.9987300038337708,"3321":0.001107596093788743,"3322":2.134308099746704,"3323":-0.9946506023406982,"3324":-1.8657735586166382,"3325":0.5645827054977417,"3326":-0.5670177936553955,"3327":-1.3630648851394653,"3328":0.7117994427680969,"3329":-0.9848976135253906,"3330":-1.5246500968933105,"3331":-0.6496942639350891,"3332":-0.5502115488052368,"3333":1.1549016237258911,"3334":0.72284334897995,"3335":-1.4622695446014404,"3336":0.4709436893463135,"3337":0.829303503036499,"3338":0.7254257202148438,"3339":0.6873930096626282,"3340":-0.7961452007293701,"3341":0.8790223002433777,"3342":0.6452605128288269,"3343":1.7305012941360474,"3344":-1.834547519683838,"3345":-0.5235580205917358,"3346":0.4835759103298187,"3347":0.769508957862854,"3348":1.0364601612091064,"3349":-1.311519742012024,"3350":0.78302401304245,"3351":1.2283800840377808,"3352":0.5583168268203735,"3353":0.5913920402526855,"3354":0.2509399950504303,"3355":0.48113563656806946,"3356":1.9812543392181396,"3357":-0.8208664059638977,